~o
<STREAMINFO> 1 128
<VECSIZE> 128<NULLD><USER><DIAGC>
~h "spkr1"
<BEGINHMM>
<NUMSTATES> 3
<STATE> 2
<NUMMIXES> 32
<MIXTURE> 1 1.996759e-02
<MEAN> 128
 7.304685e+00 8.333533e+00 9.641646e+00 1.101004e+01 1.241422e+01 1.370423e+01 1.499881e+01 1.611969e+01 1.704238e+01 1.771418e+01 1.802108e+01 1.810617e+01 1.803221e+01 1.786137e+01 1.772705e+01 1.777181e+01 1.794700e+01 1.814701e+01 1.835196e+01 1.850842e+01 1.859633e+01 1.860662e+01 1.859845e+01 1.861395e+01 1.867369e+01 1.877122e+01 1.883679e+01 1.888068e+01 1.889300e+01 1.890167e+01 1.895840e+01 1.908648e+01 1.926299e+01 1.943729e+01 1.956533e+01 1.962661e+01 1.961142e+01 1.949355e+01 1.928442e+01 1.899005e+01 1.863925e+01 1.827567e+01 1.791919e+01 1.756072e+01 1.718987e+01 1.679093e+01 1.635736e+01 1.590458e+01 1.546151e+01 1.505864e+01 1.471125e+01 1.440258e+01 1.413992e+01 1.395084e+01 1.384116e+01 1.375930e+01 1.365713e+01 1.352978e+01 1.338077e+01 1.325862e+01 1.316273e+01 1.307232e+01 1.301362e+01 1.304582e+01 1.317406e+01 1.336852e+01 1.365382e+01 1.403406e+01 1.445223e+01 1.485312e+01 1.520196e+01 1.546545e+01 1.560602e+01 1.560447e+01 1.548817e+01 1.529138e+01 1.506093e+01 1.484913e+01 1.468297e+01 1.457385e+01 1.451015e+01 1.451344e+01 1.461668e+01 1.484728e+01 1.521184e+01 1.565284e+01 1.605572e+01 1.633932e+01 1.648714e+01 1.649905e+01 1.639190e+01 1.619598e+01 1.595910e+01 1.573128e+01 1.551171e+01 1.528630e+01 1.509396e+01 1.494777e+01 1.486104e+01 1.479899e+01 1.470709e+01 1.455486e+01 1.433884e+01 1.397339e+01 1.354942e+01 1.306400e+01 1.255617e+01 1.213966e+01 1.193414e+01 1.191691e+01 1.192250e+01 1.171412e+01 1.130497e+01 1.073596e+01 1.010835e+01 9.529665e+00 9.085663e+00 8.838996e+00 8.814192e+00 9.000667e+00 9.250335e+00 9.425912e+00 9.469466e+00 9.371753e+00 9.067648e+00 8.354069e+00 8.558804e+00 9.051986e+00
<VARIANCE> 128
 8.011457e-01 9.748765e-01 1.678554e+00 2.586073e+00 3.589972e+00 4.489354e+00 4.857763e+00 4.477776e+00 3.501208e+00 2.456514e+00 1.862664e+00 1.868631e+00 2.216398e+00 2.405540e+00 2.158854e+00 1.429246e+00 8.844240e-01 6.587087e-01 6.743412e-01 8.325632e-01 1.015773e+00 1.125789e+00 1.164648e+00 1.161561e+00 1.065162e+00 8.754466e-01 6.797004e-01 5.685769e-01 6.072660e-01 7.543768e-01 8.826922e-01 8.995299e-01 8.196731e-01 7.314376e-01 7.014477e-01 7.556742e-01 8.493006e-01 9.298945e-01 9.754005e-01 1.011457e+00 1.076644e+00 1.181890e+00 1.300349e+00 1.365407e+00 1.341866e+00 1.282725e+00 1.237723e+00 1.195994e+00 1.128526e+00 1.043562e+00 9.831992e-01 9.510630e-01 9.348674e-01 9.375739e-01 9.560707e-01 9.887741e-01 1.025940e+00 1.064910e+00 1.110927e+00 1.168660e+00 1.247030e+00 1.362017e+00 1.509168e+00 1.673470e+00 1.831901e+00 1.982823e+00 2.142220e+00 2.280522e+00 2.330886e+00 2.269852e+00 2.085154e+00 1.787153e+00 1.430154e+00 1.091412e+00 8.639947e-01 7.827762e-01 8.029352e-01 8.628789e-01 9.100696e-01 9.284928e-01 9.343862e-01 9.346738e-01 9.063609e-01 8.162189e-01 6.882327e-01 6.091040e-01 6.561034e-01 8.183006e-01 1.003963e+00 1.125974e+00 1.158550e+00 1.116883e+00 1.030598e+00 9.264954e-01 8.220542e-01 7.304825e-01 6.576084e-01 6.029707e-01 5.713279e-01 5.684063e-01 5.889346e-01 6.245495e-01 6.722776e-01 7.225261e-01 7.505641e-01 7.300802e-01 6.460904e-01 5.534712e-01 5.921240e-01 7.719914e-01 9.220313e-01 9.509820e-01 8.941223e-01 8.129902e-01 7.547973e-01 7.565520e-01 8.152428e-01 9.031299e-01 9.827623e-01 9.950562e-01 9.304545e-01 8.349154e-01 7.497717e-01 6.963266e-01 6.840413e-01 6.833165e-01 7.326639e-01 8.536505e-01
<GCONST> 2.414997e+02
<MIXTURE> 2 4.410980e-02
<MEAN> 128
 7.553852e+00 9.004583e+00 1.061519e+01 1.218232e+01 1.367369e+01 1.487901e+01 1.587272e+01 1.649842e+01 1.680326e+01 1.683827e+01 1.660068e+01 1.635394e+01 1.627408e+01 1.640927e+01 1.671631e+01 1.709867e+01 1.743408e+01 1.760047e+01 1.764403e+01 1.763967e+01 1.766625e+01 1.774460e+01 1.788925e+01 1.805804e+01 1.816758e+01 1.815769e+01 1.799175e+01 1.775373e+01 1.751836e+01 1.735831e+01 1.729574e+01 1.727247e+01 1.722365e+01 1.712529e+01 1.697840e+01 1.679151e+01 1.656927e+01 1.628021e+01 1.592476e+01 1.551823e+01 1.510623e+01 1.473860e+01 1.443120e+01 1.415595e+01 1.388949e+01 1.362101e+01 1.334272e+01 1.305246e+01 1.276340e+01 1.249862e+01 1.227640e+01 1.208385e+01 1.192124e+01 1.180398e+01 1.174054e+01 1.169382e+01 1.162721e+01 1.153985e+01 1.141954e+01 1.130199e+01 1.119379e+01 1.109205e+01 1.102122e+01 1.101901e+01 1.106789e+01 1.110803e+01 1.113226e+01 1.116062e+01 1.119105e+01 1.120062e+01 1.117654e+01 1.112529e+01 1.104023e+01 1.091235e+01 1.079078e+01 1.073550e+01 1.078913e+01 1.094759e+01 1.114686e+01 1.133489e+01 1.146433e+01 1.151991e+01 1.151134e+01 1.147260e+01 1.144674e+01 1.145211e+01 1.146377e+01 1.146156e+01 1.145478e+01 1.143900e+01 1.140159e+01 1.133496e+01 1.125993e+01 1.120939e+01 1.117098e+01 1.112634e+01 1.110285e+01 1.108407e+01 1.105160e+01 1.097600e+01 1.083185e+01 1.061963e+01 1.037041e+01 1.002576e+01 9.690818e+00 9.369198e+00 9.084667e+00 8.876392e+00 8.751685e+00 8.676633e+00 8.585659e+00 8.332237e+00 7.969799e+00 7.538387e+00 7.106081e+00 6.728840e+00 6.450420e+00 6.316613e+00 6.340636e+00 6.507733e+00 6.683025e+00 6.767129e+00 6.775106e+00 6.760743e+00 6.608257e+00 5.942147e+00 6.343088e+00 6.946757e+00
<VARIANCE> 128
 1.038514e+00 1.122745e+00 1.338781e+00 1.516332e+00 1.568434e+00 1.430376e+00 1.150260e+00 9.486325e-01 1.114580e+00 1.754835e+00 2.604790e+00 3.038719e+00 2.695256e+00 1.926880e+00 1.281659e+00 1.035225e+00 1.142048e+00 1.415798e+00 1.623273e+00 1.631921e+00 1.564611e+00 1.573496e+00 1.675936e+00 1.773981e+00 1.794982e+00 1.735669e+00 1.598400e+00 1.450470e+00 1.387056e+00 1.420018e+00 1.481575e+00 1.515981e+00 1.514366e+00 1.483116e+00 1.451264e+00 1.462302e+00 1.517073e+00 1.599346e+00 1.684053e+00 1.761943e+00 1.857840e+00 2.004906e+00 2.188858e+00 2.381751e+00 2.562407e+00 2.717355e+00 2.834917e+00 2.931473e+00 3.050982e+00 3.211401e+00 3.391309e+00 3.552827e+00 3.647049e+00 3.624408e+00 3.456330e+00 3.186097e+00 2.882674e+00 2.608399e+00 2.407755e+00 2.285483e+00 2.228371e+00 2.198122e+00 2.155945e+00 2.107283e+00 2.077029e+00 2.098513e+00 2.205102e+00 2.384330e+00 2.566194e+00 2.702615e+00 2.802905e+00 2.875054e+00 2.886048e+00 2.796647e+00 2.608457e+00 2.367889e+00 2.167474e+00 2.086860e+00 2.106359e+00 2.151750e+00 2.173356e+00 2.148121e+00 2.055043e+00 1.875267e+00 1.646437e+00 1.472395e+00 1.395082e+00 1.349219e+00 1.268327e+00 1.149830e+00 1.030614e+00 9.257571e-01 8.462201e-01 8.121662e-01 8.245497e-01 8.518505e-01 8.652641e-01 8.700850e-01 8.764724e-01 8.688971e-01 8.452331e-01 8.230459e-01 8.201532e-01 8.417477e-01 8.607334e-01 8.302600e-01 7.310021e-01 6.271040e-01 6.174816e-01 7.013267e-01 7.883569e-01 8.048788e-01 7.302787e-01 6.074931e-01 5.041388e-01 4.558362e-01 4.674014e-01 5.444638e-01 6.810575e-01 8.278708e-01 9.278119e-01 9.641240e-01 9.553651e-01 9.451055e-01 9.527650e-01 8.876646e-01 9.954946e-01 1.124479e+00
<GCONST> 2.856257e+02
<MIXTURE> 3 2.601214e-02
<MEAN> 128
 7.676139e+00 8.666523e+00 9.748568e+00 1.071877e+01 1.153348e+01 1.204064e+01 1.246387e+01 1.275221e+01 1.298996e+01 1.324134e+01 1.342141e+01 1.360860e+01 1.372910e+01 1.372527e+01 1.364101e+01 1.356433e+01 1.354044e+01 1.353887e+01 1.361234e+01 1.376336e+01 1.400521e+01 1.429441e+01 1.459418e+01 1.484192e+01 1.499565e+01 1.506301e+01 1.505768e+01 1.508545e+01 1.517527e+01 1.527621e+01 1.534562e+01 1.537315e+01 1.536127e+01 1.531979e+01 1.523902e+01 1.513227e+01 1.500467e+01 1.482644e+01 1.460466e+01 1.435118e+01 1.410689e+01 1.390898e+01 1.375251e+01 1.360596e+01 1.345765e+01 1.331103e+01 1.316852e+01 1.302362e+01 1.288154e+01 1.276636e+01 1.268770e+01 1.261664e+01 1.254887e+01 1.249832e+01 1.246189e+01 1.241433e+01 1.234453e+01 1.226974e+01 1.218648e+01 1.213086e+01 1.209730e+01 1.206012e+01 1.202372e+01 1.202613e+01 1.207485e+01 1.215105e+01 1.228703e+01 1.250207e+01 1.276614e+01 1.304102e+01 1.331265e+01 1.358466e+01 1.384334e+01 1.405523e+01 1.421252e+01 1.431131e+01 1.435406e+01 1.434818e+01 1.429671e+01 1.422836e+01 1.416770e+01 1.416716e+01 1.428645e+01 1.456002e+01 1.496452e+01 1.541411e+01 1.579477e+01 1.603574e+01 1.613860e+01 1.612550e+01 1.602342e+01 1.586536e+01 1.570779e+01 1.561182e+01 1.557945e+01 1.558636e+01 1.564296e+01 1.571523e+01 1.578445e+01 1.584513e+01 1.590800e+01 1.599864e+01 1.613136e+01 1.618357e+01 1.619579e+01 1.615290e+01 1.608437e+01 1.601726e+01 1.593215e+01 1.578705e+01 1.557152e+01 1.524274e+01 1.490972e+01 1.457253e+01 1.422323e+01 1.387587e+01 1.355933e+01 1.328442e+01 1.303118e+01 1.282655e+01 1.264969e+01 1.248857e+01 1.232991e+01 1.213754e+01 1.179934e+01 1.107460e+01 1.128934e+01 1.180599e+01
<VARIANCE> 128
 2.105791e+00 2.481030e+00 3.036280e+00 3.640837e+00 4.152709e+00 4.737034e+00 5.484625e+00 6.280576e+00 6.949463e+00 7.492652e+00 7.889158e+00 8.000239e+00 7.816389e+00 7.308844e+00 6.577591e+00 5.748870e+00 4.922894e+00 4.252463e+00 3.780202e+00 3.539000e+00 3.531804e+00 3.659469e+00 3.779984e+00 3.811105e+00 3.669801e+00 3.346795e+00 2.928982e+00 2.562270e+00 2.316233e+00 2.206386e+00 2.188357e+00 2.182716e+00 2.145958e+00 2.045673e+00 1.934937e+00 1.819829e+00 1.709200e+00 1.631308e+00 1.589209e+00 1.598337e+00 1.645980e+00 1.698614e+00 1.731192e+00 1.748196e+00 1.756010e+00 1.760080e+00 1.773269e+00 1.805753e+00 1.846446e+00 1.882024e+00 1.913962e+00 1.933131e+00 1.947212e+00 1.955157e+00 1.988364e+00 2.046535e+00 2.111854e+00 2.192605e+00 2.322362e+00 2.491440e+00 2.662540e+00 2.805579e+00 2.891271e+00 2.908868e+00 2.868718e+00 2.793945e+00 2.732444e+00 2.685014e+00 2.595545e+00 2.436538e+00 2.227513e+00 1.997513e+00 1.760141e+00 1.544448e+00 1.391465e+00 1.296816e+00 1.235474e+00 1.203507e+00 1.203437e+00 1.226655e+00 1.271651e+00 1.329108e+00 1.376855e+00 1.405353e+00 1.439598e+00 1.519222e+00 1.648986e+00 1.790211e+00 1.888462e+00 1.921818e+00 1.906365e+00 1.874903e+00 1.855445e+00 1.872950e+00 1.934417e+00 2.016702e+00 2.073493e+00 2.073564e+00 2.011115e+00 1.902969e+00 1.788016e+00 1.718677e+00 1.719874e+00 1.757496e+00 1.784337e+00 1.799255e+00 1.849805e+00 1.968476e+00 2.122566e+00 2.259312e+00 2.352924e+00 2.414499e+00 2.464061e+00 2.497804e+00 2.500883e+00 2.481147e+00 2.459059e+00 2.427031e+00 2.357210e+00 2.236532e+00 2.096341e+00 1.998223e+00 1.970086e+00 1.998224e+00 2.058907e+00 2.064868e+00 2.209545e+00 2.342709e+00
<GCONST> 3.438114e+02
<MIXTURE> 4 1.749653e-02
<MEAN> 128
 6.236133e+00 6.931367e+00 7.663570e+00 8.272949e+00 8.715492e+00 8.863217e+00 8.951810e+00 8.979850e+00 9.072185e+00 9.230838e+00 9.346780e+00 9.496545e+00 9.587889e+00 9.572523e+00 9.485132e+00 9.408946e+00 9.391438e+00 9.366529e+00 9.379150e+00 9.424521e+00 9.511773e+00 9.639122e+00 9.797538e+00 9.942404e+00 1.000317e+01 9.959954e+00 9.812070e+00 9.680316e+00 9.621345e+00 9.600440e+00 9.588598e+00 9.588473e+00 9.617121e+00 9.632945e+00 9.625704e+00 9.620976e+00 9.591251e+00 9.490142e+00 9.334996e+00 9.140412e+00 8.953199e+00 8.818436e+00 8.711123e+00 8.602852e+00 8.492824e+00 8.384604e+00 8.271305e+00 8.144034e+00 8.004994e+00 7.880775e+00 7.782148e+00 7.680116e+00 7.585368e+00 7.522934e+00 7.503528e+00 7.500604e+00 7.486911e+00 7.474313e+00 7.451117e+00 7.449008e+00 7.463505e+00 7.480068e+00 7.506915e+00 7.574464e+00 7.667801e+00 7.744049e+00 7.817364e+00 7.901513e+00 7.961608e+00 7.962643e+00 7.915268e+00 7.852231e+00 7.772915e+00 7.662892e+00 7.567216e+00 7.540061e+00 7.607696e+00 7.746967e+00 7.896769e+00 8.020817e+00 8.087162e+00 8.093608e+00 8.059181e+00 8.022620e+00 8.033435e+00 8.113700e+00 8.223857e+00 8.327787e+00 8.432343e+00 8.527439e+00 8.595588e+00 8.631993e+00 8.658794e+00 8.708262e+00 8.766085e+00 8.811354e+00 8.866289e+00 8.913649e+00 8.950539e+00 8.974836e+00 8.981601e+00 8.974822e+00 8.957259e+00 8.823236e+00 8.655492e+00 8.473935e+00 8.309155e+00 8.178181e+00 8.067786e+00 7.946695e+00 7.801602e+00 7.572979e+00 7.346200e+00 7.112396e+00 6.869502e+00 6.632939e+00 6.415504e+00 6.217065e+00 6.025136e+00 5.871153e+00 5.719813e+00 5.550397e+00 5.363671e+00 5.145169e+00 4.800601e+00 4.089536e+00 4.304920e+00 4.822803e+00
<VARIANCE> 128
 2.670253e+00 2.376427e+00 2.877921e+00 3.491297e+00 3.690919e+00 3.359697e+00 2.867778e+00 2.465241e+00 2.170133e+00 2.046494e+00 2.059845e+00 2.141233e+00 2.110801e+00 1.922071e+00 1.666015e+00 1.487627e+00 1.404793e+00 1.377970e+00 1.353077e+00 1.308087e+00 1.278102e+00 1.270061e+00 1.288753e+00 1.306785e+00 1.274045e+00 1.215043e+00 1.176377e+00 1.161687e+00 1.190796e+00 1.220072e+00 1.217664e+00 1.180316e+00 1.142848e+00 1.099897e+00 1.061589e+00 1.034992e+00 1.029026e+00 1.034174e+00 1.038778e+00 1.019890e+00 9.884186e-01 9.324199e-01 9.054914e-01 9.070632e-01 9.316620e-01 9.597461e-01 9.717053e-01 9.630744e-01 9.464521e-01 9.254535e-01 9.171543e-01 9.279462e-01 9.452682e-01 9.738144e-01 9.953274e-01 9.848893e-01 9.535748e-01 9.110883e-01 8.950186e-01 8.845792e-01 8.656479e-01 8.380440e-01 8.196334e-01 8.350794e-01 8.480179e-01 8.347723e-01 8.442516e-01 8.785398e-01 8.874005e-01 8.547296e-01 8.259093e-01 8.438729e-01 8.868009e-01 9.005973e-01 8.600591e-01 7.892697e-01 7.410439e-01 7.561314e-01 8.133906e-01 8.660387e-01 8.860960e-01 8.619614e-01 8.013378e-01 7.316553e-01 6.822109e-01 6.793077e-01 7.215207e-01 7.701395e-01 8.000460e-01 8.239850e-01 8.683409e-01 9.478668e-01 1.059934e+00 1.175976e+00 1.266493e+00 1.313647e+00 1.315629e+00 1.289120e+00 1.259565e+00 1.225145e+00 1.171547e+00 1.102256e+00 1.039242e+00 9.888952e-01 9.333006e-01 8.636037e-01 8.048975e-01 7.980829e-01 8.513386e-01 9.231255e-01 9.453135e-01 8.981298e-01 8.230197e-01 7.602377e-01 7.182234e-01 6.917217e-01 6.782683e-01 6.784950e-01 6.955714e-01 7.267399e-01 7.675033e-01 8.145166e-01 8.635520e-01 9.165950e-01 9.728983e-01 9.643444e-01 1.092952e+00 1.186920e+00
<GCONST> 2.435808e+02
<MIXTURE> 5 3.381159e-02
<MEAN> 128
 7.885406e+00 9.267881e+00 1.076254e+01 1.214271e+01 1.334134e+01 1.414941e+01 1.468217e+01 1.486220e+01 1.481107e+01 1.462945e+01 1.440970e+01 1.439620e+01 1.457870e+01 1.483090e+01 1.502681e+01 1.509463e+01 1.503733e+01 1.487090e+01 1.472994e+01 1.468361e+01 1.477784e+01 1.496501e+01 1.518649e+01 1.534538e+01 1.534659e+01 1.516354e+01 1.481878e+01 1.451752e+01 1.435235e+01 1.426122e+01 1.415205e+01 1.399598e+01 1.381317e+01 1.360007e+01 1.334628e+01 1.309118e+01 1.284586e+01 1.256178e+01 1.223677e+01 1.187400e+01 1.151160e+01 1.120711e+01 1.097142e+01 1.076638e+01 1.057462e+01 1.039767e+01 1.022948e+01 1.005835e+01 9.888407e+00 9.746296e+00 9.647490e+00 9.560566e+00 9.487100e+00 9.446578e+00 9.438999e+00 9.426176e+00 9.377526e+00 9.309601e+00 9.225317e+00 9.166186e+00 9.134379e+00 9.111436e+00 9.101834e+00 9.146826e+00 9.258271e+00 9.417490e+00 9.646063e+00 9.955987e+00 1.031174e+01 1.067025e+01 1.100679e+01 1.131041e+01 1.156187e+01 1.174503e+01 1.188153e+01 1.198532e+01 1.206536e+01 1.212255e+01 1.214263e+01 1.213606e+01 1.212244e+01 1.215724e+01 1.230056e+01 1.258224e+01 1.297304e+01 1.338886e+01 1.372462e+01 1.392260e+01 1.399617e+01 1.397400e+01 1.389060e+01 1.377965e+01 1.368473e+01 1.364887e+01 1.365816e+01 1.368510e+01 1.375203e+01 1.384321e+01 1.394973e+01 1.406721e+01 1.420346e+01 1.437159e+01 1.456531e+01 1.465241e+01 1.468595e+01 1.466841e+01 1.463485e+01 1.460665e+01 1.455997e+01 1.445442e+01 1.427709e+01 1.397678e+01 1.365447e+01 1.331157e+01 1.295144e+01 1.259844e+01 1.228135e+01 1.200623e+01 1.175372e+01 1.155127e+01 1.137321e+01 1.120361e+01 1.103172e+01 1.082641e+01 1.048204e+01 9.752447e+00 9.987542e+00 1.051754e+01
<VARIANCE> 128
 1.650145e+00 1.937201e+00 2.225069e+00 2.313720e+00 2.275850e+00 2.208717e+00 2.229431e+00 2.425512e+00 2.715231e+00 3.060794e+00 3.172536e+00 2.936902e+00 2.557406e+00 2.264111e+00 2.352959e+00 3.011787e+00 3.948450e+00 4.564274e+00 4.502279e+00 4.053696e+00 3.789697e+00 4.021626e+00 4.546854e+00 5.053791e+00 5.421512e+00 5.602536e+00 5.570782e+00 5.200737e+00 4.725718e+00 4.357947e+00 4.103755e+00 3.817455e+00 3.403685e+00 2.928059e+00 2.477532e+00 2.074727e+00 1.758618e+00 1.550213e+00 1.378898e+00 1.207212e+00 1.041232e+00 9.110900e-01 8.277662e-01 7.901117e-01 7.743435e-01 7.645446e-01 7.523162e-01 7.307975e-01 6.918966e-01 6.639585e-01 6.669139e-01 6.704932e-01 6.601201e-01 6.500573e-01 6.629674e-01 6.911187e-01 7.050708e-01 6.939029e-01 6.843741e-01 7.047465e-01 7.648643e-01 8.569098e-01 9.695396e-01 1.097415e+00 1.216687e+00 1.327529e+00 1.465403e+00 1.602797e+00 1.687679e+00 1.722916e+00 1.738977e+00 1.756953e+00 1.788921e+00 1.847542e+00 1.935354e+00 2.040257e+00 2.133733e+00 2.173423e+00 2.131966e+00 2.011906e+00 1.844053e+00 1.692703e+00 1.617576e+00 1.637250e+00 1.714449e+00 1.758723e+00 1.722208e+00 1.624840e+00 1.492059e+00 1.345779e+00 1.203063e+00 1.072807e+00 9.767936e-01 9.454044e-01 9.960212e-01 1.105153e+00 1.233879e+00 1.376553e+00 1.551391e+00 1.769343e+00 2.037526e+00 2.343616e+00 2.640392e+00 2.888415e+00 3.080273e+00 3.236049e+00 3.378949e+00 3.522159e+00 3.653579e+00 3.731347e+00 3.744959e+00 3.742602e+00 3.767694e+00 3.799366e+00 3.787526e+00 3.728528e+00 3.650778e+00 3.549425e+00 3.396488e+00 3.199452e+00 3.009455e+00 2.887191e+00 2.845353e+00 2.855008e+00 2.884666e+00 2.879329e+00 2.990988e+00 3.116888e+00
<GCONST> 3.207776e+02
<MIXTURE> 6 5.484661e-02
<MEAN> 128
 7.681965e+00 9.236177e+00 1.095228e+01 1.263368e+01 1.426396e+01 1.562084e+01 1.674356e+01 1.743916e+01 1.773132e+01 1.766737e+01 1.725246e+01 1.674641e+01 1.635760e+01 1.630650e+01 1.672349e+01 1.747906e+01 1.827212e+01 1.881585e+01 1.903772e+01 1.894407e+01 1.864748e+01 1.832004e+01 1.818540e+01 1.834937e+01 1.872748e+01 1.910708e+01 1.925572e+01 1.914650e+01 1.886684e+01 1.858788e+01 1.843369e+01 1.837687e+01 1.830448e+01 1.814284e+01 1.788518e+01 1.756520e+01 1.721848e+01 1.684758e+01 1.646312e+01 1.605208e+01 1.562048e+01 1.519986e+01 1.482089e+01 1.448358e+01 1.417462e+01 1.387431e+01 1.356714e+01 1.324913e+01 1.293360e+01 1.264875e+01 1.241902e+01 1.223582e+01 1.209517e+01 1.200861e+01 1.197034e+01 1.194059e+01 1.189429e+01 1.183425e+01 1.174621e+01 1.165697e+01 1.156346e+01 1.144961e+01 1.133746e+01 1.128860e+01 1.131832e+01 1.139115e+01 1.150726e+01 1.166760e+01 1.184585e+01 1.201934e+01 1.218099e+01 1.232883e+01 1.245140e+01 1.254205e+01 1.263195e+01 1.274837e+01 1.290685e+01 1.309951e+01 1.328807e+01 1.344759e+01 1.355124e+01 1.360237e+01 1.361592e+01 1.361681e+01 1.363893e+01 1.369959e+01 1.376933e+01 1.381862e+01 1.385351e+01 1.387345e+01 1.386755e+01 1.382617e+01 1.376309e+01 1.369891e+01 1.361435e+01 1.349423e+01 1.338052e+01 1.327735e+01 1.318207e+01 1.307025e+01 1.291937e+01 1.272686e+01 1.251179e+01 1.219738e+01 1.186829e+01 1.151681e+01 1.116763e+01 1.087780e+01 1.069662e+01 1.061698e+01 1.054423e+01 1.028090e+01 9.859618e+00 9.344841e+00 8.839545e+00 8.415545e+00 8.121200e+00 8.011011e+00 8.098285e+00 8.338775e+00 8.567984e+00 8.680607e+00 8.689107e+00 8.644475e+00 8.443650e+00 7.731102e+00 8.103698e+00 8.701368e+00
<VARIANCE> 128
 5.066367e-01 4.238841e-01 4.347994e-01 4.377582e-01 4.000262e-01 3.107618e-01 2.129581e-01 2.016566e-01 3.568863e-01 6.582136e-01 9.717698e-01 1.096127e+00 8.645484e-01 4.602560e-01 3.162228e-01 3.724635e-01 3.782159e-01 3.803151e-01 5.376946e-01 8.480278e-01 1.038884e+00 8.905661e-01 6.382599e-01 5.738783e-01 5.887106e-01 5.453611e-01 5.950609e-01 8.424364e-01 1.082025e+00 1.074210e+00 8.952907e-01 7.916101e-01 8.664096e-01 1.026243e+00 1.180302e+00 1.386694e+00 1.711885e+00 2.087522e+00 2.398758e+00 2.622863e+00 2.861835e+00 3.219674e+00 3.664154e+00 4.079517e+00 4.406564e+00 4.654006e+00 4.806624e+00 4.845323e+00 4.804679e+00 4.750488e+00 4.753320e+00 4.843239e+00 5.046118e+00 5.293667e+00 5.497802e+00 5.642616e+00 5.719307e+00 5.745834e+00 5.754219e+00 5.734359e+00 5.654741e+00 5.521262e+00 5.333603e+00 5.069265e+00 4.740674e+00 4.418118e+00 4.181183e+00 4.066164e+00 4.026316e+00 3.964678e+00 3.817397e+00 3.581886e+00 3.263742e+00 2.894561e+00 2.562510e+00 2.341268e+00 2.239485e+00 2.202166e+00 2.170801e+00 2.138839e+00 2.113655e+00 2.076942e+00 1.979228e+00 1.777217e+00 1.532174e+00 1.392869e+00 1.421690e+00 1.545573e+00 1.654808e+00 1.686398e+00 1.637580e+00 1.524012e+00 1.374237e+00 1.229251e+00 1.113689e+00 1.032689e+00 9.824702e-01 9.539557e-01 9.375625e-01 9.312969e-01 9.562265e-01 1.045288e+00 1.197068e+00 1.371352e+00 1.495766e+00 1.488693e+00 1.320455e+00 1.098975e+00 1.010658e+00 1.091652e+00 1.217940e+00 1.299803e+00 1.314920e+00 1.252400e+00 1.152462e+00 1.075005e+00 1.056198e+00 1.117226e+00 1.196030e+00 1.191247e+00 1.107943e+00 1.009853e+00 9.309279e-01 8.792628e-01 8.587933e-01 8.648040e-01 8.784516e-01 9.395484e-01
<GCONST> 2.858358e+02
<MIXTURE> 7 2.676377e-02
<MEAN> 128
 8.051598e+00 9.386986e+00 1.072311e+01 1.187786e+01 1.277533e+01 1.322199e+01 1.342455e+01 1.338299e+01 1.324730e+01 1.312459e+01 1.307208e+01 1.327199e+01 1.355803e+01 1.368960e+01 1.360010e+01 1.337332e+01 1.311738e+01 1.291008e+01 1.291736e+01 1.310889e+01 1.334026e+01 1.347859e+01 1.350370e+01 1.343667e+01 1.331376e+01 1.318516e+01 1.302091e+01 1.284723e+01 1.266318e+01 1.249720e+01 1.242925e+01 1.249150e+01 1.258940e+01 1.264543e+01 1.267489e+01 1.272962e+01 1.277851e+01 1.272935e+01 1.257565e+01 1.235503e+01 1.215242e+01 1.202288e+01 1.193884e+01 1.186366e+01 1.177892e+01 1.167126e+01 1.154511e+01 1.140807e+01 1.127627e+01 1.118219e+01 1.114702e+01 1.113991e+01 1.114502e+01 1.116435e+01 1.120353e+01 1.123688e+01 1.124619e+01 1.124034e+01 1.120835e+01 1.117388e+01 1.113059e+01 1.106849e+01 1.100754e+01 1.098048e+01 1.097827e+01 1.096002e+01 1.093096e+01 1.090919e+01 1.087542e+01 1.079754e+01 1.067097e+01 1.052115e+01 1.034497e+01 1.012332e+01 9.901899e+00 9.751813e+00 9.725175e+00 9.816095e+00 9.947875e+00 1.005474e+01 1.008623e+01 1.004163e+01 9.951821e+00 9.873360e+00 9.878633e+00 9.998695e+00 1.016819e+01 1.031078e+01 1.040639e+01 1.044384e+01 1.041437e+01 1.032701e+01 1.023042e+01 1.018189e+01 1.018567e+01 1.022212e+01 1.029198e+01 1.034927e+01 1.037054e+01 1.034491e+01 1.027185e+01 1.016616e+01 1.004779e+01 9.825329e+00 9.579227e+00 9.313730e+00 9.065078e+00 8.879912e+00 8.757112e+00 8.649329e+00 8.505750e+00 8.220846e+00 7.863690e+00 7.457235e+00 7.052240e+00 6.694525e+00 6.408660e+00 6.206329e+00 6.088767e+00 6.088659e+00 6.141500e+00 6.172736e+00 6.159570e+00 6.109573e+00 5.906542e+00 5.204554e+00 5.572630e+00 6.171731e+00
<VARIANCE> 128
 2.549734e+00 4.179420e+00 5.776296e+00 6.928634e+00 7.469306e+00 7.310581e+00 6.395678e+00 5.145435e+00 3.983698e+00 3.128993e+00 2.641209e+00 2.579236e+00 2.824616e+00 3.140914e+00 3.281369e+00 3.129483e+00 2.754755e+00 2.372143e+00 2.260655e+00 2.482149e+00 2.796587e+00 2.891096e+00 2.614386e+00 2.145887e+00 1.743259e+00 1.487661e+00 1.362347e+00 1.306255e+00 1.254107e+00 1.238148e+00 1.277763e+00 1.359765e+00 1.442187e+00 1.511169e+00 1.597362e+00 1.744870e+00 1.924051e+00 2.085149e+00 2.152743e+00 2.145745e+00 2.121974e+00 2.078044e+00 2.062294e+00 2.074234e+00 2.115835e+00 2.184288e+00 2.249539e+00 2.331145e+00 2.478122e+00 2.686011e+00 2.976195e+00 3.362480e+00 3.765519e+00 4.079964e+00 4.216562e+00 4.200106e+00 4.127196e+00 4.046936e+00 3.993635e+00 3.985960e+00 3.967502e+00 3.848176e+00 3.555755e+00 3.154507e+00 2.767763e+00 2.444240e+00 2.203519e+00 2.061076e+00 1.971173e+00 1.862923e+00 1.751171e+00 1.650217e+00 1.542440e+00 1.410490e+00 1.266930e+00 1.115520e+00 9.733390e-01 8.893206e-01 8.685446e-01 8.847004e-01 9.244047e-01 1.000322e+00 1.145870e+00 1.361416e+00 1.585346e+00 1.758252e+00 1.872440e+00 1.937241e+00 1.957520e+00 1.955744e+00 1.957240e+00 1.961056e+00 1.956099e+00 1.931877e+00 1.872122e+00 1.762943e+00 1.622769e+00 1.488125e+00 1.378023e+00 1.283980e+00 1.197825e+00 1.135086e+00 1.141790e+00 1.236423e+00 1.345778e+00 1.372448e+00 1.287343e+00 1.158585e+00 1.089516e+00 1.094753e+00 1.116085e+00 1.115877e+00 1.092766e+00 1.062711e+00 1.047164e+00 1.063428e+00 1.127056e+00 1.233854e+00 1.355189e+00 1.470517e+00 1.583468e+00 1.694766e+00 1.801819e+00 1.918584e+00 2.024975e+00 1.944355e+00 2.210435e+00 2.415783e+00
<GCONST> 3.235261e+02
<MIXTURE> 8 1.700893e-02
<MEAN> 128
 6.596314e+00 7.231323e+00 7.926412e+00 8.559955e+00 9.071544e+00 9.293224e+00 9.464375e+00 9.542986e+00 9.613864e+00 9.720920e+00 9.852949e+00 1.005598e+01 1.016447e+01 1.010093e+01 9.906441e+00 9.719052e+00 9.622296e+00 9.545074e+00 9.498074e+00 9.464568e+00 9.494505e+00 9.569277e+00 9.690047e+00 9.793088e+00 9.781863e+00 9.578412e+00 9.197474e+00 8.881361e+00 8.760766e+00 8.624783e+00 8.404408e+00 8.189238e+00 8.138282e+00 8.100010e+00 7.994094e+00 7.918301e+00 7.866965e+00 7.740726e+00 7.542341e+00 7.303276e+00 7.056361e+00 6.890924e+00 6.751478e+00 6.593725e+00 6.431127e+00 6.270024e+00 6.113130e+00 5.967156e+00 5.823009e+00 5.702181e+00 5.603986e+00 5.496478e+00 5.396154e+00 5.333087e+00 5.304344e+00 5.289409e+00 5.263608e+00 5.235393e+00 5.199848e+00 5.172717e+00 5.145038e+00 5.114889e+00 5.085302e+00 5.081611e+00 5.090676e+00 5.073364e+00 5.048480e+00 5.048090e+00 5.069822e+00 5.091486e+00 5.111426e+00 5.147200e+00 5.182515e+00 5.186461e+00 5.194593e+00 5.246305e+00 5.344464e+00 5.468041e+00 5.584364e+00 5.686067e+00 5.757062e+00 5.792908e+00 5.802660e+00 5.808443e+00 5.834249e+00 5.892583e+00 5.965005e+00 6.032008e+00 6.097793e+00 6.155085e+00 6.203432e+00 6.247136e+00 6.294276e+00 6.356446e+00 6.412213e+00 6.441331e+00 6.477796e+00 6.515732e+00 6.556132e+00 6.597353e+00 6.635885e+00 6.670247e+00 6.697523e+00 6.620974e+00 6.532762e+00 6.439470e+00 6.346920e+00 6.257358e+00 6.167070e+00 6.072144e+00 5.976672e+00 5.807675e+00 5.637900e+00 5.464405e+00 5.287912e+00 5.107320e+00 4.921068e+00 4.729710e+00 4.535239e+00 4.383054e+00 4.244353e+00 4.093044e+00 3.921375e+00 3.715426e+00 3.389992e+00 2.736418e+00 2.923706e+00 3.404225e+00
<VARIANCE> 128
 4.233742e+00 3.967994e+00 4.325943e+00 4.991566e+00 5.452400e+00 5.585609e+00 5.667171e+00 5.923013e+00 6.072948e+00 6.216548e+00 6.765631e+00 7.509074e+00 7.777786e+00 7.433691e+00 6.651363e+00 5.828792e+00 5.384727e+00 5.295718e+00 5.220431e+00 5.033216e+00 4.823253e+00 4.718160e+00 4.656859e+00 4.579214e+00 4.361662e+00 3.763096e+00 2.865025e+00 2.323818e+00 2.427372e+00 2.336136e+00 1.867696e+00 1.478076e+00 1.470854e+00 1.463356e+00 1.305971e+00 1.208830e+00 1.184151e+00 1.137197e+00 1.057358e+00 9.637324e-01 8.951631e-01 8.244848e-01 7.749954e-01 7.658658e-01 8.144541e-01 8.873391e-01 9.306757e-01 9.091582e-01 8.663017e-01 8.107851e-01 7.728293e-01 7.835453e-01 8.261325e-01 8.600211e-01 8.825906e-01 8.894368e-01 8.767630e-01 8.438503e-01 7.922642e-01 7.422951e-01 7.104076e-01 6.628999e-01 6.019700e-01 5.796803e-01 5.916507e-01 5.947002e-01 5.957702e-01 6.084243e-01 6.110922e-01 5.839502e-01 5.475348e-01 5.187186e-01 4.920081e-01 4.459617e-01 3.887342e-01 3.537717e-01 3.610072e-01 4.050978e-01 4.507443e-01 4.681078e-01 4.542862e-01 4.098273e-01 3.416250e-01 2.759702e-01 2.338212e-01 2.180677e-01 2.142187e-01 2.090111e-01 2.037261e-01 2.008647e-01 1.953098e-01 1.853798e-01 1.751969e-01 1.689428e-01 1.630658e-01 1.589678e-01 1.579088e-01 1.571112e-01 1.541887e-01 1.503123e-01 1.489382e-01 1.510842e-01 1.510922e-01 1.443044e-01 1.363802e-01 1.327989e-01 1.325983e-01 1.344547e-01 1.359902e-01 1.364353e-01 1.330835e-01 1.263196e-01 1.202067e-01 1.156056e-01 1.137649e-01 1.138884e-01 1.134774e-01 1.123476e-01 1.118295e-01 1.157198e-01 1.271467e-01 1.418971e-01 1.547661e-01 1.657211e-01 1.820763e-01 2.390496e-01 2.323878e-01 2.174064e-01
<GCONST> 1.822780e+02
<MIXTURE> 9 5.093577e-02
<MEAN> 128
 7.943008e+00 9.393610e+00 1.093751e+01 1.239654e+01 1.373511e+01 1.474353e+01 1.551246e+01 1.591866e+01 1.605027e+01 1.598726e+01 1.575496e+01 1.564260e+01 1.576849e+01 1.602375e+01 1.627172e+01 1.644491e+01 1.650476e+01 1.642842e+01 1.637374e+01 1.646227e+01 1.670510e+01 1.698245e+01 1.719510e+01 1.727166e+01 1.718514e+01 1.698264e+01 1.672158e+01 1.652012e+01 1.638874e+01 1.628347e+01 1.618968e+01 1.611517e+01 1.605595e+01 1.598842e+01 1.588256e+01 1.573514e+01 1.554748e+01 1.528305e+01 1.494314e+01 1.454137e+01 1.412259e+01 1.374780e+01 1.344364e+01 1.317919e+01 1.292582e+01 1.266869e+01 1.239599e+01 1.209955e+01 1.179006e+01 1.150226e+01 1.127233e+01 1.108845e+01 1.093781e+01 1.082647e+01 1.075607e+01 1.069427e+01 1.061677e+01 1.052763e+01 1.041401e+01 1.030949e+01 1.022217e+01 1.014636e+01 1.010011e+01 1.012401e+01 1.020960e+01 1.031084e+01 1.044506e+01 1.064603e+01 1.090807e+01 1.120143e+01 1.149840e+01 1.177227e+01 1.199058e+01 1.213687e+01 1.223540e+01 1.229963e+01 1.234464e+01 1.238634e+01 1.241894e+01 1.243942e+01 1.243396e+01 1.241835e+01 1.242992e+01 1.252579e+01 1.275047e+01 1.306867e+01 1.336657e+01 1.355587e+01 1.362287e+01 1.358285e+01 1.346521e+01 1.329703e+01 1.311694e+01 1.296996e+01 1.285258e+01 1.274951e+01 1.269361e+01 1.267892e+01 1.268840e+01 1.268150e+01 1.262819e+01 1.252539e+01 1.238861e+01 1.213231e+01 1.183573e+01 1.149432e+01 1.114685e+01 1.087263e+01 1.071801e+01 1.064504e+01 1.056627e+01 1.032417e+01 9.955931e+00 9.479951e+00 8.951650e+00 8.430245e+00 7.969266e+00 7.632663e+00 7.468227e+00 7.499465e+00 7.608952e+00 7.675583e+00 7.657104e+00 7.558275e+00 7.293504e+00 6.583303e+00 6.873158e+00 7.428740e+00
<VARIANCE> 128
 1.332302e+00 1.641082e+00 2.017748e+00 2.256450e+00 2.237888e+00 1.887944e+00 1.326892e+00 9.059431e-01 9.218963e-01 1.388797e+00 1.946268e+00 2.047643e+00 1.628265e+00 1.181012e+00 9.948843e-01 1.034274e+00 1.175857e+00 1.308624e+00 1.284651e+00 1.149006e+00 1.118719e+00 1.243092e+00 1.417405e+00 1.548794e+00 1.616419e+00 1.592733e+00 1.476503e+00 1.382717e+00 1.438354e+00 1.589012e+00 1.645763e+00 1.505270e+00 1.273711e+00 1.099615e+00 1.008103e+00 9.580609e-01 9.320473e-01 9.635059e-01 1.035385e+00 1.094027e+00 1.141535e+00 1.241104e+00 1.397821e+00 1.549975e+00 1.665799e+00 1.751101e+00 1.798254e+00 1.801245e+00 1.762162e+00 1.715810e+00 1.706321e+00 1.738480e+00 1.774278e+00 1.786262e+00 1.783863e+00 1.786003e+00 1.790934e+00 1.804754e+00 1.840846e+00 1.915763e+00 2.024009e+00 2.151930e+00 2.297614e+00 2.449915e+00 2.556535e+00 2.594212e+00 2.609641e+00 2.654073e+00 2.706962e+00 2.709718e+00 2.613369e+00 2.402704e+00 2.097579e+00 1.741281e+00 1.412670e+00 1.180771e+00 1.070417e+00 1.058900e+00 1.082158e+00 1.096480e+00 1.097840e+00 1.098702e+00 1.101129e+00 1.069590e+00 9.906188e-01 9.247664e-01 9.202675e-01 9.615918e-01 9.999710e-01 1.009917e+00 9.961627e-01 9.644116e-01 9.233930e-01 8.908733e-01 8.790821e-01 8.762838e-01 8.557407e-01 8.153564e-01 7.891784e-01 7.950395e-01 8.248375e-01 8.723445e-01 9.424632e-01 1.039244e+00 1.140318e+00 1.208763e+00 1.223557e+00 1.194575e+00 1.178157e+00 1.197711e+00 1.212545e+00 1.206734e+00 1.203310e+00 1.225806e+00 1.296290e+00 1.423382e+00 1.590567e+00 1.753762e+00 1.841815e+00 1.797148e+00 1.664897e+00 1.539728e+00 1.456836e+00 1.409170e+00 1.386796e+00 1.370936e+00 1.394271e+00 1.466474e+00
<GCONST> 2.765458e+02
<MIXTURE> 10 3.775962e-02
<MEAN> 128
 7.242315e+00 8.232826e+00 9.300378e+00 1.019135e+01 1.079889e+01 1.096606e+01 1.099342e+01 1.092654e+01 1.086206e+01 1.084421e+01 1.088347e+01 1.107836e+01 1.121342e+01 1.114245e+01 1.091527e+01 1.069728e+01 1.059358e+01 1.055971e+01 1.058526e+01 1.065326e+01 1.079590e+01 1.097074e+01 1.116748e+01 1.135690e+01 1.144603e+01 1.142848e+01 1.135792e+01 1.139719e+01 1.153593e+01 1.167685e+01 1.178367e+01 1.187739e+01 1.197126e+01 1.204407e+01 1.208897e+01 1.212519e+01 1.214202e+01 1.209686e+01 1.199711e+01 1.186035e+01 1.172208e+01 1.161137e+01 1.151514e+01 1.140584e+01 1.128544e+01 1.116935e+01 1.106915e+01 1.097651e+01 1.089028e+01 1.082552e+01 1.079022e+01 1.075935e+01 1.072802e+01 1.070674e+01 1.069852e+01 1.068077e+01 1.063993e+01 1.059172e+01 1.053317e+01 1.049907e+01 1.048759e+01 1.047421e+01 1.046254e+01 1.050435e+01 1.063240e+01 1.084494e+01 1.116638e+01 1.159982e+01 1.209080e+01 1.256490e+01 1.295872e+01 1.324042e+01 1.339729e+01 1.342644e+01 1.336655e+01 1.325677e+01 1.313218e+01 1.301508e+01 1.289911e+01 1.279049e+01 1.270556e+01 1.270428e+01 1.285856e+01 1.321533e+01 1.374939e+01 1.435261e+01 1.488606e+01 1.525612e+01 1.544394e+01 1.546801e+01 1.538210e+01 1.525354e+01 1.515624e+01 1.514753e+01 1.521691e+01 1.533254e+01 1.550456e+01 1.570342e+01 1.591157e+01 1.612059e+01 1.633617e+01 1.657356e+01 1.682800e+01 1.696705e+01 1.704655e+01 1.707611e+01 1.709566e+01 1.712270e+01 1.712130e+01 1.703938e+01 1.686540e+01 1.656201e+01 1.624150e+01 1.590752e+01 1.555507e+01 1.520036e+01 1.487549e+01 1.459195e+01 1.432379e+01 1.408653e+01 1.385814e+01 1.364332e+01 1.344498e+01 1.322641e+01 1.287706e+01 1.214560e+01 1.236045e+01 1.290077e+01
<VARIANCE> 128
 2.248620e+00 3.195988e+00 4.439631e+00 5.443143e+00 5.877488e+00 5.684316e+00 5.148448e+00 4.767079e+00 4.482421e+00 4.371282e+00 4.621203e+00 5.028997e+00 5.091098e+00 4.686303e+00 3.994438e+00 3.320722e+00 2.920030e+00 2.792108e+00 2.719346e+00 2.626174e+00 2.551515e+00 2.472193e+00 2.363354e+00 2.216726e+00 1.986008e+00 1.700241e+00 1.475258e+00 1.401955e+00 1.420422e+00 1.424237e+00 1.394686e+00 1.363726e+00 1.312723e+00 1.238410e+00 1.172146e+00 1.108277e+00 1.050851e+00 1.000958e+00 9.548157e-01 8.998047e-01 8.493082e-01 8.226447e-01 8.105661e-01 7.864240e-01 7.550998e-01 7.387851e-01 7.305781e-01 7.188056e-01 7.074432e-01 7.117478e-01 7.341682e-01 7.483122e-01 7.416877e-01 7.227603e-01 7.073503e-01 7.072405e-01 7.105973e-01 7.054996e-01 7.202808e-01 7.685269e-01 8.356707e-01 9.101232e-01 9.975422e-01 1.118368e+00 1.258982e+00 1.421275e+00 1.633119e+00 1.838155e+00 1.930395e+00 1.879031e+00 1.750053e+00 1.631708e+00 1.558423e+00 1.535031e+00 1.545015e+00 1.537319e+00 1.468535e+00 1.358179e+00 1.250841e+00 1.156128e+00 1.079370e+00 1.046044e+00 1.082502e+00 1.167596e+00 1.237072e+00 1.272978e+00 1.318061e+00 1.388567e+00 1.432793e+00 1.391745e+00 1.260960e+00 1.096532e+00 9.763727e-01 9.634345e-01 1.063434e+00 1.216129e+00 1.357229e+00 1.470015e+00 1.568748e+00 1.669621e+00 1.782365e+00 1.902442e+00 2.018195e+00 2.111309e+00 2.163613e+00 2.173213e+00 2.165129e+00 2.169761e+00 2.191415e+00 2.210935e+00 2.201081e+00 2.154859e+00 2.090812e+00 2.015957e+00 1.926334e+00 1.825062e+00 1.724564e+00 1.631046e+00 1.541708e+00 1.459960e+00 1.394614e+00 1.361614e+00 1.367215e+00 1.411248e+00 1.475181e+00 1.485605e+00 1.611949e+00 1.724451e+00
<GCONST> 2.920493e+02
<MIXTURE> 11 3.904898e-02
<MEAN> 128
 7.894556e+00 9.565863e+00 1.130802e+01 1.294053e+01 1.442991e+01 1.553709e+01 1.631946e+01 1.663138e+01 1.655505e+01 1.621522e+01 1.570692e+01 1.540754e+01 1.553620e+01 1.604193e+01 1.670270e+01 1.729988e+01 1.767228e+01 1.771883e+01 1.756794e+01 1.740633e+01 1.738461e+01 1.750983e+01 1.773576e+01 1.794127e+01 1.799837e+01 1.784911e+01 1.748575e+01 1.704449e+01 1.662398e+01 1.627646e+01 1.601038e+01 1.577728e+01 1.552357e+01 1.524359e+01 1.495311e+01 1.465969e+01 1.435310e+01 1.399022e+01 1.357516e+01 1.313637e+01 1.273030e+01 1.240212e+01 1.213285e+01 1.186763e+01 1.158323e+01 1.129029e+01 1.099910e+01 1.069897e+01 1.038480e+01 1.006671e+01 9.756208e+00 9.444560e+00 9.158472e+00 8.957153e+00 8.885472e+00 8.907019e+00 8.950527e+00 8.984386e+00 8.980344e+00 8.957206e+00 8.925123e+00 8.910823e+00 8.971517e+00 9.149400e+00 9.383694e+00 9.568874e+00 9.680369e+00 9.745091e+00 9.785467e+00 9.807186e+00 9.820115e+00 9.836171e+00 9.833629e+00 9.785321e+00 9.735929e+00 9.749625e+00 9.873576e+00 1.010080e+01 1.036330e+01 1.060343e+01 1.076440e+01 1.083176e+01 1.083676e+01 1.084535e+01 1.090617e+01 1.099837e+01 1.104561e+01 1.100200e+01 1.088069e+01 1.070098e+01 1.048232e+01 1.024230e+01 1.001513e+01 9.841784e+00 9.717450e+00 9.627002e+00 9.591106e+00 9.585272e+00 9.600572e+00 9.619555e+00 9.615828e+00 9.579477e+00 9.515738e+00 9.327244e+00 9.084181e+00 8.773085e+00 8.418885e+00 8.081031e+00 7.815875e+00 7.645863e+00 7.531438e+00 7.319298e+00 7.039100e+00 6.702361e+00 6.353016e+00 6.037901e+00 5.800680e+00 5.673838e+00 5.653629e+00 5.730308e+00 5.791515e+00 5.765803e+00 5.696635e+00 5.657665e+00 5.520138e+00 4.894200e+00 5.282105e+00 5.870031e+00
<VARIANCE> 128
 7.476791e-01 7.871193e-01 8.444707e-01 8.237461e-01 7.115582e-01 5.447565e-01 4.389229e-01 5.349026e-01 8.588077e-01 1.231123e+00 1.344191e+00 9.936206e-01 5.369824e-01 3.861689e-01 4.804682e-01 6.940018e-01 1.054602e+00 1.492464e+00 1.635811e+00 1.281928e+00 8.004936e-01 6.071473e-01 6.785278e-01 8.247666e-01 9.634221e-01 1.063393e+00 1.045621e+00 8.983009e-01 7.607612e-01 7.346708e-01 7.553646e-01 7.429471e-01 7.210422e-01 6.959105e-01 6.565766e-01 6.260404e-01 6.113257e-01 6.189988e-01 6.217033e-01 5.878575e-01 5.600501e-01 5.900967e-01 6.635339e-01 7.315350e-01 7.702398e-01 7.770164e-01 7.666937e-01 7.518579e-01 7.282258e-01 7.017938e-01 6.762527e-01 6.447806e-01 6.261230e-01 6.509454e-01 7.046191e-01 7.392867e-01 7.228013e-01 6.838880e-01 6.757342e-01 7.235271e-01 7.808319e-01 7.975557e-01 8.056846e-01 8.653315e-01 9.665018e-01 1.067330e+00 1.147404e+00 1.192793e+00 1.192473e+00 1.175061e+00 1.221044e+00 1.379254e+00 1.604234e+00 1.801133e+00 1.878391e+00 1.794067e+00 1.605726e+00 1.436303e+00 1.341417e+00 1.307083e+00 1.293437e+00 1.266713e+00 1.198015e+00 1.079960e+00 9.962079e-01 1.064085e+00 1.279672e+00 1.516672e+00 1.657922e+00 1.682599e+00 1.654151e+00 1.631191e+00 1.641900e+00 1.688228e+00 1.731933e+00 1.718807e+00 1.636243e+00 1.531714e+00 1.453442e+00 1.390672e+00 1.329701e+00 1.285647e+00 1.271813e+00 1.273897e+00 1.252762e+00 1.184004e+00 1.071785e+00 9.380462e-01 8.152303e-01 7.381840e-01 7.151757e-01 7.103344e-01 6.786227e-01 6.153451e-01 5.505865e-01 5.082891e-01 5.029283e-01 5.450300e-01 6.329358e-01 7.391406e-01 8.192064e-01 8.284696e-01 7.600760e-01 6.915381e-01 6.763532e-01 6.257045e-01 6.970342e-01 7.858479e-01
<GCONST> 2.222104e+02
<MIXTURE> 12 4.055844e-02
<MEAN> 128
 7.635936e+00 9.095000e+00 1.074756e+01 1.237478e+01 1.393566e+01 1.520802e+01 1.624020e+01 1.685398e+01 1.709478e+01 1.703440e+01 1.669116e+01 1.631162e+01 1.606656e+01 1.609915e+01 1.646064e+01 1.705490e+01 1.765225e+01 1.801381e+01 1.810287e+01 1.796933e+01 1.774594e+01 1.755004e+01 1.749681e+01 1.761147e+01 1.781684e+01 1.798354e+01 1.797412e+01 1.782097e+01 1.761905e+01 1.749940e+01 1.753695e+01 1.766800e+01 1.780564e+01 1.793061e+01 1.804526e+01 1.815512e+01 1.824924e+01 1.828243e+01 1.824342e+01 1.812377e+01 1.794685e+01 1.775035e+01 1.755734e+01 1.735891e+01 1.712982e+01 1.685794e+01 1.654269e+01 1.618258e+01 1.578802e+01 1.538791e+01 1.502277e+01 1.470353e+01 1.443719e+01 1.423656e+01 1.410196e+01 1.399720e+01 1.389925e+01 1.381664e+01 1.374383e+01 1.371399e+01 1.370972e+01 1.369568e+01 1.368409e+01 1.372420e+01 1.381318e+01 1.391313e+01 1.403974e+01 1.420658e+01 1.437700e+01 1.450594e+01 1.457168e+01 1.456928e+01 1.448694e+01 1.430859e+01 1.406623e+01 1.381071e+01 1.360471e+01 1.349713e+01 1.348151e+01 1.353042e+01 1.360584e+01 1.370954e+01 1.385715e+01 1.405172e+01 1.427627e+01 1.448737e+01 1.462365e+01 1.465748e+01 1.461495e+01 1.452769e+01 1.441737e+01 1.429017e+01 1.416648e+01 1.407927e+01 1.401761e+01 1.395686e+01 1.391842e+01 1.388345e+01 1.382541e+01 1.370165e+01 1.348464e+01 1.318080e+01 1.282503e+01 1.236712e+01 1.192127e+01 1.150006e+01 1.116026e+01 1.099722e+01 1.102591e+01 1.114022e+01 1.120497e+01 1.104187e+01 1.067367e+01 1.011843e+01 9.456260e+00 8.785950e+00 8.189940e+00 7.744845e+00 7.527494e+00 7.597400e+00 7.828051e+00 8.043205e+00 8.147547e+00 8.134399e+00 7.931067e+00 7.194993e+00 7.604064e+00 8.234149e+00
<VARIANCE> 128
 7.598709e-01 7.263117e-01 8.749297e-01 1.025122e+00 1.151553e+00 1.206626e+00 1.154905e+00 1.064105e+00 1.023575e+00 1.100761e+00 1.234064e+00 1.227460e+00 9.457906e-01 6.063868e-01 5.430054e-01 6.360022e-01 6.927460e-01 7.558867e-01 9.060860e-01 1.010949e+00 8.639532e-01 5.753860e-01 4.676275e-01 5.902660e-01 6.904225e-01 6.410653e-01 5.646040e-01 5.369633e-01 5.105067e-01 5.020539e-01 5.455831e-01 6.489016e-01 7.656950e-01 8.161027e-01 8.222066e-01 8.470437e-01 8.887531e-01 8.995800e-01 8.636917e-01 8.334729e-01 8.600098e-01 9.581494e-01 1.106705e+00 1.264536e+00 1.419416e+00 1.561058e+00 1.669535e+00 1.728789e+00 1.726591e+00 1.673325e+00 1.608706e+00 1.564746e+00 1.567629e+00 1.622543e+00 1.722662e+00 1.855216e+00 2.002721e+00 2.176963e+00 2.416978e+00 2.721531e+00 3.018360e+00 3.209371e+00 3.224628e+00 3.074689e+00 2.821568e+00 2.524095e+00 2.221908e+00 1.918570e+00 1.635132e+00 1.412413e+00 1.284998e+00 1.260992e+00 1.296833e+00 1.341685e+00 1.357274e+00 1.308194e+00 1.182903e+00 1.035021e+00 9.260068e-01 8.671817e-01 8.619407e-01 9.082366e-01 9.516722e-01 8.991272e-01 7.537521e-01 6.437733e-01 6.500065e-01 7.331626e-01 8.038681e-01 8.063192e-01 7.518179e-01 6.713885e-01 5.867116e-01 5.179373e-01 4.843344e-01 4.935687e-01 5.235454e-01 5.541591e-01 5.898046e-01 6.389474e-01 7.090114e-01 8.013392e-01 9.131255e-01 1.033923e+00 1.123330e+00 1.121042e+00 9.985406e-01 8.598219e-01 8.621016e-01 9.933869e-01 1.142551e+00 1.247613e+00 1.301155e+00 1.297728e+00 1.234106e+00 1.127718e+00 1.007176e+00 9.203380e-01 9.424684e-01 1.072906e+00 1.190377e+00 1.209880e+00 1.152002e+00 1.074564e+00 1.040884e+00 1.007315e+00 1.075688e+00 1.202795e+00
<GCONST> 2.388342e+02
<MIXTURE> 13 2.573963e-02
<MEAN> 128
 6.542940e+00 7.156855e+00 7.919740e+00 8.635079e+00 9.187935e+00 9.392984e+00 9.511082e+00 9.526555e+00 9.526752e+00 9.553419e+00 9.560747e+00 9.645084e+00 9.712728e+00 9.665873e+00 9.532863e+00 9.420218e+00 9.371554e+00 9.334923e+00 9.346976e+00 9.411064e+00 9.543664e+00 9.709099e+00 9.884089e+00 1.003511e+01 1.010071e+01 1.006928e+01 9.956838e+00 9.886695e+00 9.916441e+00 9.995565e+00 1.007677e+01 1.016499e+01 1.027155e+01 1.035525e+01 1.040751e+01 1.044601e+01 1.045222e+01 1.038996e+01 1.027197e+01 1.011242e+01 9.950186e+00 9.813669e+00 9.695090e+00 9.579210e+00 9.463709e+00 9.348850e+00 9.238447e+00 9.132506e+00 9.032488e+00 8.960023e+00 8.920257e+00 8.881720e+00 8.847920e+00 8.840306e+00 8.864200e+00 8.894116e+00 8.910186e+00 8.920425e+00 8.917771e+00 8.935183e+00 8.974212e+00 9.027301e+00 9.101666e+00 9.215215e+00 9.356857e+00 9.502476e+00 9.679149e+00 9.897651e+00 1.011099e+01 1.026664e+01 1.034571e+01 1.036234e+01 1.032272e+01 1.022476e+01 1.011126e+01 1.002317e+01 9.989374e+00 1.002272e+01 1.009771e+01 1.018977e+01 1.027579e+01 1.036469e+01 1.047719e+01 1.064265e+01 1.088575e+01 1.118558e+01 1.146736e+01 1.167317e+01 1.181229e+01 1.191381e+01 1.200220e+01 1.209285e+01 1.220396e+01 1.235308e+01 1.251526e+01 1.266501e+01 1.282528e+01 1.297820e+01 1.311565e+01 1.323690e+01 1.335489e+01 1.349062e+01 1.365175e+01 1.371442e+01 1.372575e+01 1.367650e+01 1.359567e+01 1.350983e+01 1.340685e+01 1.325131e+01 1.302716e+01 1.268192e+01 1.232435e+01 1.196386e+01 1.160220e+01 1.125508e+01 1.094543e+01 1.068262e+01 1.044886e+01 1.026413e+01 1.009405e+01 9.919736e+00 9.735433e+00 9.516163e+00 9.158745e+00 8.428843e+00 8.631683e+00 9.141707e+00
<VARIANCE> 128
 1.955999e+00 2.232893e+00 2.972784e+00 3.812494e+00 4.259822e+00 4.232981e+00 3.962921e+00 3.830054e+00 3.869799e+00 4.061827e+00 4.331627e+00 4.596658e+00 4.671520e+00 4.563233e+00 4.334507e+00 4.098856e+00 3.912529e+00 3.776887e+00 3.693860e+00 3.675449e+00 3.743230e+00 3.787700e+00 3.711675e+00 3.524173e+00 3.301059e+00 3.079057e+00 2.893977e+00 2.798113e+00 2.754636e+00 2.700822e+00 2.650702e+00 2.639685e+00 2.629381e+00 2.580097e+00 2.510753e+00 2.421577e+00 2.321729e+00 2.236598e+00 2.164984e+00 2.092351e+00 2.004529e+00 1.911202e+00 1.831186e+00 1.749011e+00 1.666872e+00 1.587490e+00 1.508016e+00 1.438667e+00 1.392986e+00 1.363523e+00 1.349280e+00 1.348094e+00 1.355919e+00 1.377798e+00 1.418214e+00 1.470891e+00 1.521659e+00 1.584302e+00 1.693773e+00 1.848021e+00 2.002344e+00 2.116633e+00 2.187902e+00 2.219024e+00 2.185615e+00 2.106285e+00 2.018267e+00 1.912299e+00 1.764467e+00 1.603258e+00 1.490427e+00 1.441097e+00 1.423455e+00 1.400255e+00 1.364874e+00 1.316979e+00 1.260726e+00 1.207368e+00 1.158191e+00 1.118011e+00 1.099126e+00 1.098979e+00 1.099373e+00 1.096240e+00 1.111809e+00 1.164245e+00 1.242032e+00 1.312243e+00 1.343940e+00 1.350331e+00 1.375908e+00 1.459573e+00 1.626751e+00 1.854143e+00 2.097980e+00 2.349737e+00 2.625272e+00 2.942992e+00 3.327151e+00 3.796499e+00 4.357924e+00 5.011595e+00 5.699342e+00 6.344214e+00 6.905228e+00 7.356158e+00 7.674951e+00 7.854580e+00 7.893318e+00 7.800508e+00 7.593157e+00 7.314404e+00 7.026978e+00 6.749011e+00 6.453034e+00 6.108820e+00 5.713077e+00 5.291219e+00 4.881369e+00 4.521752e+00 4.253417e+00 4.105089e+00 4.061308e+00 4.082930e+00 4.135184e+00 4.133374e+00 4.287645e+00 4.433895e+00
<GCONST> 3.587657e+02
<MIXTURE> 14 1.485196e-02
<MEAN> 128
 7.751541e+00 9.092307e+00 1.042107e+01 1.154614e+01 1.241228e+01 1.285136e+01 1.306497e+01 1.304555e+01 1.295382e+01 1.288341e+01 1.291443e+01 1.323414e+01 1.355546e+01 1.364557e+01 1.349612e+01 1.323297e+01 1.299476e+01 1.287051e+01 1.294495e+01 1.312943e+01 1.331659e+01 1.343451e+01 1.347151e+01 1.342483e+01 1.329439e+01 1.308743e+01 1.279051e+01 1.249080e+01 1.223419e+01 1.202455e+01 1.186782e+01 1.179693e+01 1.178246e+01 1.172834e+01 1.159082e+01 1.143099e+01 1.127126e+01 1.102711e+01 1.069753e+01 1.032656e+01 9.988649e+00 9.762339e+00 9.601876e+00 9.446143e+00 9.294943e+00 9.146994e+00 8.995380e+00 8.822294e+00 8.620591e+00 8.426451e+00 8.246552e+00 8.037238e+00 7.818308e+00 7.665160e+00 7.624718e+00 7.656310e+00 7.681365e+00 7.683977e+00 7.664840e+00 7.655274e+00 7.652000e+00 7.671422e+00 7.754492e+00 7.921779e+00 8.117487e+00 8.260167e+00 8.353908e+00 8.425816e+00 8.461989e+00 8.435534e+00 8.362497e+00 8.275902e+00 8.159260e+00 7.991221e+00 7.838643e+00 7.788026e+00 7.893664e+00 8.129597e+00 8.396079e+00 8.617443e+00 8.740875e+00 8.753438e+00 8.689129e+00 8.632154e+00 8.663769e+00 8.784586e+00 8.904882e+00 8.951431e+00 8.912352e+00 8.791521e+00 8.609468e+00 8.392553e+00 8.178538e+00 8.017379e+00 7.919817e+00 7.877142e+00 7.890939e+00 7.909337e+00 7.921374e+00 7.943651e+00 7.981998e+00 8.022401e+00 8.041847e+00 7.926009e+00 7.755854e+00 7.544623e+00 7.327382e+00 7.136394e+00 6.969404e+00 6.812819e+00 6.664016e+00 6.443483e+00 6.213040e+00 5.965487e+00 5.713573e+00 5.479840e+00 5.280594e+00 5.119766e+00 4.988838e+00 4.923153e+00 4.882189e+00 4.816754e+00 4.710832e+00 4.566884e+00 4.297747e+00 3.648364e+00 3.905405e+00 4.420824e+00
<VARIANCE> 128
 2.636428e+00 4.209808e+00 5.779872e+00 6.848049e+00 7.252366e+00 6.937559e+00 6.060945e+00 5.123563e+00 4.448739e+00 4.101044e+00 3.879133e+00 3.812588e+00 3.903678e+00 4.041460e+00 4.212720e+00 4.283329e+00 4.240593e+00 4.152062e+00 4.167238e+00 4.377944e+00 4.593149e+00 4.597651e+00 4.346789e+00 3.979613e+00 3.610421e+00 3.317615e+00 3.151428e+00 3.155899e+00 3.376249e+00 3.647543e+00 3.783962e+00 3.810491e+00 3.854566e+00 3.921966e+00 4.009156e+00 4.137053e+00 4.227101e+00 4.204138e+00 4.053288e+00 3.761847e+00 3.323823e+00 2.751998e+00 2.297708e+00 1.970926e+00 1.778755e+00 1.702702e+00 1.666873e+00 1.678367e+00 1.724232e+00 1.772556e+00 1.810637e+00 1.865967e+00 1.963747e+00 2.066116e+00 2.114151e+00 2.086342e+00 1.975883e+00 1.827700e+00 1.696508e+00 1.612876e+00 1.557039e+00 1.480959e+00 1.401455e+00 1.401514e+00 1.490284e+00 1.646169e+00 1.826928e+00 1.954437e+00 1.961869e+00 1.852939e+00 1.665051e+00 1.457333e+00 1.277423e+00 1.069668e+00 8.374454e-01 6.629339e-01 5.959328e-01 6.288058e-01 7.094415e-01 7.968452e-01 8.500615e-01 8.535920e-01 8.332037e-01 8.510766e-01 1.018604e+00 1.347487e+00 1.689614e+00 1.863098e+00 1.797277e+00 1.550856e+00 1.235697e+00 9.439626e-01 7.274384e-01 6.177638e-01 6.077708e-01 6.456219e-01 6.897885e-01 7.173303e-01 7.045947e-01 6.421081e-01 5.569369e-01 4.917835e-01 4.624679e-01 4.519820e-01 4.410270e-01 4.175369e-01 3.935421e-01 3.895991e-01 4.003353e-01 3.983800e-01 3.814957e-01 3.702891e-01 3.689417e-01 3.763244e-01 3.950808e-01 4.285222e-01 4.742868e-01 5.255185e-01 5.755031e-01 6.329873e-01 7.160306e-01 8.049449e-01 8.567045e-01 8.717466e-01 8.824779e-01 8.411674e-01 9.356503e-01 1.014517e+00
<GCONST> 2.912787e+02
<MIXTURE> 15 1.911666e-02
<MEAN> 128
 6.547261e+00 7.422712e+00 8.427151e+00 9.273524e+00 9.866898e+00 1.005984e+01 1.012168e+01 1.008794e+01 1.009339e+01 1.018018e+01 1.031101e+01 1.051028e+01 1.063354e+01 1.058636e+01 1.041654e+01 1.026658e+01 1.022869e+01 1.020026e+01 1.019286e+01 1.019138e+01 1.024731e+01 1.035044e+01 1.049068e+01 1.060382e+01 1.059247e+01 1.043024e+01 1.010574e+01 9.794423e+00 9.636954e+00 9.504988e+00 9.328773e+00 9.166486e+00 9.163926e+00 9.175483e+00 9.124970e+00 9.072416e+00 9.029116e+00 8.901596e+00 8.685611e+00 8.419703e+00 8.176938e+00 8.035961e+00 7.939454e+00 7.841450e+00 7.744034e+00 7.629980e+00 7.487669e+00 7.316731e+00 7.127436e+00 6.962495e+00 6.835093e+00 6.695940e+00 6.560253e+00 6.471067e+00 6.446099e+00 6.452159e+00 6.434901e+00 6.398849e+00 6.347514e+00 6.308086e+00 6.269522e+00 6.220984e+00 6.179479e+00 6.193650e+00 6.240987e+00 6.266355e+00 6.287795e+00 6.318326e+00 6.326735e+00 6.282513e+00 6.205976e+00 6.139054e+00 6.068623e+00 5.971756e+00 5.907513e+00 5.940546e+00 6.083827e+00 6.290562e+00 6.481861e+00 6.619288e+00 6.675894e+00 6.651600e+00 6.569366e+00 6.479496e+00 6.434795e+00 6.455695e+00 6.512981e+00 6.577001e+00 6.642405e+00 6.692322e+00 6.716050e+00 6.713076e+00 6.705982e+00 6.725983e+00 6.760193e+00 6.793797e+00 6.848628e+00 6.900989e+00 6.946305e+00 6.987305e+00 7.027768e+00 7.067826e+00 7.096786e+00 7.006146e+00 6.886894e+00 6.756770e+00 6.632602e+00 6.520918e+00 6.409351e+00 6.285942e+00 6.161248e+00 5.980343e+00 5.818741e+00 5.658862e+00 5.490079e+00 5.314583e+00 5.133977e+00 4.944786e+00 4.745843e+00 4.591033e+00 4.456557e+00 4.310824e+00 4.142005e+00 3.933191e+00 3.599848e+00 2.930727e+00 3.122659e+00 3.613789e+00
<VARIANCE> 128
 2.771821e+00 2.670457e+00 3.353498e+00 4.231966e+00 4.638691e+00 4.566914e+00 4.425371e+00 4.481939e+00 4.732222e+00 5.037918e+00 5.440896e+00 5.803021e+00 5.979661e+00 5.896616e+00 5.656161e+00 5.352536e+00 5.107934e+00 4.996301e+00 4.909054e+00 4.806173e+00 4.797724e+00 4.751856e+00 4.738221e+00 4.679313e+00 4.366390e+00 3.794177e+00 3.054749e+00 2.571456e+00 2.654946e+00 2.673827e+00 2.325537e+00 1.954683e+00 1.934404e+00 1.879594e+00 1.704008e+00 1.625220e+00 1.619524e+00 1.588687e+00 1.450419e+00 1.254309e+00 1.075461e+00 9.282935e-01 8.602447e-01 8.570705e-01 9.144216e-01 1.044372e+00 1.155601e+00 1.233033e+00 1.283069e+00 1.301241e+00 1.294104e+00 1.301536e+00 1.329607e+00 1.361606e+00 1.378731e+00 1.362521e+00 1.301793e+00 1.203453e+00 1.113436e+00 1.045249e+00 9.908604e-01 9.393036e-01 8.984857e-01 8.990598e-01 9.597155e-01 1.045211e+00 1.154078e+00 1.269969e+00 1.297786e+00 1.185978e+00 9.894951e-01 7.999383e-01 6.694737e-01 5.597197e-01 4.639064e-01 4.143066e-01 4.276487e-01 4.964180e-01 5.719700e-01 6.169883e-01 6.241292e-01 5.957983e-01 5.391861e-01 4.659433e-01 4.056184e-01 3.853765e-01 3.911731e-01 3.985863e-01 4.022072e-01 4.059021e-01 4.008797e-01 3.814038e-01 3.700956e-01 3.785508e-01 3.959694e-01 4.051057e-01 4.037126e-01 3.953442e-01 3.844703e-01 3.738775e-01 3.665375e-01 3.693552e-01 3.770922e-01 3.738633e-01 3.568798e-01 3.384378e-01 3.227415e-01 3.128261e-01 3.084685e-01 3.006148e-01 2.898171e-01 2.850244e-01 2.889680e-01 2.952026e-01 2.987478e-01 3.001548e-01 3.012700e-01 3.003484e-01 2.997098e-01 3.090454e-01 3.333155e-01 3.618608e-01 3.783237e-01 3.856163e-01 4.095092e-01 4.734304e-01 4.836011e-01 4.777482e-01
<GCONST> 2.349138e+02
<MIXTURE> 16 1.955828e-02
<MEAN> 128
 6.167186e+00 6.689874e+00 7.281934e+00 7.840231e+00 8.290991e+00 8.457243e+00 8.577697e+00 8.593480e+00 8.517529e+00 8.451635e+00 8.399924e+00 8.468502e+00 8.523778e+00 8.420297e+00 8.221889e+00 8.059027e+00 7.987544e+00 7.936971e+00 7.878164e+00 7.843005e+00 7.867628e+00 7.905031e+00 7.949475e+00 7.967469e+00 7.883243e+00 7.652773e+00 7.285964e+00 6.915598e+00 6.641256e+00 6.434336e+00 6.264782e+00 6.128901e+00 5.996559e+00 5.877752e+00 5.770264e+00 5.685975e+00 5.628404e+00 5.537859e+00 5.404829e+00 5.250619e+00 5.088153e+00 4.965946e+00 4.857176e+00 4.748626e+00 4.643816e+00 4.544856e+00 4.455954e+00 4.375981e+00 4.309773e+00 4.253828e+00 4.199752e+00 4.132125e+00 4.060713e+00 4.014924e+00 3.999498e+00 3.987067e+00 3.960478e+00 3.940333e+00 3.908460e+00 3.877212e+00 3.856931e+00 3.853381e+00 3.862279e+00 3.885919e+00 3.914685e+00 3.925963e+00 3.933680e+00 3.952507e+00 3.977837e+00 3.999505e+00 4.024130e+00 4.069652e+00 4.129436e+00 4.180412e+00 4.230969e+00 4.289222e+00 4.360713e+00 4.444110e+00 4.534040e+00 4.638927e+00 4.738556e+00 4.826990e+00 4.908876e+00 4.996446e+00 5.094259e+00 5.200850e+00 5.303247e+00 5.390870e+00 5.477147e+00 5.564437e+00 5.655635e+00 5.748950e+00 5.842267e+00 5.937122e+00 6.003988e+00 6.028824e+00 6.057881e+00 6.088659e+00 6.119427e+00 6.149643e+00 6.181949e+00 6.218905e+00 6.258592e+00 6.200840e+00 6.134755e+00 6.065939e+00 5.996367e+00 5.925351e+00 5.851686e+00 5.773442e+00 5.688299e+00 5.520965e+00 5.349736e+00 5.176148e+00 4.999326e+00 4.816982e+00 4.629900e+00 4.440844e+00 4.249681e+00 4.100276e+00 3.961091e+00 3.804457e+00 3.627193e+00 3.418332e+00 3.083229e+00 2.403818e+00 2.602729e+00 3.104189e+00
<VARIANCE> 128
 2.215124e+00 2.596662e+00 3.341220e+00 4.064228e+00 4.338312e+00 4.081852e+00 3.752810e+00 3.500332e+00 3.081540e+00 2.723656e+00 2.779873e+00 3.269769e+00 3.437567e+00 3.075747e+00 2.409019e+00 1.880886e+00 1.636569e+00 1.535712e+00 1.406482e+00 1.240022e+00 1.179691e+00 1.118709e+00 1.070755e+00 1.102615e+00 1.106666e+00 9.853262e-01 8.118692e-01 7.294095e-01 7.403451e-01 7.248982e-01 6.777988e-01 6.742846e-01 6.940527e-01 7.243516e-01 7.519358e-01 7.355873e-01 7.367640e-01 7.373871e-01 6.954829e-01 6.461197e-01 5.735028e-01 5.167253e-01 4.711301e-01 4.516417e-01 4.405238e-01 4.265717e-01 4.080098e-01 3.948846e-01 3.767114e-01 3.590136e-01 3.365847e-01 3.128171e-01 3.018744e-01 3.019114e-01 3.149972e-01 3.420387e-01 3.591443e-01 3.504319e-01 3.287723e-01 3.108970e-01 3.005981e-01 2.901503e-01 2.738877e-01 2.626365e-01 2.580805e-01 2.494487e-01 2.429111e-01 2.460276e-01 2.462786e-01 2.315590e-01 2.096930e-01 1.941017e-01 1.849424e-01 1.748228e-01 1.680265e-01 1.641257e-01 1.609273e-01 1.580195e-01 1.553256e-01 1.586974e-01 1.661906e-01 1.670187e-01 1.631198e-01 1.572774e-01 1.499006e-01 1.476461e-01 1.487626e-01 1.478551e-01 1.440009e-01 1.380869e-01 1.320765e-01 1.283303e-01 1.268597e-01 1.260053e-01 1.279261e-01 1.316896e-01 1.341305e-01 1.363344e-01 1.394817e-01 1.414508e-01 1.395710e-01 1.348437e-01 1.294227e-01 1.262145e-01 1.250323e-01 1.246516e-01 1.263767e-01 1.304249e-01 1.324305e-01 1.304508e-01 1.274572e-01 1.256353e-01 1.237358e-01 1.216798e-01 1.204245e-01 1.197994e-01 1.182529e-01 1.162273e-01 1.152637e-01 1.156743e-01 1.189349e-01 1.243113e-01 1.268083e-01 1.240134e-01 1.230586e-01 1.369779e-01 1.534764e-01 1.689783e-01
<GCONST> 1.033588e+02
<MIXTURE> 17 6.131114e-02
<MEAN> 128
 7.563231e+00 9.101911e+00 1.081089e+01 1.248131e+01 1.408530e+01 1.539832e+01 1.646605e+01 1.710562e+01 1.734622e+01 1.724159e+01 1.680555e+01 1.631399e+01 1.599279e+01 1.603899e+01 1.651364e+01 1.725089e+01 1.796922e+01 1.841380e+01 1.853898e+01 1.837866e+01 1.807200e+01 1.779537e+01 1.774363e+01 1.796416e+01 1.832456e+01 1.861600e+01 1.864712e+01 1.843661e+01 1.809558e+01 1.779676e+01 1.765357e+01 1.760683e+01 1.752644e+01 1.735340e+01 1.710561e+01 1.683389e+01 1.657446e+01 1.629999e+01 1.598094e+01 1.558757e+01 1.514358e+01 1.470997e+01 1.433326e+01 1.401242e+01 1.372340e+01 1.344237e+01 1.315542e+01 1.285793e+01 1.256521e+01 1.230472e+01 1.209463e+01 1.191880e+01 1.177349e+01 1.167040e+01 1.160803e+01 1.154628e+01 1.145772e+01 1.134932e+01 1.120634e+01 1.105649e+01 1.090519e+01 1.074468e+01 1.059322e+01 1.050271e+01 1.048388e+01 1.049518e+01 1.053041e+01 1.059719e+01 1.068423e+01 1.077351e+01 1.085871e+01 1.094439e+01 1.102126e+01 1.107847e+01 1.114908e+01 1.126095e+01 1.142719e+01 1.163638e+01 1.184309e+01 1.201768e+01 1.213035e+01 1.218142e+01 1.219177e+01 1.220113e+01 1.225350e+01 1.236513e+01 1.249821e+01 1.261416e+01 1.271044e+01 1.277671e+01 1.279615e+01 1.276143e+01 1.269794e+01 1.263992e+01 1.257604e+01 1.249386e+01 1.243262e+01 1.238951e+01 1.235222e+01 1.228694e+01 1.216550e+01 1.198508e+01 1.176598e+01 1.143888e+01 1.110197e+01 1.075717e+01 1.042601e+01 1.014854e+01 9.956427e+00 9.847143e+00 9.749306e+00 9.481476e+00 9.076946e+00 8.582403e+00 8.080368e+00 7.637768e+00 7.313225e+00 7.168657e+00 7.211418e+00 7.401637e+00 7.590354e+00 7.682990e+00 7.702107e+00 7.697649e+00 7.539321e+00 6.839794e+00 7.253196e+00 7.868949e+00
<VARIANCE> 128
 5.425330e-01 4.309299e-01 4.432634e-01 4.506981e-01 4.139994e-01 3.296197e-01 2.368340e-01 2.247399e-01 3.762366e-01 6.750800e-01 9.858379e-01 1.086838e+00 8.287036e-01 4.720080e-01 3.869395e-01 4.540884e-01 4.774572e-01 5.056478e-01 6.502957e-01 8.520122e-01 8.748420e-01 6.906209e-01 5.936506e-01 6.756338e-01 7.030324e-01 6.054316e-01 5.722741e-01 6.805303e-01 7.898240e-01 7.763357e-01 7.145373e-01 7.758849e-01 1.007452e+00 1.303905e+00 1.598342e+00 1.944064e+00 2.353847e+00 2.759960e+00 3.102996e+00 3.394761e+00 3.706910e+00 4.114367e+00 4.620412e+00 5.127118e+00 5.539449e+00 5.829997e+00 5.983153e+00 6.033269e+00 6.064539e+00 6.149590e+00 6.305057e+00 6.492968e+00 6.647864e+00 6.698986e+00 6.622694e+00 6.475140e+00 6.296878e+00 6.104174e+00 5.918525e+00 5.734391e+00 5.526021e+00 5.270098e+00 4.950181e+00 4.561125e+00 4.149671e+00 3.794364e+00 3.557340e+00 3.456553e+00 3.437509e+00 3.421095e+00 3.387570e+00 3.345908e+00 3.280599e+00 3.177615e+00 3.052562e+00 2.935054e+00 2.859949e+00 2.837102e+00 2.842892e+00 2.852301e+00 2.846127e+00 2.799394e+00 2.674358e+00 2.436826e+00 2.138784e+00 1.915225e+00 1.830077e+00 1.828561e+00 1.833076e+00 1.812667e+00 1.760913e+00 1.674163e+00 1.563988e+00 1.456447e+00 1.367682e+00 1.287840e+00 1.199803e+00 1.102386e+00 1.010543e+00 9.430062e-01 9.358361e-01 1.015852e+00 1.173186e+00 1.361663e+00 1.488635e+00 1.457689e+00 1.248481e+00 9.945501e-01 8.984281e-01 9.909092e-01 1.137266e+00 1.230670e+00 1.232193e+00 1.150549e+00 1.037229e+00 9.423809e-01 8.907938e-01 9.057822e-01 9.664202e-01 1.006631e+00 1.004807e+00 9.777057e-01 9.409010e-01 9.278723e-01 9.449794e-01 9.316015e-01 9.982890e-01 1.086968e+00
<GCONST> 2.949720e+02
<MIXTURE> 18 5.594626e-02
<MEAN> 128
 7.792480e+00 9.151653e+00 1.060725e+01 1.196879e+01 1.319562e+01 1.408588e+01 1.475071e+01 1.508405e+01 1.518640e+01 1.513712e+01 1.495271e+01 1.490863e+01 1.506930e+01 1.529137e+01 1.545124e+01 1.551624e+01 1.547991e+01 1.536803e+01 1.536387e+01 1.554136e+01 1.583590e+01 1.609482e+01 1.623670e+01 1.622876e+01 1.608799e+01 1.589449e+01 1.569834e+01 1.557350e+01 1.547382e+01 1.533969e+01 1.517305e+01 1.500183e+01 1.483203e+01 1.464329e+01 1.441001e+01 1.414099e+01 1.385182e+01 1.351781e+01 1.314182e+01 1.272319e+01 1.229835e+01 1.192206e+01 1.160503e+01 1.131826e+01 1.104442e+01 1.078329e+01 1.052872e+01 1.026037e+01 9.973984e+00 9.708990e+00 9.503108e+00 9.341656e+00 9.225863e+00 9.163593e+00 9.144442e+00 9.127326e+00 9.082008e+00 9.016656e+00 8.925260e+00 8.845260e+00 8.781464e+00 8.719457e+00 8.671372e+00 8.680055e+00 8.743220e+00 8.815798e+00 8.910696e+00 9.054973e+00 9.238902e+00 9.440598e+00 9.656288e+00 9.885463e+00 1.011000e+01 1.032032e+01 1.054707e+01 1.080084e+01 1.107290e+01 1.133755e+01 1.155608e+01 1.171139e+01 1.178414e+01 1.179223e+01 1.177888e+01 1.180584e+01 1.193321e+01 1.216498e+01 1.241300e+01 1.259015e+01 1.267519e+01 1.267042e+01 1.258761e+01 1.244479e+01 1.228349e+01 1.215049e+01 1.203868e+01 1.192756e+01 1.184770e+01 1.179436e+01 1.176352e+01 1.173742e+01 1.170250e+01 1.166090e+01 1.161539e+01 1.145523e+01 1.123883e+01 1.095138e+01 1.062256e+01 1.031561e+01 1.008272e+01 9.929632e+00 9.807858e+00 9.565161e+00 9.226055e+00 8.793633e+00 8.312039e+00 7.831808e+00 7.402297e+00 7.078629e+00 6.894697e+00 6.873894e+00 6.919194e+00 6.939861e+00 6.913477e+00 6.845520e+00 6.619365e+00 5.921201e+00 6.244304e+00 6.814310e+00
<VARIANCE> 128
 1.761035e+00 2.182909e+00 2.766495e+00 3.275361e+00 3.522075e+00 3.334929e+00 2.756854e+00 2.125183e+00 1.762692e+00 1.794542e+00 1.972628e+00 1.874287e+00 1.515466e+00 1.275643e+00 1.310718e+00 1.517690e+00 1.785873e+00 1.949907e+00 1.853731e+00 1.725600e+00 1.795378e+00 2.002103e+00 2.209481e+00 2.330458e+00 2.331949e+00 2.184821e+00 1.989621e+00 1.897928e+00 1.946051e+00 1.981120e+00 1.853651e+00 1.597983e+00 1.393050e+00 1.334983e+00 1.377553e+00 1.466087e+00 1.563951e+00 1.650662e+00 1.710208e+00 1.758840e+00 1.817124e+00 1.904123e+00 2.025115e+00 2.129100e+00 2.201929e+00 2.238409e+00 2.236949e+00 2.206192e+00 2.166102e+00 2.131016e+00 2.129159e+00 2.151815e+00 2.161216e+00 2.151202e+00 2.155056e+00 2.196469e+00 2.247998e+00 2.310647e+00 2.417099e+00 2.583842e+00 2.800979e+00 3.050602e+00 3.336498e+00 3.648847e+00 3.899943e+00 4.051890e+00 4.173662e+00 4.311090e+00 4.421704e+00 4.426299e+00 4.293343e+00 4.029714e+00 3.630957e+00 3.097972e+00 2.496022e+00 1.946024e+00 1.572907e+00 1.409631e+00 1.372711e+00 1.374231e+00 1.370273e+00 1.347988e+00 1.307763e+00 1.245824e+00 1.183765e+00 1.165448e+00 1.206924e+00 1.287714e+00 1.371391e+00 1.434955e+00 1.462975e+00 1.439543e+00 1.362789e+00 1.268977e+00 1.201677e+00 1.166094e+00 1.129907e+00 1.076542e+00 1.033160e+00 1.008784e+00 9.814771e-01 9.439971e-01 9.179842e-01 9.232128e-01 9.360746e-01 9.314529e-01 9.233492e-01 9.488961e-01 1.015569e+00 1.081995e+00 1.103772e+00 1.088180e+00 1.066298e+00 1.058860e+00 1.086334e+00 1.171435e+00 1.316988e+00 1.481464e+00 1.588853e+00 1.588959e+00 1.523271e+00 1.457088e+00 1.405901e+00 1.369444e+00 1.349363e+00 1.332868e+00 1.355555e+00 1.413698e+00
<GCONST> 3.068197e+02
<MIXTURE> 19 4.633101e-02
<MEAN> 128
 6.793853e+00 7.674035e+00 8.703513e+00 9.576073e+00 1.011790e+01 1.017585e+01 1.007118e+01 9.847577e+00 9.605580e+00 9.436909e+00 9.316582e+00 9.360413e+00 9.404698e+00 9.316345e+00 9.132715e+00 8.986974e+00 8.940190e+00 8.921601e+00 8.940634e+00 8.999912e+00 9.135678e+00 9.316632e+00 9.519633e+00 9.694190e+00 9.791125e+00 9.817569e+00 9.801036e+00 9.846195e+00 9.961482e+00 1.009477e+01 1.021764e+01 1.032743e+01 1.043492e+01 1.053869e+01 1.063067e+01 1.070671e+01 1.075471e+01 1.073784e+01 1.066510e+01 1.055861e+01 1.045418e+01 1.037709e+01 1.031427e+01 1.023800e+01 1.014625e+01 1.005289e+01 9.967677e+00 9.888775e+00 9.818793e+00 9.766949e+00 9.743356e+00 9.730936e+00 9.722924e+00 9.725550e+00 9.735682e+00 9.729498e+00 9.701134e+00 9.669538e+00 9.630580e+00 9.616601e+00 9.624330e+00 9.636683e+00 9.668755e+00 9.767819e+00 9.950017e+00 1.019767e+01 1.052142e+01 1.090921e+01 1.129532e+01 1.160408e+01 1.179604e+01 1.187710e+01 1.186044e+01 1.175833e+01 1.162062e+01 1.149346e+01 1.140758e+01 1.137101e+01 1.136205e+01 1.137500e+01 1.140962e+01 1.149765e+01 1.167710e+01 1.198749e+01 1.243431e+01 1.294812e+01 1.340889e+01 1.372882e+01 1.389469e+01 1.393707e+01 1.392259e+01 1.392097e+01 1.398447e+01 1.413293e+01 1.432616e+01 1.452346e+01 1.474301e+01 1.496653e+01 1.518335e+01 1.539072e+01 1.560104e+01 1.583354e+01 1.608550e+01 1.622372e+01 1.629720e+01 1.630508e+01 1.627996e+01 1.624442e+01 1.617727e+01 1.603739e+01 1.581378e+01 1.546564e+01 1.510692e+01 1.474189e+01 1.436604e+01 1.399748e+01 1.366366e+01 1.337127e+01 1.309690e+01 1.286231e+01 1.264674e+01 1.244257e+01 1.224151e+01 1.201244e+01 1.165515e+01 1.092622e+01 1.113101e+01 1.165942e+01
<VARIANCE> 128
 2.019729e+00 2.647229e+00 3.886596e+00 4.977196e+00 5.392333e+00 4.985531e+00 4.154809e+00 3.413646e+00 2.792875e+00 2.369802e+00 2.329784e+00 2.579054e+00 2.666316e+00 2.451777e+00 2.124425e+00 1.874955e+00 1.762911e+00 1.751329e+00 1.766126e+00 1.772533e+00 1.783163e+00 1.769881e+00 1.759955e+00 1.719283e+00 1.620423e+00 1.477378e+00 1.369532e+00 1.339423e+00 1.343596e+00 1.325881e+00 1.303234e+00 1.322147e+00 1.347160e+00 1.349621e+00 1.333539e+00 1.311731e+00 1.276685e+00 1.229521e+00 1.174944e+00 1.101679e+00 1.029945e+00 9.765925e-01 9.371000e-01 9.053657e-01 8.834356e-01 8.634746e-01 8.348507e-01 8.031398e-01 7.623212e-01 7.295501e-01 7.122317e-01 6.989428e-01 6.795138e-01 6.615593e-01 6.697115e-01 7.032580e-01 7.332058e-01 7.513093e-01 7.857037e-01 8.632475e-01 9.787844e-01 1.102234e+00 1.210157e+00 1.284688e+00 1.298151e+00 1.278125e+00 1.289076e+00 1.308787e+00 1.271222e+00 1.188198e+00 1.124831e+00 1.111961e+00 1.129625e+00 1.142585e+00 1.152189e+00 1.165892e+00 1.174412e+00 1.172509e+00 1.149335e+00 1.108914e+00 1.072853e+00 1.045308e+00 9.977266e-01 9.229838e-01 8.782997e-01 9.087957e-01 1.003767e+00 1.114609e+00 1.179247e+00 1.165794e+00 1.091900e+00 1.013842e+00 1.006082e+00 1.109309e+00 1.307372e+00 1.558816e+00 1.828346e+00 2.123227e+00 2.475136e+00 2.905177e+00 3.405227e+00 3.922435e+00 4.371758e+00 4.707154e+00 4.956607e+00 5.168195e+00 5.352763e+00 5.476603e+00 5.514337e+00 5.469671e+00 5.342995e+00 5.158642e+00 4.972788e+00 4.801040e+00 4.612456e+00 4.384136e+00 4.138076e+00 3.916683e+00 3.729858e+00 3.560885e+00 3.409822e+00 3.309266e+00 3.279170e+00 3.321663e+00 3.406707e+00 3.417497e+00 3.587113e+00 3.729725e+00
<GCONST> 3.052725e+02
<MIXTURE> 20 4.100348e-02
<MEAN> 128
 7.444893e+00 8.665837e+00 1.006834e+01 1.145509e+01 1.278356e+01 1.385707e+01 1.477832e+01 1.539964e+01 1.577274e+01 1.594444e+01 1.590109e+01 1.584199e+01 1.584751e+01 1.593993e+01 1.611696e+01 1.639870e+01 1.666269e+01 1.678531e+01 1.680218e+01 1.678931e+01 1.684738e+01 1.696279e+01 1.710870e+01 1.723185e+01 1.728393e+01 1.725500e+01 1.714016e+01 1.703551e+01 1.695426e+01 1.690933e+01 1.690840e+01 1.693859e+01 1.699809e+01 1.709234e+01 1.719440e+01 1.726249e+01 1.725911e+01 1.715218e+01 1.695173e+01 1.667231e+01 1.635382e+01 1.604406e+01 1.576657e+01 1.549872e+01 1.521245e+01 1.489766e+01 1.455217e+01 1.417482e+01 1.378022e+01 1.340129e+01 1.307136e+01 1.278777e+01 1.254939e+01 1.235940e+01 1.222189e+01 1.211291e+01 1.200226e+01 1.188462e+01 1.175045e+01 1.164211e+01 1.156215e+01 1.148840e+01 1.143137e+01 1.144535e+01 1.153511e+01 1.166168e+01 1.184483e+01 1.210728e+01 1.242251e+01 1.275014e+01 1.305591e+01 1.330483e+01 1.346099e+01 1.350551e+01 1.346422e+01 1.336380e+01 1.323805e+01 1.312973e+01 1.305758e+01 1.302398e+01 1.301055e+01 1.303256e+01 1.312149e+01 1.331012e+01 1.361088e+01 1.396894e+01 1.426961e+01 1.443413e+01 1.446162e+01 1.438181e+01 1.423317e+01 1.404434e+01 1.385389e+01 1.370431e+01 1.358706e+01 1.348121e+01 1.341961e+01 1.339869e+01 1.339912e+01 1.336666e+01 1.325277e+01 1.304531e+01 1.276793e+01 1.236032e+01 1.192711e+01 1.147043e+01 1.102804e+01 1.068672e+01 1.050416e+01 1.044629e+01 1.041855e+01 1.023630e+01 9.899383e+00 9.405553e+00 8.820456e+00 8.225532e+00 7.683584e+00 7.256160e+00 7.010523e+00 7.016380e+00 7.174387e+00 7.331803e+00 7.398544e+00 7.356602e+00 7.124026e+00 6.418773e+00 6.730409e+00 7.297359e+00
<VARIANCE> 128
 1.271210e+00 1.608092e+00 2.256591e+00 3.019500e+00 3.777277e+00 4.392861e+00 4.552976e+00 4.234446e+00 3.709300e+00 3.262838e+00 2.910203e+00 2.591223e+00 2.256026e+00 1.956149e+00 1.876245e+00 1.788892e+00 1.785714e+00 1.779224e+00 1.804253e+00 1.799341e+00 1.601118e+00 1.414297e+00 1.361140e+00 1.420943e+00 1.472621e+00 1.447891e+00 1.360972e+00 1.204760e+00 1.161637e+00 1.186623e+00 1.226500e+00 1.275869e+00 1.310888e+00 1.289670e+00 1.214123e+00 1.134341e+00 1.089472e+00 1.064567e+00 1.049294e+00 1.043802e+00 1.073766e+00 1.163231e+00 1.279986e+00 1.369924e+00 1.407005e+00 1.405736e+00 1.398796e+00 1.391604e+00 1.365460e+00 1.324659e+00 1.295522e+00 1.285390e+00 1.277860e+00 1.268159e+00 1.268591e+00 1.298401e+00 1.341029e+00 1.386919e+00 1.453711e+00 1.542616e+00 1.652676e+00 1.767753e+00 1.869880e+00 1.963172e+00 2.050647e+00 2.137826e+00 2.243228e+00 2.345387e+00 2.383365e+00 2.314877e+00 2.139457e+00 1.891458e+00 1.612292e+00 1.351858e+00 1.176753e+00 1.098976e+00 1.081394e+00 1.080051e+00 1.054618e+00 1.000749e+00 9.462624e-01 9.125694e-01 8.970982e-01 8.560879e-01 7.702996e-01 6.946353e-01 6.906229e-01 7.558923e-01 8.350551e-01 8.735039e-01 8.613451e-01 8.137261e-01 7.470556e-01 6.876822e-01 6.587219e-01 6.644542e-01 6.852534e-01 7.018907e-01 7.207777e-01 7.544776e-01 8.037426e-01 8.675430e-01 9.523739e-01 1.059565e+00 1.159184e+00 1.195597e+00 1.128382e+00 1.016011e+00 1.011530e+00 1.143224e+00 1.282699e+00 1.345411e+00 1.346078e+00 1.306487e+00 1.240852e+00 1.178004e+00 1.138353e+00 1.146089e+00 1.231342e+00 1.351725e+00 1.414268e+00 1.398500e+00 1.344822e+00 1.289535e+00 1.250053e+00 1.221393e+00 1.234210e+00 1.325230e+00
<GCONST> 2.727609e+02
<MIXTURE> 21 2.728213e-02
<MEAN> 128
 7.144388e+00 8.366302e+00 9.758700e+00 1.111568e+01 1.238873e+01 1.339973e+01 1.429823e+01 1.498022e+01 1.550256e+01 1.588515e+01 1.604485e+01 1.615498e+01 1.627443e+01 1.639333e+01 1.650263e+01 1.660588e+01 1.669311e+01 1.672994e+01 1.678888e+01 1.690015e+01 1.708451e+01 1.728882e+01 1.748467e+01 1.760954e+01 1.762737e+01 1.754944e+01 1.738020e+01 1.719782e+01 1.701233e+01 1.684023e+01 1.671692e+01 1.663916e+01 1.655441e+01 1.643026e+01 1.626917e+01 1.608259e+01 1.586564e+01 1.557645e+01 1.521593e+01 1.480382e+01 1.438996e+01 1.402478e+01 1.371423e+01 1.342341e+01 1.312425e+01 1.280278e+01 1.246438e+01 1.211864e+01 1.178010e+01 1.146905e+01 1.120996e+01 1.099130e+01 1.081319e+01 1.070312e+01 1.067222e+01 1.066480e+01 1.062550e+01 1.054970e+01 1.042968e+01 1.031942e+01 1.022723e+01 1.014881e+01 1.010682e+01 1.013985e+01 1.021566e+01 1.025841e+01 1.026627e+01 1.027291e+01 1.028997e+01 1.030107e+01 1.029842e+01 1.028515e+01 1.023623e+01 1.012523e+01 1.000361e+01 9.942011e+00 9.992353e+00 1.015495e+01 1.036736e+01 1.057882e+01 1.074158e+01 1.083957e+01 1.088200e+01 1.090019e+01 1.092799e+01 1.096604e+01 1.096756e+01 1.090234e+01 1.078559e+01 1.063010e+01 1.044790e+01 1.025342e+01 1.008524e+01 9.985923e+00 9.940834e+00 9.917997e+00 9.929663e+00 9.948802e+00 9.955325e+00 9.918373e+00 9.814146e+00 9.645261e+00 9.435112e+00 9.117581e+00 8.792595e+00 8.468385e+00 8.176935e+00 7.955581e+00 7.801885e+00 7.683384e+00 7.564641e+00 7.341630e+00 7.074871e+00 6.770562e+00 6.455243e+00 6.162875e+00 5.928077e+00 5.778389e+00 5.721985e+00 5.778480e+00 5.855513e+00 5.871506e+00 5.826409e+00 5.758492e+00 5.576097e+00 4.960343e+00 5.300426e+00 5.854807e+00
<VARIANCE> 128
 1.291672e+00 1.921707e+00 2.797034e+00 3.730832e+00 4.767828e+00 5.815413e+00 6.557570e+00 6.872293e+00 6.954041e+00 6.936806e+00 6.972886e+00 6.820919e+00 6.289967e+00 5.433593e+00 4.638959e+00 4.163441e+00 4.033767e+00 4.008252e+00 3.958823e+00 3.959687e+00 3.936382e+00 3.898446e+00 3.753607e+00 3.690645e+00 3.656834e+00 3.487015e+00 3.062024e+00 2.473385e+00 2.088682e+00 1.957009e+00 1.874616e+00 1.727220e+00 1.610547e+00 1.576062e+00 1.568305e+00 1.554362e+00 1.540624e+00 1.525391e+00 1.500005e+00 1.462623e+00 1.427549e+00 1.430428e+00 1.463281e+00 1.484149e+00 1.488602e+00 1.479616e+00 1.458917e+00 1.439960e+00 1.427804e+00 1.447619e+00 1.508267e+00 1.604493e+00 1.710763e+00 1.775574e+00 1.749574e+00 1.651081e+00 1.543454e+00 1.466178e+00 1.449483e+00 1.457733e+00 1.481000e+00 1.478315e+00 1.456139e+00 1.468175e+00 1.510448e+00 1.555856e+00 1.622982e+00 1.741072e+00 1.910433e+00 2.099719e+00 2.291363e+00 2.453970e+00 2.535764e+00 2.484873e+00 2.294051e+00 2.036862e+00 1.805714e+00 1.671666e+00 1.639734e+00 1.668332e+00 1.713182e+00 1.740605e+00 1.735132e+00 1.696574e+00 1.678698e+00 1.748168e+00 1.873902e+00 1.944570e+00 1.885151e+00 1.728030e+00 1.549520e+00 1.387052e+00 1.265847e+00 1.212781e+00 1.219774e+00 1.246116e+00 1.258477e+00 1.260128e+00 1.264479e+00 1.247583e+00 1.188130e+00 1.099859e+00 1.006881e+00 9.321082e-01 8.648468e-01 7.740134e-01 6.657779e-01 5.864739e-01 5.688623e-01 6.006072e-01 6.448915e-01 6.599389e-01 6.191577e-01 5.394451e-01 4.634430e-01 4.285376e-01 4.550096e-01 5.478542e-01 6.937652e-01 8.499777e-01 9.479104e-01 9.559129e-01 9.070925e-01 8.787597e-01 9.038586e-01 8.692634e-01 1.003798e+00 1.132334e+00
<GCONST> 3.019057e+02
<MIXTURE> 22 2.863291e-02
<MEAN> 128
 7.548447e+00 8.657739e+00 9.858434e+00 1.091369e+01 1.173759e+01 1.216389e+01 1.239261e+01 1.241025e+01 1.233809e+01 1.226054e+01 1.220481e+01 1.234106e+01 1.253127e+01 1.258566e+01 1.247013e+01 1.226010e+01 1.205291e+01 1.189785e+01 1.188119e+01 1.199361e+01 1.215445e+01 1.226517e+01 1.233299e+01 1.236397e+01 1.232689e+01 1.222393e+01 1.206427e+01 1.197209e+01 1.196745e+01 1.198654e+01 1.199548e+01 1.200028e+01 1.200060e+01 1.195507e+01 1.184214e+01 1.170891e+01 1.157370e+01 1.139013e+01 1.115533e+01 1.088635e+01 1.063394e+01 1.044333e+01 1.029461e+01 1.015169e+01 1.000708e+01 9.865872e+00 9.723878e+00 9.568440e+00 9.401021e+00 9.248114e+00 9.134954e+00 9.041957e+00 8.967957e+00 8.929014e+00 8.923005e+00 8.914643e+00 8.874116e+00 8.808475e+00 8.714418e+00 8.640036e+00 8.602011e+00 8.590146e+00 8.616282e+00 8.721291e+00 8.903039e+00 9.131783e+00 9.427561e+00 9.794189e+00 1.018543e+01 1.055238e+01 1.086725e+01 1.111734e+01 1.128277e+01 1.134997e+01 1.135221e+01 1.132406e+01 1.129364e+01 1.128343e+01 1.129250e+01 1.132420e+01 1.137914e+01 1.148735e+01 1.167726e+01 1.195327e+01 1.228412e+01 1.261024e+01 1.285408e+01 1.297324e+01 1.298865e+01 1.293689e+01 1.285218e+01 1.275656e+01 1.268192e+01 1.266288e+01 1.267899e+01 1.269756e+01 1.273809e+01 1.278409e+01 1.282681e+01 1.285870e+01 1.288184e+01 1.291234e+01 1.296257e+01 1.292406e+01 1.285235e+01 1.273081e+01 1.257771e+01 1.242378e+01 1.227212e+01 1.210267e+01 1.189709e+01 1.157700e+01 1.122491e+01 1.085150e+01 1.047254e+01 1.010776e+01 9.782511e+00 9.515827e+00 9.298987e+00 9.146646e+00 9.009562e+00 8.859480e+00 8.696133e+00 8.504754e+00 8.175446e+00 7.455089e+00 7.684897e+00 8.209267e+00
<VARIANCE> 128
 2.413152e+00 3.218797e+00 4.230763e+00 5.020564e+00 5.357877e+00 5.170934e+00 4.587233e+00 3.886233e+00 3.273824e+00 2.840723e+00 2.685746e+00 2.778404e+00 3.034476e+00 3.354791e+00 3.583650e+00 3.596063e+00 3.341219e+00 3.004579e+00 2.794249e+00 2.807774e+00 2.963444e+00 3.067597e+00 2.938150e+00 2.650133e+00 2.351197e+00 2.113086e+00 2.007806e+00 1.949950e+00 1.885616e+00 1.820689e+00 1.745357e+00 1.691808e+00 1.604492e+00 1.477573e+00 1.362350e+00 1.271198e+00 1.203811e+00 1.136743e+00 1.048759e+00 9.470173e-01 8.698400e-01 8.407195e-01 8.337934e-01 8.262260e-01 8.319626e-01 8.428602e-01 8.487387e-01 8.320268e-01 7.846257e-01 7.395437e-01 7.134632e-01 6.948095e-01 6.723043e-01 6.460615e-01 6.378016e-01 6.531178e-01 6.668006e-01 6.636724e-01 6.684039e-01 7.069287e-01 7.752743e-01 8.669597e-01 9.844022e-01 1.138838e+00 1.306174e+00 1.481678e+00 1.699229e+00 1.935410e+00 2.119113e+00 2.214036e+00 2.219999e+00 2.136004e+00 1.966258e+00 1.738075e+00 1.517112e+00 1.346579e+00 1.243959e+00 1.206891e+00 1.200325e+00 1.195187e+00 1.183653e+00 1.155278e+00 1.088677e+00 9.958042e-01 9.431275e-01 9.641885e-01 1.027564e+00 1.085842e+00 1.104208e+00 1.076554e+00 1.023117e+00 9.684956e-01 9.362915e-01 9.514188e-01 1.017124e+00 1.104471e+00 1.185135e+00 1.256686e+00 1.340511e+00 1.453822e+00 1.599194e+00 1.781222e+00 2.007797e+00 2.268878e+00 2.539639e+00 2.829007e+00 3.189492e+00 3.628492e+00 4.031496e+00 4.233000e+00 4.209112e+00 4.105936e+00 4.049010e+00 4.051276e+00 4.078024e+00 4.119498e+00 4.174459e+00 4.178083e+00 4.034424e+00 3.767574e+00 3.508662e+00 3.353400e+00 3.268332e+00 3.191219e+00 3.136417e+00 3.113086e+00 3.114947e+00 3.172214e+00
<GCONST> 3.076609e+02
<MIXTURE> 23 5.008469e-02
<MEAN> 128
 7.541235e+00 8.433458e+00 9.397710e+00 1.024991e+01 1.093049e+01 1.129979e+01 1.159990e+01 1.180489e+01 1.199460e+01 1.219573e+01 1.233293e+01 1.250067e+01 1.263719e+01 1.269469e+01 1.268980e+01 1.267987e+01 1.268861e+01 1.268556e+01 1.271964e+01 1.281848e+01 1.300172e+01 1.321229e+01 1.342089e+01 1.359264e+01 1.370181e+01 1.375985e+01 1.377013e+01 1.382127e+01 1.391774e+01 1.401698e+01 1.409814e+01 1.416433e+01 1.421471e+01 1.424260e+01 1.423960e+01 1.421022e+01 1.415071e+01 1.403029e+01 1.386036e+01 1.365694e+01 1.345778e+01 1.329601e+01 1.316611e+01 1.303879e+01 1.290528e+01 1.277170e+01 1.263985e+01 1.249874e+01 1.234705e+01 1.221110e+01 1.210995e+01 1.201912e+01 1.194012e+01 1.188781e+01 1.186625e+01 1.184240e+01 1.179436e+01 1.173733e+01 1.167514e+01 1.164795e+01 1.166111e+01 1.169072e+01 1.173136e+01 1.180897e+01 1.191717e+01 1.202756e+01 1.216366e+01 1.233623e+01 1.251099e+01 1.265258e+01 1.275113e+01 1.281404e+01 1.283551e+01 1.280316e+01 1.274661e+01 1.269463e+01 1.266713e+01 1.267080e+01 1.269278e+01 1.273283e+01 1.278254e+01 1.285616e+01 1.297234e+01 1.315200e+01 1.340466e+01 1.370305e+01 1.397705e+01 1.416741e+01 1.426559e+01 1.427896e+01 1.422336e+01 1.411696e+01 1.399803e+01 1.391328e+01 1.386018e+01 1.381706e+01 1.380205e+01 1.379377e+01 1.378190e+01 1.375675e+01 1.371742e+01 1.368525e+01 1.368692e+01 1.361679e+01 1.351995e+01 1.337167e+01 1.319673e+01 1.303934e+01 1.290151e+01 1.274455e+01 1.253973e+01 1.222016e+01 1.188141e+01 1.153114e+01 1.117905e+01 1.084713e+01 1.055999e+01 1.032945e+01 1.014561e+01 1.003201e+01 9.946611e+00 9.852911e+00 9.731697e+00 9.555097e+00 9.218881e+00 8.498247e+00 8.682143e+00 9.182387e+00
<VARIANCE> 128
 2.301656e+00 2.566174e+00 3.047313e+00 3.508154e+00 3.831370e+00 3.995083e+00 4.046583e+00 3.960152e+00 3.773413e+00 3.558526e+00 3.388235e+00 3.254754e+00 3.232104e+00 3.275764e+00 3.323936e+00 3.299808e+00 3.155771e+00 2.889435e+00 2.586780e+00 2.343477e+00 2.198706e+00 2.144329e+00 2.102733e+00 2.037088e+00 1.936040e+00 1.803882e+00 1.682348e+00 1.611364e+00 1.579752e+00 1.569973e+00 1.570593e+00 1.568917e+00 1.555771e+00 1.536502e+00 1.524773e+00 1.509188e+00 1.477485e+00 1.424790e+00 1.350970e+00 1.270397e+00 1.203156e+00 1.157270e+00 1.135792e+00 1.138102e+00 1.158473e+00 1.189621e+00 1.215147e+00 1.238811e+00 1.260670e+00 1.279340e+00 1.305798e+00 1.344550e+00 1.383171e+00 1.428264e+00 1.491725e+00 1.584791e+00 1.692894e+00 1.815239e+00 1.962359e+00 2.134212e+00 2.271041e+00 2.328383e+00 2.311221e+00 2.241844e+00 2.130116e+00 2.012334e+00 1.943056e+00 1.919596e+00 1.880370e+00 1.793540e+00 1.677980e+00 1.560984e+00 1.460259e+00 1.393156e+00 1.375948e+00 1.398624e+00 1.439887e+00 1.489145e+00 1.533927e+00 1.567436e+00 1.598232e+00 1.630697e+00 1.646064e+00 1.624135e+00 1.631070e+00 1.742055e+00 1.908378e+00 2.020403e+00 2.013158e+00 1.910167e+00 1.779137e+00 1.667218e+00 1.598454e+00 1.576058e+00 1.578865e+00 1.586008e+00 1.579668e+00 1.557902e+00 1.540432e+00 1.535394e+00 1.521372e+00 1.486191e+00 1.460875e+00 1.477010e+00 1.528018e+00 1.594241e+00 1.664152e+00 1.733181e+00 1.788078e+00 1.818694e+00 1.836126e+00 1.857090e+00 1.889376e+00 1.923983e+00 1.948955e+00 1.963248e+00 1.969448e+00 1.949761e+00 1.882571e+00 1.769739e+00 1.651016e+00 1.579318e+00 1.557862e+00 1.574410e+00 1.605188e+00 1.614123e+00 1.701743e+00 1.790699e+00
<GCONST> 3.118502e+02
<MIXTURE> 24 2.953069e-02
<MEAN> 128
 7.783790e+00 9.253039e+00 1.078862e+01 1.221068e+01 1.347241e+01 1.434697e+01 1.494666e+01 1.519522e+01 1.520580e+01 1.507623e+01 1.489099e+01 1.497258e+01 1.532318e+01 1.571566e+01 1.598905e+01 1.610629e+01 1.607179e+01 1.593479e+01 1.591888e+01 1.609449e+01 1.638161e+01 1.663302e+01 1.675186e+01 1.669616e+01 1.647502e+01 1.616001e+01 1.579672e+01 1.547291e+01 1.517752e+01 1.488700e+01 1.461626e+01 1.439507e+01 1.420416e+01 1.398456e+01 1.370621e+01 1.338975e+01 1.306992e+01 1.271961e+01 1.232513e+01 1.188531e+01 1.146378e+01 1.112759e+01 1.085008e+01 1.057560e+01 1.028995e+01 1.001058e+01 9.737667e+00 9.455610e+00 9.159300e+00 8.890455e+00 8.660423e+00 8.428324e+00 8.205276e+00 8.050732e+00 8.010761e+00 8.038606e+00 8.056931e+00 8.044843e+00 7.992113e+00 7.948379e+00 7.924266e+00 7.924233e+00 7.985753e+00 8.133210e+00 8.298500e+00 8.388565e+00 8.409308e+00 8.419826e+00 8.436717e+00 8.441768e+00 8.444408e+00 8.459568e+00 8.457379e+00 8.412224e+00 8.388992e+00 8.463506e+00 8.668871e+00 8.969073e+00 9.276283e+00 9.532445e+00 9.691212e+00 9.746181e+00 9.727635e+00 9.700515e+00 9.721370e+00 9.784574e+00 9.818392e+00 9.774416e+00 9.662017e+00 9.499315e+00 9.304816e+00 9.091843e+00 8.893747e+00 8.754341e+00 8.674939e+00 8.631538e+00 8.630696e+00 8.642675e+00 8.662014e+00 8.682198e+00 8.692465e+00 8.690286e+00 8.673222e+00 8.532228e+00 8.333846e+00 8.077737e+00 7.800910e+00 7.554680e+00 7.359566e+00 7.203355e+00 7.059298e+00 6.824704e+00 6.560962e+00 6.268243e+00 5.963323e+00 5.677729e+00 5.441849e+00 5.270774e+00 5.162944e+00 5.145135e+00 5.147261e+00 5.102185e+00 5.007277e+00 4.889159e+00 4.655460e+00 4.021056e+00 4.305477e+00 4.839461e+00
<VARIANCE> 128
 1.651914e+00 2.277221e+00 2.949461e+00 3.444582e+00 3.622738e+00 3.385460e+00 2.750367e+00 2.026948e+00 1.666125e+00 1.779821e+00 2.010200e+00 1.873935e+00 1.412066e+00 9.539333e-01 7.896043e-01 9.633064e-01 1.369183e+00 1.684112e+00 1.532218e+00 1.143670e+00 9.127055e-01 8.971398e-01 1.088175e+00 1.391172e+00 1.646384e+00 1.671522e+00 1.499179e+00 1.336124e+00 1.381699e+00 1.532727e+00 1.547665e+00 1.428135e+00 1.344736e+00 1.350960e+00 1.357857e+00 1.362615e+00 1.357713e+00 1.344928e+00 1.316708e+00 1.251317e+00 1.139457e+00 1.049825e+00 1.046365e+00 1.073812e+00 1.108401e+00 1.139687e+00 1.153428e+00 1.158697e+00 1.156119e+00 1.154755e+00 1.185827e+00 1.232000e+00 1.290112e+00 1.359485e+00 1.425555e+00 1.447240e+00 1.405990e+00 1.342027e+00 1.325957e+00 1.353812e+00 1.386151e+00 1.382650e+00 1.376202e+00 1.476094e+00 1.667070e+00 1.865463e+00 2.037837e+00 2.127963e+00 2.108789e+00 1.973385e+00 1.784413e+00 1.626626e+00 1.526584e+00 1.442697e+00 1.367911e+00 1.316546e+00 1.311031e+00 1.378872e+00 1.492967e+00 1.603824e+00 1.661591e+00 1.636728e+00 1.571080e+00 1.565199e+00 1.734749e+00 2.074267e+00 2.432192e+00 2.644481e+00 2.637434e+00 2.463556e+00 2.231670e+00 1.999977e+00 1.790461e+00 1.626104e+00 1.497494e+00 1.394090e+00 1.309806e+00 1.249880e+00 1.203286e+00 1.144304e+00 1.080724e+00 1.044575e+00 1.052628e+00 1.078134e+00 1.071880e+00 1.007770e+00 9.082953e-01 8.276498e-01 7.837110e-01 7.524881e-01 7.233485e-01 6.908031e-01 6.450686e-01 5.951434e-01 5.592779e-01 5.483679e-01 5.718650e-01 6.294551e-01 7.060509e-01 7.911669e-01 8.712959e-01 9.085174e-01 8.720683e-01 8.056477e-01 7.674228e-01 7.093748e-01 7.734215e-01 8.568967e-01
<GCONST> 2.705135e+02
<MIXTURE> 25 4.140589e-02
<MEAN> 128
 7.185809e+00 8.293131e+00 9.690056e+00 1.113685e+01 1.260902e+01 1.395925e+01 1.530111e+01 1.646686e+01 1.744262e+01 1.817544e+01 1.853700e+01 1.864444e+01 1.854974e+01 1.832477e+01 1.808133e+01 1.792364e+01 1.788378e+01 1.793313e+01 1.812048e+01 1.841620e+01 1.875194e+01 1.903666e+01 1.925267e+01 1.938858e+01 1.943927e+01 1.941787e+01 1.931241e+01 1.920536e+01 1.914788e+01 1.917214e+01 1.926346e+01 1.934834e+01 1.935098e+01 1.923483e+01 1.899720e+01 1.866537e+01 1.826904e+01 1.780892e+01 1.730791e+01 1.677844e+01 1.625584e+01 1.578458e+01 1.537375e+01 1.500068e+01 1.463975e+01 1.427562e+01 1.390086e+01 1.350977e+01 1.311390e+01 1.274334e+01 1.242187e+01 1.214708e+01 1.192530e+01 1.176596e+01 1.166267e+01 1.157188e+01 1.145948e+01 1.132749e+01 1.116431e+01 1.100522e+01 1.085972e+01 1.071310e+01 1.057912e+01 1.051236e+01 1.053025e+01 1.060481e+01 1.075115e+01 1.099005e+01 1.129259e+01 1.162694e+01 1.198376e+01 1.234944e+01 1.270116e+01 1.303059e+01 1.335433e+01 1.365943e+01 1.391723e+01 1.409758e+01 1.417943e+01 1.417788e+01 1.411143e+01 1.403511e+01 1.401782e+01 1.412588e+01 1.439968e+01 1.480217e+01 1.521153e+01 1.552742e+01 1.572193e+01 1.579020e+01 1.574427e+01 1.560683e+01 1.541890e+01 1.522530e+01 1.502218e+01 1.479705e+01 1.459615e+01 1.444615e+01 1.436906e+01 1.433167e+01 1.427875e+01 1.417777e+01 1.402267e+01 1.371804e+01 1.333907e+01 1.287671e+01 1.237054e+01 1.193768e+01 1.170134e+01 1.163663e+01 1.157491e+01 1.129507e+01 1.084421e+01 1.030019e+01 9.775638e+00 9.333971e+00 8.988699e+00 8.771215e+00 8.721492e+00 8.847633e+00 9.017448e+00 9.118949e+00 9.119319e+00 9.017597e+00 8.726736e+00 8.030546e+00 8.242561e+00 8.737370e+00
<VARIANCE> 128
 9.771424e-01 1.004024e+00 1.259325e+00 1.565267e+00 1.921181e+00 2.195030e+00 2.178033e+00 1.861031e+00 1.471997e+00 1.342160e+00 1.668504e+00 2.283440e+00 2.755467e+00 2.651515e+00 1.990874e+00 1.206021e+00 7.398959e-01 6.501930e-01 7.806726e-01 9.982718e-01 1.261529e+00 1.547593e+00 1.759358e+00 1.804282e+00 1.654743e+00 1.369735e+00 1.080229e+00 9.061010e-01 9.200511e-01 1.080468e+00 1.269206e+00 1.375532e+00 1.373100e+00 1.300484e+00 1.207586e+00 1.143565e+00 1.133460e+00 1.168012e+00 1.220339e+00 1.262116e+00 1.266582e+00 1.253603e+00 1.252831e+00 1.235206e+00 1.197585e+00 1.159097e+00 1.120368e+00 1.068011e+00 9.883457e-01 9.203421e-01 9.102516e-01 9.141679e-01 8.920834e-01 8.617659e-01 8.581704e-01 8.847432e-01 9.027838e-01 8.845972e-01 8.591983e-01 8.740116e-01 9.314757e-01 9.908376e-01 1.027976e+00 1.088812e+00 1.189918e+00 1.303779e+00 1.466724e+00 1.703095e+00 1.963330e+00 2.197482e+00 2.365769e+00 2.416567e+00 2.312509e+00 2.066192e+00 1.732786e+00 1.385516e+00 1.119179e+00 9.913028e-01 9.600537e-01 9.523376e-01 9.263372e-01 8.702825e-01 7.988715e-01 7.329699e-01 6.876470e-01 6.479190e-01 6.002179e-01 5.756102e-01 6.060914e-01 6.890109e-01 7.851394e-01 8.511212e-01 8.680357e-01 8.429162e-01 8.023584e-01 7.682002e-01 7.354037e-01 6.863388e-01 6.315282e-01 5.873086e-01 5.559572e-01 5.459746e-01 5.724959e-01 6.257454e-01 6.734219e-01 6.871039e-01 6.497249e-01 5.906870e-01 6.274987e-01 7.859383e-01 9.354458e-01 1.002649e+00 9.961482e-01 9.365596e-01 8.672634e-01 8.372201e-01 8.258280e-01 8.028511e-01 7.760509e-01 7.400619e-01 7.009459e-01 6.704770e-01 6.372526e-01 6.002370e-01 5.825518e-01 5.826297e-01 6.034777e-01 6.686904e-01
<GCONST> 2.384134e+02
<MIXTURE> 26 2.206990e-02
<MEAN> 128
 6.098897e+00 6.563513e+00 7.131931e+00 7.702634e+00 8.203262e+00 8.439568e+00 8.632514e+00 8.739695e+00 8.830748e+00 8.960244e+00 9.053112e+00 9.199608e+00 9.295226e+00 9.252181e+00 9.101893e+00 8.962564e+00 8.904887e+00 8.875924e+00 8.879519e+00 8.923285e+00 9.054570e+00 9.229648e+00 9.412923e+00 9.549835e+00 9.587770e+00 9.517398e+00 9.347382e+00 9.210526e+00 9.164160e+00 9.162950e+00 9.172673e+00 9.198203e+00 9.259686e+00 9.308474e+00 9.328027e+00 9.335217e+00 9.312048e+00 9.216415e+00 9.057668e+00 8.853041e+00 8.642647e+00 8.470999e+00 8.330933e+00 8.192145e+00 8.062434e+00 7.947662e+00 7.843279e+00 7.748854e+00 7.664279e+00 7.603996e+00 7.570079e+00 7.536583e+00 7.512214e+00 7.509830e+00 7.527909e+00 7.548934e+00 7.558896e+00 7.567371e+00 7.567409e+00 7.593175e+00 7.641522e+00 7.704104e+00 7.788382e+00 7.907258e+00 8.042618e+00 8.172572e+00 8.321355e+00 8.500649e+00 8.679575e+00 8.823700e+00 8.923620e+00 8.983405e+00 8.993593e+00 8.941716e+00 8.868106e+00 8.819238e+00 8.830325e+00 8.902849e+00 8.998323e+00 9.099548e+00 9.185944e+00 9.258977e+00 9.332152e+00 9.432238e+00 9.588931e+00 9.799623e+00 1.001095e+01 1.017912e+01 1.030903e+01 1.041227e+01 1.049920e+01 1.057166e+01 1.064363e+01 1.073649e+01 1.083408e+01 1.091468e+01 1.099994e+01 1.107150e+01 1.112287e+01 1.115127e+01 1.116252e+01 1.117775e+01 1.121817e+01 1.117718e+01 1.110905e+01 1.100355e+01 1.089002e+01 1.079892e+01 1.071870e+01 1.060673e+01 1.043654e+01 1.014708e+01 9.839655e+00 9.516065e+00 9.178615e+00 8.849150e+00 8.556554e+00 8.313013e+00 8.101084e+00 7.936947e+00 7.780211e+00 7.613332e+00 7.432489e+00 7.217409e+00 6.862230e+00 6.134223e+00 6.354092e+00 6.853911e+00
<VARIANCE> 128
 1.962099e+00 2.110534e+00 2.608601e+00 3.188730e+00 3.473462e+00 3.409629e+00 3.321070e+00 3.373709e+00 3.536629e+00 3.805500e+00 4.136014e+00 4.478979e+00 4.580233e+00 4.375367e+00 4.012221e+00 3.640034e+00 3.386403e+00 3.328237e+00 3.277668e+00 3.221844e+00 3.250676e+00 3.300639e+00 3.308240e+00 3.286952e+00 3.242032e+00 3.164594e+00 3.072648e+00 3.135824e+00 3.324910e+00 3.457481e+00 3.505913e+00 3.569057e+00 3.679748e+00 3.705881e+00 3.612023e+00 3.492368e+00 3.373518e+00 3.265785e+00 3.144608e+00 3.004545e+00 2.856744e+00 2.717056e+00 2.588679e+00 2.478825e+00 2.383472e+00 2.296152e+00 2.214849e+00 2.137246e+00 2.061141e+00 1.977677e+00 1.916757e+00 1.900704e+00 1.909135e+00 1.922390e+00 1.931506e+00 1.924880e+00 1.899668e+00 1.860555e+00 1.832923e+00 1.837185e+00 1.865648e+00 1.893407e+00 1.925287e+00 1.971314e+00 1.995174e+00 1.994669e+00 2.017674e+00 2.064977e+00 2.079379e+00 2.038553e+00 1.976802e+00 1.923696e+00 1.870336e+00 1.811913e+00 1.754742e+00 1.705372e+00 1.670962e+00 1.665221e+00 1.683610e+00 1.700476e+00 1.713804e+00 1.718280e+00 1.704259e+00 1.663989e+00 1.616519e+00 1.595158e+00 1.598222e+00 1.594906e+00 1.570394e+00 1.537992e+00 1.517193e+00 1.516584e+00 1.555452e+00 1.636424e+00 1.729018e+00 1.810239e+00 1.873216e+00 1.925810e+00 1.987179e+00 2.050540e+00 2.095346e+00 2.113469e+00 2.128997e+00 2.171363e+00 2.241952e+00 2.329710e+00 2.443487e+00 2.593086e+00 2.743884e+00 2.834846e+00 2.839468e+00 2.793749e+00 2.741463e+00 2.707161e+00 2.690322e+00 2.672238e+00 2.642667e+00 2.595319e+00 2.539143e+00 2.490089e+00 2.482163e+00 2.530251e+00 2.604764e+00 2.663881e+00 2.712776e+00 2.724054e+00 2.863496e+00 2.964788e+00
<GCONST> 3.480787e+02
<MIXTURE> 27 2.449562e-02
<MEAN> 128
 8.966145e+00 1.073443e+01 1.231145e+01 1.351708e+01 1.430877e+01 1.450766e+01 1.434961e+01 1.391505e+01 1.343122e+01 1.307454e+01 1.299498e+01 1.330856e+01 1.362661e+01 1.363520e+01 1.331686e+01 1.285955e+01 1.245252e+01 1.219353e+01 1.221602e+01 1.240878e+01 1.256426e+01 1.258706e+01 1.252965e+01 1.246910e+01 1.239915e+01 1.226941e+01 1.199482e+01 1.162599e+01 1.124561e+01 1.096157e+01 1.085445e+01 1.088195e+01 1.094385e+01 1.097648e+01 1.096923e+01 1.092933e+01 1.083478e+01 1.064433e+01 1.039601e+01 1.015506e+01 1.001773e+01 1.001893e+01 1.009518e+01 1.017432e+01 1.022874e+01 1.024794e+01 1.022181e+01 1.014515e+01 1.003753e+01 9.938853e+00 9.857166e+00 9.750264e+00 9.606936e+00 9.463921e+00 9.365829e+00 9.305208e+00 9.244720e+00 9.170069e+00 9.062974e+00 8.956347e+00 8.866049e+00 8.814073e+00 8.855809e+00 9.045419e+00 9.346249e+00 9.659663e+00 9.923372e+00 1.009476e+01 1.013681e+01 1.003704e+01 9.824802e+00 9.560928e+00 9.273400e+00 8.956147e+00 8.670869e+00 8.519474e+00 8.576181e+00 8.808531e+00 9.079893e+00 9.275564e+00 9.324157e+00 9.230889e+00 9.058511e+00 8.928729e+00 8.976953e+00 9.216160e+00 9.510963e+00 9.739632e+00 9.854927e+00 9.832537e+00 9.673902e+00 9.404489e+00 9.077995e+00 8.769051e+00 8.522771e+00 8.358021e+00 8.284634e+00 8.246421e+00 8.231543e+00 8.260102e+00 8.339717e+00 8.443328e+00 8.523463e+00 8.448657e+00 8.298201e+00 8.086123e+00 7.841825e+00 7.593523e+00 7.359023e+00 7.161662e+00 7.012508e+00 6.793602e+00 6.524509e+00 6.197374e+00 5.856010e+00 5.549235e+00 5.299224e+00 5.098829e+00 4.929220e+00 4.825280e+00 4.744154e+00 4.640935e+00 4.520037e+00 4.399736e+00 4.170054e+00 3.534889e+00 3.816894e+00 4.353294e+00
<VARIANCE> 128
 1.333175e+00 1.963282e+00 2.617550e+00 3.104784e+00 3.289980e+00 3.175175e+00 2.805538e+00 2.329052e+00 1.883368e+00 1.618654e+00 1.696124e+00 2.074839e+00 2.530260e+00 2.876326e+00 2.925150e+00 2.566123e+00 2.027611e+00 1.702274e+00 1.831736e+00 2.181966e+00 2.367491e+00 2.095216e+00 1.622009e+00 1.262971e+00 1.110908e+00 1.096716e+00 1.086792e+00 1.003745e+00 9.011859e-01 8.696017e-01 9.208527e-01 1.015033e+00 1.036967e+00 9.786860e-01 9.437573e-01 1.011106e+00 1.151514e+00 1.287743e+00 1.365852e+00 1.390250e+00 1.391905e+00 1.372008e+00 1.336469e+00 1.308608e+00 1.304328e+00 1.337627e+00 1.424205e+00 1.562200e+00 1.758479e+00 2.050439e+00 2.478389e+00 3.009529e+00 3.588229e+00 4.145532e+00 4.561430e+00 4.711366e+00 4.571141e+00 4.200208e+00 3.688194e+00 3.153391e+00 2.634204e+00 2.077488e+00 1.498634e+00 1.029129e+00 7.435877e-01 6.390468e-01 6.966299e-01 8.254803e-01 9.062515e-01 8.829313e-01 7.890655e-01 6.905677e-01 6.232283e-01 5.725427e-01 5.269573e-01 5.010915e-01 5.153950e-01 5.619838e-01 6.058126e-01 6.516155e-01 7.100551e-01 7.771822e-01 8.756614e-01 1.067254e+00 1.414952e+00 1.839040e+00 2.166734e+00 2.281770e+00 2.151705e+00 1.861068e+00 1.545740e+00 1.286665e+00 1.110297e+00 1.026293e+00 1.003801e+00 9.874147e-01 9.434232e-01 8.805825e-01 8.119548e-01 7.349870e-01 6.615828e-01 6.191270e-01 6.069433e-01 5.957694e-01 5.595175e-01 5.013893e-01 4.439039e-01 4.087878e-01 3.938449e-01 3.827102e-01 3.747221e-01 3.807562e-01 3.834734e-01 3.744574e-01 3.744672e-01 3.950205e-01 4.268039e-01 4.520284e-01 4.621915e-01 4.700783e-01 4.953116e-01 5.339369e-01 5.648941e-01 5.835680e-01 6.054084e-01 5.768086e-01 6.602826e-01 7.442210e-01
<GCONST> 2.507606e+02
<MIXTURE> 28 2.473097e-02
<MEAN> 128
 7.387357e+00 8.782766e+00 1.017079e+01 1.127807e+01 1.202911e+01 1.229512e+01 1.234194e+01 1.220509e+01 1.203577e+01 1.194883e+01 1.197143e+01 1.217861e+01 1.235120e+01 1.232096e+01 1.214201e+01 1.196699e+01 1.187800e+01 1.184257e+01 1.187892e+01 1.193236e+01 1.202413e+01 1.214368e+01 1.228217e+01 1.236256e+01 1.231680e+01 1.210250e+01 1.172915e+01 1.136329e+01 1.111776e+01 1.091551e+01 1.073265e+01 1.063674e+01 1.065934e+01 1.068643e+01 1.065953e+01 1.061196e+01 1.054820e+01 1.038567e+01 1.012043e+01 9.796232e+00 9.519828e+00 9.393350e+00 9.340603e+00 9.275330e+00 9.187202e+00 9.079836e+00 8.954773e+00 8.802848e+00 8.613528e+00 8.436448e+00 8.298366e+00 8.139042e+00 7.972544e+00 7.853641e+00 7.815629e+00 7.818161e+00 7.783242e+00 7.703472e+00 7.599232e+00 7.529062e+00 7.478302e+00 7.432903e+00 7.415493e+00 7.483752e+00 7.612060e+00 7.719083e+00 7.798603e+00 7.862458e+00 7.873517e+00 7.792830e+00 7.650843e+00 7.498777e+00 7.324164e+00 7.097486e+00 6.886103e+00 6.787642e+00 6.853381e+00 7.051467e+00 7.273497e+00 7.433327e+00 7.484890e+00 7.425783e+00 7.280974e+00 7.120981e+00 7.035741e+00 7.065938e+00 7.151633e+00 7.229714e+00 7.285118e+00 7.300417e+00 7.262686e+00 7.176396e+00 7.075716e+00 7.003577e+00 6.963179e+00 6.950347e+00 6.983857e+00 7.018233e+00 7.033349e+00 7.040812e+00 7.057900e+00 7.087075e+00 7.109324e+00 7.008175e+00 6.870316e+00 6.715727e+00 6.567134e+00 6.432889e+00 6.298091e+00 6.152870e+00 6.009661e+00 5.809751e+00 5.627506e+00 5.445779e+00 5.254512e+00 5.059749e+00 4.872077e+00 4.691542e+00 4.509593e+00 4.372128e+00 4.252252e+00 4.116164e+00 3.952487e+00 3.751783e+00 3.429759e+00 2.754835e+00 2.966641e+00 3.477983e+00
<VARIANCE> 128
 1.627342e+00 2.654713e+00 3.810977e+00 4.493277e+00 4.635395e+00 4.400089e+00 4.105638e+00 4.061197e+00 4.314807e+00 4.684433e+00 5.059136e+00 5.316260e+00 5.583021e+00 5.941767e+00 6.265409e+00 6.513175e+00 6.586225e+00 6.547020e+00 6.467533e+00 6.430668e+00 6.488530e+00 6.494716e+00 6.428325e+00 6.324645e+00 6.099874e+00 5.707156e+00 5.224765e+00 4.915102e+00 5.036314e+00 5.185786e+00 4.957739e+00 4.561629e+00 4.254629e+00 3.858565e+00 3.377352e+00 3.080532e+00 2.978044e+00 2.926840e+00 2.792312e+00 2.519222e+00 2.125037e+00 1.739281e+00 1.493954e+00 1.376968e+00 1.408819e+00 1.586909e+00 1.813371e+00 2.014434e+00 2.240409e+00 2.509440e+00 2.763010e+00 3.043646e+00 3.322546e+00 3.533537e+00 3.567405e+00 3.418731e+00 3.150487e+00 2.806297e+00 2.438999e+00 2.091780e+00 1.833498e+00 1.643059e+00 1.531341e+00 1.546521e+00 1.701108e+00 1.984509e+00 2.342226e+00 2.612130e+00 2.672876e+00 2.508768e+00 2.167914e+00 1.784659e+00 1.464352e+00 1.178209e+00 9.097132e-01 7.251041e-01 6.727782e-01 7.304692e-01 8.186373e-01 8.974454e-01 9.338735e-01 9.071584e-01 8.387089e-01 7.729102e-01 7.772589e-01 8.788298e-01 1.012349e+00 1.100546e+00 1.116353e+00 1.076841e+00 9.894375e-01 8.440956e-01 6.754940e-01 5.465184e-01 4.873999e-01 4.752843e-01 4.701534e-01 4.505381e-01 4.185761e-01 3.822280e-01 3.539621e-01 3.452978e-01 3.493374e-01 3.465398e-01 3.231100e-01 2.855397e-01 2.522037e-01 2.320143e-01 2.187229e-01 2.043868e-01 1.901141e-01 1.856017e-01 1.917005e-01 1.995129e-01 2.064685e-01 2.154220e-01 2.258919e-01 2.328140e-01 2.327812e-01 2.306172e-01 2.395805e-01 2.567171e-01 2.662007e-01 2.662334e-01 2.729473e-01 2.752048e-01 3.083427e-01 3.475006e-01
<GCONST> 2.752758e+02
<MIXTURE> 29 1.890225e-02
<MEAN> 128
 5.921495e+00 6.442949e+00 7.035703e+00 7.600814e+00 8.065438e+00 8.282516e+00 8.474600e+00 8.553734e+00 8.573950e+00 8.619893e+00 8.652449e+00 8.772733e+00 8.860950e+00 8.799552e+00 8.648791e+00 8.516940e+00 8.463466e+00 8.418894e+00 8.377178e+00 8.318169e+00 8.319336e+00 8.366708e+00 8.452513e+00 8.525958e+00 8.500996e+00 8.320393e+00 7.989799e+00 7.680249e+00 7.498424e+00 7.343969e+00 7.182018e+00 7.047270e+00 6.978360e+00 6.918186e+00 6.845171e+00 6.780157e+00 6.722061e+00 6.615965e+00 6.457777e+00 6.267636e+00 6.058507e+00 5.891219e+00 5.745036e+00 5.615092e+00 5.488241e+00 5.359268e+00 5.244249e+00 5.148019e+00 5.055102e+00 4.963295e+00 4.874351e+00 4.782976e+00 4.704594e+00 4.664608e+00 4.656905e+00 4.652670e+00 4.637513e+00 4.624314e+00 4.598412e+00 4.574754e+00 4.557884e+00 4.543651e+00 4.530804e+00 4.536928e+00 4.550905e+00 4.542324e+00 4.534939e+00 4.553723e+00 4.586061e+00 4.611985e+00 4.637817e+00 4.680900e+00 4.722379e+00 4.734725e+00 4.741928e+00 4.770716e+00 4.832088e+00 4.919987e+00 5.015805e+00 5.117823e+00 5.202006e+00 5.258611e+00 5.296248e+00 5.337735e+00 5.399502e+00 5.486649e+00 5.578879e+00 5.657668e+00 5.732235e+00 5.800512e+00 5.864557e+00 5.932499e+00 6.011604e+00 6.101504e+00 6.168663e+00 6.196465e+00 6.226971e+00 6.258396e+00 6.291602e+00 6.323652e+00 6.351817e+00 6.379746e+00 6.408685e+00 6.341363e+00 6.265431e+00 6.182869e+00 6.098679e+00 6.017411e+00 5.938921e+00 5.858245e+00 5.769619e+00 5.597785e+00 5.422730e+00 5.245439e+00 5.067065e+00 4.887918e+00 4.707747e+00 4.524913e+00 4.336939e+00 4.191112e+00 4.059885e+00 3.913325e+00 3.742737e+00 3.535726e+00 3.203522e+00 2.524606e+00 2.722526e+00 3.223634e+00
<VARIANCE> 128
 4.019731e+00 3.629833e+00 3.806480e+00 4.220713e+00 4.455043e+00 4.375346e+00 4.266492e+00 4.242145e+00 4.165437e+00 4.056731e+00 4.228129e+00 4.687443e+00 4.811973e+00 4.415767e+00 3.788469e+00 3.241709e+00 3.056735e+00 3.022479e+00 2.978473e+00 2.762959e+00 2.635950e+00 2.555620e+00 2.461174e+00 2.373682e+00 2.229142e+00 1.914672e+00 1.516916e+00 1.313764e+00 1.389192e+00 1.393291e+00 1.227268e+00 1.093740e+00 1.097914e+00 1.128641e+00 1.140072e+00 1.137927e+00 1.164719e+00 1.159846e+00 1.099385e+00 1.041706e+00 9.625375e-01 8.958523e-01 8.372750e-01 7.744949e-01 7.323913e-01 7.271882e-01 7.202034e-01 6.828078e-01 6.345744e-01 5.974229e-01 5.680981e-01 5.505056e-01 5.424806e-01 5.440194e-01 5.523578e-01 5.596632e-01 5.537593e-01 5.515518e-01 5.532175e-01 5.728986e-01 5.972372e-01 5.949353e-01 5.707529e-01 5.529085e-01 5.406258e-01 5.209473e-01 5.121303e-01 5.291012e-01 5.481626e-01 5.427135e-01 5.186486e-01 4.924434e-01 4.610843e-01 4.119315e-01 3.605336e-01 3.232543e-01 3.019008e-01 3.005925e-01 3.061930e-01 3.069469e-01 2.987220e-01 2.756318e-01 2.457389e-01 2.206307e-01 2.096904e-01 2.142276e-01 2.218929e-01 2.198804e-01 2.083195e-01 1.980841e-01 1.922017e-01 1.849163e-01 1.749509e-01 1.671642e-01 1.647954e-01 1.665914e-01 1.712845e-01 1.769231e-01 1.797700e-01 1.790044e-01 1.784627e-01 1.820057e-01 1.866540e-01 1.853776e-01 1.762959e-01 1.638073e-01 1.549069e-01 1.531720e-01 1.575423e-01 1.631669e-01 1.646028e-01 1.620978e-01 1.590106e-01 1.576626e-01 1.578309e-01 1.581018e-01 1.581286e-01 1.608371e-01 1.693756e-01 1.860276e-01 2.087313e-01 2.296449e-01 2.407722e-01 2.489934e-01 2.640990e-01 2.779009e-01 2.983041e-01 3.200923e-01
<GCONST> 1.664636e+02
<MIXTURE> 30 1.443315e-02
<MEAN> 128
