~o
<STREAMINFO> 1 128
<VECSIZE> 128<NULLD><USER><DIAGC>
~h "spkr1"
<BEGINHMM>
<NUMSTATES> 3
<STATE> 2
<NUMMIXES> 8
<MIXTURE> 1 1.310599e-01
<MEAN> 128
 7.448386e+00 8.707812e+00 1.019254e+01 1.168632e+01 1.315845e+01 1.442589e+01 1.557723e+01 1.644234e+01 1.703498e+01 1.736310e+01 1.737050e+01 1.723937e+01 1.707442e+01 1.698279e+01 1.705937e+01 1.732800e+01 1.766158e+01 1.790641e+01 1.805622e+01 1.811445e+01 1.812211e+01 1.811122e+01 1.815131e+01 1.826387e+01 1.841425e+01 1.853609e+01 1.853518e+01 1.845025e+01 1.833713e+01 1.827934e+01 1.832364e+01 1.842491e+01 1.851207e+01 1.855033e+01 1.853080e+01 1.846275e+01 1.834911e+01 1.816524e+01 1.791724e+01 1.760789e+01 1.726715e+01 1.693707e+01 1.663580e+01 1.634820e+01 1.605306e+01 1.573692e+01 1.539382e+01 1.502256e+01 1.463843e+01 1.427231e+01 1.395234e+01 1.367679e+01 1.345057e+01 1.328640e+01 1.318154e+01 1.309619e+01 1.300082e+01 1.289856e+01 1.278139e+01 1.268454e+01 1.260463e+01 1.251916e+01 1.244377e+01 1.243067e+01 1.248766e+01 1.258249e+01 1.273100e+01 1.294804e+01 1.319908e+01 1.344315e+01 1.365929e+01 1.383345e+01 1.394434e+01 1.397753e+01 1.395898e+01 1.391489e+01 1.387249e+01 1.385253e+01 1.384883e+01 1.385605e+01 1.386135e+01 1.388759e+01 1.396874e+01 1.413305e+01 1.438912e+01 1.469655e+01 1.496593e+01 1.513601e+01 1.520755e+01 1.519425e+01 1.511239e+01 1.497661e+01 1.481835e+01 1.467695e+01 1.454526e+01 1.440499e+01 1.428942e+01 1.419958e+01 1.413138e+01 1.404789e+01 1.391038e+01 1.370840e+01 1.345774e+01 1.308500e+01 1.268399e+01 1.225518e+01 1.184208e+01 1.154102e+01 1.141812e+01 1.141987e+01 1.140768e+01 1.118547e+01 1.078559e+01 1.024997e+01 9.668366e+00 9.122859e+00 8.671426e+00 8.371669e+00 8.270049e+00 8.386209e+00 8.589339e+00 8.743187e+00 8.790777e+00 8.730489e+00 8.480164e+00 7.764562e+00 8.064095e+00 8.618834e+00
<VARIANCE> 128
 9.049553e-01 1.064977e+00 1.518670e+00 2.051631e+00 2.615263e+00 3.062787e+00 3.164446e+00 2.902432e+00 2.552918e+00 2.463842e+00 2.752180e+00 3.175779e+00 3.319800e+00 2.903414e+00 2.207900e+00 1.571310e+00 1.324427e+00 1.375495e+00 1.527332e+00 1.685955e+00 1.785112e+00 1.840698e+00 1.904091e+00 1.938174e+00 1.844487e+00 1.651019e+00 1.493083e+00 1.433838e+00 1.488780e+00 1.594301e+00 1.685671e+00 1.739992e+00 1.738395e+00 1.654424e+00 1.529152e+00 1.457217e+00 1.496254e+00 1.624758e+00 1.793353e+00 1.978678e+00 2.178107e+00 2.399371e+00 2.627285e+00 2.816533e+00 2.947231e+00 3.031256e+00 3.071929e+00 3.063494e+00 2.996596e+00 2.891904e+00 2.812458e+00 2.775691e+00 2.789574e+00 2.851033e+00 2.943539e+00 3.053834e+00 3.163428e+00 3.274374e+00 3.421980e+00 3.616662e+00 3.812029e+00 3.956381e+00 4.020805e+00 4.013521e+00 3.946141e+00 3.844440e+00 3.755435e+00 3.679770e+00 3.582196e+00 3.439400e+00 3.245152e+00 3.002028e+00 2.703738e+00 2.366475e+00 2.057317e+00 1.830065e+00 1.687777e+00 1.600127e+00 1.526140e+00 1.449221e+00 1.384338e+00 1.341616e+00 1.299087e+00 1.215999e+00 1.112867e+00 1.076095e+00 1.162047e+00 1.339950e+00 1.520545e+00 1.623107e+00 1.623497e+00 1.542269e+00 1.412656e+00 1.265230e+00 1.126905e+00 1.017120e+00 9.352043e-01 8.799977e-01 8.679564e-01 9.111034e-01 1.009766e+00 1.161289e+00 1.357246e+00 1.562110e+00 1.705418e+00 1.712542e+00 1.549803e+00 1.319957e+00 1.224317e+00 1.290461e+00 1.382684e+00 1.427619e+00 1.433503e+00 1.411087e+00 1.381265e+00 1.385006e+00 1.435354e+00 1.524082e+00 1.628039e+00 1.674354e+00 1.618010e+00 1.502009e+00 1.382583e+00 1.280985e+00 1.217377e+00 1.215267e+00 1.184008e+00 1.244459e+00
<GCONST> 3.150740e+02
<MIXTURE> 2 1.421691e-01
<MEAN> 128
 7.795393e+00 9.297549e+00 1.088594e+01 1.236919e+01 1.370298e+01 1.467059e+01 1.537805e+01 1.572197e+01 1.579742e+01 1.569476e+01 1.545482e+01 1.537148e+01 1.553590e+01 1.584120e+01 1.615428e+01 1.639178e+01 1.650215e+01 1.646843e+01 1.644210e+01 1.650627e+01 1.666259e+01 1.683706e+01 1.698374e+01 1.705091e+01 1.700227e+01 1.684775e+01 1.659137e+01 1.631075e+01 1.602983e+01 1.577581e+01 1.558738e+01 1.545442e+01 1.531925e+01 1.514682e+01 1.493825e+01 1.471231e+01 1.446796e+01 1.416312e+01 1.379842e+01 1.339365e+01 1.300527e+01 1.268347e+01 1.242076e+01 1.217368e+01 1.191862e+01 1.165523e+01 1.138645e+01 1.110682e+01 1.082131e+01 1.055249e+01 1.032190e+01 1.011384e+01 9.935570e+00 9.819472e+00 9.784476e+00 9.789455e+00 9.783564e+00 9.756057e+00 9.690994e+00 9.621938e+00 9.556524e+00 9.499558e+00 9.484335e+00 9.548748e+00 9.658231e+00 9.736053e+00 9.774981e+00 9.804973e+00 9.835699e+00 9.857911e+00 9.872253e+00 9.888292e+00 9.887041e+00 9.847603e+00 9.816996e+00 9.852802e+00 9.989573e+00 1.021209e+01 1.045302e+01 1.066047e+01 1.078664e+01 1.082441e+01 1.080337e+01 1.078268e+01 1.081917e+01 1.091428e+01 1.100013e+01 1.102190e+01 1.097922e+01 1.088003e+01 1.073379e+01 1.055358e+01 1.037672e+01 1.024797e+01 1.016285e+01 1.010216e+01 1.008431e+01 1.008574e+01 1.009342e+01 1.008652e+01 1.004449e+01 9.965117e+00 9.859200e+00 9.636619e+00 9.376474e+00 9.074542e+00 8.760650e+00 8.488081e+00 8.288795e+00 8.155202e+00 8.040375e+00 7.806797e+00 7.497276e+00 7.126715e+00 6.740039e+00 6.383669e+00 6.098221e+00 5.917475e+00 5.848916e+00 5.900025e+00 5.970312e+00 5.980624e+00 5.941512e+00 5.894532e+00 5.723388e+00 5.077106e+00 5.440111e+00 6.019588e+00
<VARIANCE> 128
 1.440553e+00 1.963190e+00 2.506802e+00 2.899210e+00 3.099933e+00 3.095731e+00 2.926894e+00 2.774694e+00 2.831806e+00 3.109051e+00 3.329698e+00 3.121011e+00 2.594093e+00 2.175644e+00 2.165225e+00 2.603490e+00 3.337271e+00 3.917630e+00 3.868633e+00 3.382063e+00 2.987804e+00 2.938038e+00 3.174346e+00 3.555528e+00 3.884815e+00 3.964077e+00 3.741671e+00 3.418573e+00 3.255971e+00 3.253288e+00 3.198087e+00 3.004220e+00 2.793826e+00 2.634366e+00 2.496667e+00 2.367909e+00 2.282459e+00 2.255838e+00 2.236617e+00 2.188002e+00 2.125208e+00 2.102720e+00 2.140325e+00 2.197523e+00 2.247141e+00 2.268912e+00 2.267100e+00 2.279362e+00 2.330868e+00 2.430995e+00 2.586781e+00 2.788195e+00 2.998930e+00 3.160895e+00 3.223976e+00 3.180088e+00 3.073441e+00 2.967813e+00 2.910666e+00 2.907922e+00 2.919601e+00 2.888334e+00 2.809719e+00 2.739228e+00 2.700263e+00 2.677588e+00 2.664608e+00 2.655474e+00 2.622295e+00 2.538871e+00 2.439437e+00 2.361498e+00 2.290059e+00 2.185404e+00 2.035114e+00 1.861536e+00 1.712273e+00 1.629759e+00 1.607025e+00 1.614979e+00 1.629488e+00 1.637737e+00 1.633811e+00 1.613301e+00 1.614880e+00 1.701088e+00 1.864131e+00 2.022257e+00 2.101984e+00 2.100157e+00 2.061739e+00 2.013276e+00 1.966506e+00 1.936637e+00 1.912753e+00 1.866362e+00 1.788028e+00 1.706066e+00 1.646751e+00 1.595105e+00 1.541857e+00 1.507764e+00 1.517304e+00 1.560509e+00 1.580551e+00 1.526511e+00 1.402904e+00 1.277555e+00 1.224653e+00 1.244735e+00 1.279661e+00 1.269545e+00 1.186279e+00 1.052801e+00 9.193849e-01 8.224638e-01 7.842823e-01 8.171191e-01 9.065887e-01 1.012768e+00 1.097911e+00 1.137897e+00 1.130015e+00 1.113969e+00 1.117816e+00 1.055822e+00 1.157943e+00 1.270234e+00
<GCONST> 3.292545e+02
<MIXTURE> 3 1.475352e-01
<MEAN> 128
 7.430704e+00 8.446033e+00 9.552066e+00 1.051546e+01 1.124932e+01 1.159713e+01 1.180850e+01 1.187726e+01 1.189939e+01 1.193571e+01 1.196238e+01 1.209389e+01 1.221416e+01 1.222707e+01 1.214639e+01 1.205891e+01 1.201579e+01 1.198265e+01 1.199446e+01 1.206499e+01 1.222467e+01 1.242806e+01 1.265034e+01 1.284091e+01 1.293786e+01 1.293975e+01 1.287221e+01 1.286794e+01 1.294434e+01 1.303662e+01 1.310338e+01 1.314444e+01 1.316866e+01 1.316874e+01 1.313785e+01 1.309176e+01 1.302932e+01 1.291265e+01 1.274845e+01 1.255054e+01 1.235590e+01 1.219829e+01 1.206976e+01 1.194227e+01 1.181016e+01 1.168172e+01 1.156096e+01 1.143905e+01 1.131739e+01 1.121590e+01 1.114880e+01 1.109116e+01 1.103967e+01 1.100623e+01 1.099145e+01 1.096804e+01 1.091917e+01 1.086107e+01 1.079420e+01 1.075564e+01 1.074642e+01 1.074448e+01 1.075172e+01 1.080787e+01 1.092538e+01 1.108825e+01 1.132007e+01 1.162828e+01 1.196945e+01 1.229110e+01 1.256156e+01 1.277253e+01 1.291446e+01 1.297657e+01 1.298551e+01 1.296593e+01 1.293673e+01 1.290755e+01 1.286971e+01 1.283225e+01 1.280715e+01 1.283929e+01 1.298049e+01 1.326569e+01 1.368033e+01 1.414631e+01 1.455280e+01 1.482484e+01 1.495488e+01 1.496229e+01 1.488636e+01 1.477284e+01 1.467752e+01 1.464851e+01 1.467445e+01 1.472639e+01 1.481890e+01 1.492701e+01 1.503688e+01 1.514219e+01 1.524856e+01 1.537422e+01 1.552694e+01 1.558470e+01 1.559736e+01 1.555892e+01 1.550161e+01 1.545217e+01 1.538971e+01 1.526949e+01 1.507543e+01 1.476000e+01 1.443025e+01 1.408937e+01 1.373600e+01 1.338859e+01 1.307593e+01 1.280801e+01 1.256450e+01 1.236731e+01 1.218997e+01 1.202033e+01 1.184994e+01 1.164558e+01 1.129997e+01 1.057296e+01 1.078067e+01 1.130307e+01
<VARIANCE> 128
 2.234524e+00 2.843015e+00 3.746506e+00 4.615486e+00 5.301747e+00 5.799938e+00 6.154135e+00 6.421912e+00 6.554003e+00 6.606254e+00 6.675974e+00 6.703428e+00 6.708251e+00 6.720991e+00 6.778767e+00 6.798924e+00 6.706316e+00 6.499793e+00 6.211501e+00 5.963507e+00 5.867300e+00 5.949857e+00 6.088698e+00 6.140074e+00 6.053174e+00 5.819098e+00 5.478941e+00 5.118599e+00 4.839273e+00 4.645813e+00 4.484312e+00 4.298983e+00 4.043559e+00 3.745634e+00 3.444803e+00 3.160611e+00 2.912099e+00 2.713590e+00 2.543699e+00 2.389632e+00 2.267405e+00 2.185946e+00 2.137520e+00 2.103977e+00 2.078151e+00 2.057685e+00 2.038375e+00 2.018812e+00 1.991041e+00 1.964166e+00 1.945563e+00 1.924834e+00 1.899132e+00 1.874848e+00 1.867940e+00 1.882521e+00 1.903317e+00 1.924775e+00 1.968633e+00 2.052100e+00 2.157474e+00 2.259463e+00 2.344669e+00 2.399977e+00 2.398732e+00 2.355693e+00 2.330538e+00 2.317575e+00 2.257961e+00 2.138784e+00 2.000655e+00 1.885440e+00 1.812443e+00 1.792551e+00 1.823051e+00 1.866969e+00 1.886224e+00 1.872884e+00 1.834930e+00 1.782133e+00 1.730477e+00 1.696568e+00 1.681116e+00 1.671132e+00 1.682558e+00 1.746071e+00 1.854137e+00 1.957926e+00 1.997122e+00 1.947581e+00 1.832589e+00 1.702665e+00 1.619502e+00 1.634367e+00 1.751434e+00 1.930435e+00 2.125663e+00 2.322361e+00 2.534014e+00 2.778699e+00 3.072989e+00 3.418028e+00 3.777069e+00 4.095880e+00 4.358020e+00 4.595501e+00 4.845590e+00 5.097301e+00 5.298129e+00 5.404020e+00 5.421020e+00 5.402306e+00 5.394298e+00 5.386525e+00 5.338502e+00 5.242726e+00 5.122869e+00 4.981115e+00 4.788530e+00 4.535357e+00 4.269724e+00 4.075755e+00 3.982965e+00 3.970767e+00 4.011521e+00 4.008273e+00 4.159136e+00 4.315668e+00
<GCONST> 3.821648e+02
<MIXTURE> 4 6.943070e-02
<MEAN> 128
 6.378838e+00 7.175392e+00 8.039784e+00 8.771026e+00 9.300044e+00 9.480178e+00 9.560135e+00 9.542187e+00 9.540203e+00 9.598187e+00 9.676559e+00 9.844681e+00 9.960325e+00 9.923897e+00 9.781178e+00 9.654284e+00 9.611906e+00 9.583382e+00 9.586922e+00 9.603561e+00 9.666922e+00 9.773090e+00 9.912044e+00 1.001914e+01 1.001262e+01 9.861292e+00 9.566275e+00 9.294524e+00 9.153819e+00 9.046394e+00 8.923517e+00 8.830273e+00 8.844755e+00 8.860304e+00 8.824534e+00 8.787971e+00 8.747110e+00 8.622065e+00 8.416410e+00 8.163870e+00 7.932219e+00 7.790750e+00 7.690488e+00 7.583031e+00 7.472072e+00 7.354883e+00 7.229851e+00 7.091913e+00 6.941274e+00 6.809824e+00 6.707180e+00 6.592629e+00 6.481426e+00 6.407286e+00 6.382782e+00 6.377694e+00 6.356884e+00 6.330731e+00 6.295582e+00 6.277533e+00 6.267220e+00 6.253344e+00 6.248508e+00 6.294245e+00 6.374644e+00 6.441425e+00 6.509170e+00 6.588274e+00 6.644856e+00 6.647707e+00 6.610927e+00 6.568823e+00 6.511711e+00 6.416708e+00 6.335187e+00 6.328132e+00 6.417842e+00 6.573527e+00 6.727873e+00 6.844433e+00 6.897147e+00 6.887034e+00 6.834249e+00 6.781723e+00 6.777148e+00 6.839586e+00 6.934275e+00 7.025648e+00 7.106934e+00 7.164698e+00 7.192523e+00 7.196224e+00 7.201166e+00 7.234103e+00 7.278421e+00 7.318128e+00 7.377227e+00 7.431369e+00 7.473365e+00 7.504767e+00 7.530496e+00 7.557869e+00 7.584266e+00 7.501196e+00 7.392354e+00 7.271739e+00 7.159331e+00 7.064018e+00 6.971846e+00 6.862927e+00 6.739116e+00 6.543609e+00 6.357549e+00 6.168995e+00 5.971674e+00 5.770391e+00 5.572032e+00 5.377445e+00 5.182478e+00 5.030729e+00 4.893548e+00 4.742894e+00 4.570532e+00 4.360081e+00 4.020102e+00 3.334377e+00 3.540255e+00 4.039916e+00
<VARIANCE> 128
 2.842352e+00 3.195207e+00 4.335516e+00 5.511299e+00 6.089751e+00 6.027450e+00 5.721004e+00 5.493925e+00 5.363132e+00 5.427354e+00 5.772639e+00 6.170862e+00 6.329688e+00 6.196060e+00 5.859741e+00 5.514690e+00 5.285371e+00 5.206440e+00 5.146538e+00 5.038389e+00 4.995471e+00 4.980366e+00 4.990140e+00 4.941725e+00 4.733249e+00 4.293193e+00 3.699481e+00 3.304352e+00 3.336443e+00 3.301509e+00 2.972970e+00 2.669596e+00 2.655909e+00 2.623483e+00 2.495558e+00 2.434078e+00 2.438174e+00 2.394523e+00 2.265461e+00 2.074121e+00 1.902724e+00 1.796589e+00 1.776401e+00 1.821708e+00 1.921892e+00 2.053766e+00 2.150288e+00 2.184008e+00 2.168381e+00 2.127701e+00 2.084896e+00 2.060361e+00 2.044145e+00 2.037617e+00 2.022368e+00 1.982944e+00 1.904232e+00 1.791384e+00 1.685611e+00 1.606214e+00 1.551059e+00 1.494989e+00 1.450951e+00 1.470157e+00 1.553867e+00 1.662560e+00 1.791133e+00 1.900446e+00 1.910663e+00 1.796486e+00 1.620757e+00 1.457098e+00 1.332819e+00 1.209863e+00 1.076002e+00 9.681964e-01 9.265541e-01 9.608837e-01 1.022798e+00 1.058490e+00 1.049366e+00 9.966887e-01 9.165102e-01 8.393126e-01 8.038330e-01 8.294353e-01 8.874659e-01 9.374437e-01 9.653296e-01 9.800981e-01 9.806185e-01 9.678093e-01 9.696462e-01 1.006051e+00 1.059671e+00 1.103439e+00 1.127955e+00 1.136339e+00 1.136191e+00 1.125411e+00 1.100963e+00 1.078103e+00 1.073956e+00 1.086113e+00 1.100645e+00 1.117175e+00 1.151455e+00 1.212297e+00 1.285442e+00 1.335095e+00 1.336718e+00 1.304727e+00 1.266800e+00 1.229898e+00 1.194668e+00 1.165913e+00 1.145965e+00 1.136763e+00 1.137976e+00 1.148038e+00 1.175200e+00 1.219509e+00 1.261004e+00 1.285438e+00 1.291106e+00 1.304026e+00 1.381165e+00 1.408863e+00
<GCONST> 3.165048e+02
<MIXTURE> 5 1.217958e-01
<MEAN> 128
 7.103522e+00 8.031745e+00 9.087139e+00 1.004815e+01 1.080870e+01 1.118878e+01 1.140677e+01 1.143680e+01 1.138381e+01 1.132032e+01 1.124415e+01 1.131125e+01 1.142730e+01 1.145883e+01 1.139047e+01 1.128752e+01 1.120177e+01 1.111786e+01 1.110764e+01 1.118409e+01 1.133579e+01 1.149925e+01 1.164549e+01 1.174496e+01 1.175835e+01 1.169110e+01 1.155741e+01 1.147515e+01 1.147174e+01 1.149405e+01 1.150633e+01 1.151161e+01 1.151942e+01 1.150591e+01 1.145367e+01 1.138322e+01 1.129233e+01 1.114536e+01 1.094829e+01 1.071245e+01 1.047959e+01 1.028897e+01 1.013344e+01 9.985148e+00 9.838752e+00 9.697625e+00 9.561536e+00 9.426020e+00 9.291595e+00 9.180480e+00 9.105786e+00 9.042885e+00 8.993414e+00 8.972140e+00 8.978943e+00 8.983224e+00 8.963888e+00 8.932261e+00 8.883657e+00 8.855686e+00 8.852161e+00 8.861066e+00 8.893219e+00 8.984268e+00 9.134861e+00 9.317349e+00 9.548586e+00 9.832889e+00 1.012526e+01 1.037428e+01 1.055812e+01 1.068159e+01 1.074375e+01 1.074120e+01 1.071210e+01 1.069213e+01 1.070542e+01 1.075821e+01 1.082711e+01 1.090081e+01 1.096948e+01 1.105466e+01 1.118549e+01 1.138990e+01 1.167696e+01 1.200965e+01 1.230410e+01 1.250029e+01 1.260373e+01 1.264047e+01 1.264118e+01 1.263068e+01 1.263898e+01 1.269343e+01 1.277094e+01 1.284292e+01 1.293318e+01 1.302613e+01 1.311326e+01 1.319002e+01 1.326487e+01 1.335789e+01 1.347703e+01 1.350061e+01 1.347717e+01 1.339593e+01 1.328357e+01 1.316917e+01 1.304740e+01 1.289056e+01 1.268252e+01 1.235660e+01 1.200584e+01 1.163824e+01 1.126330e+01 1.090140e+01 1.057796e+01 1.030638e+01 1.007507e+01 9.904647e+00 9.754647e+00 9.599778e+00 9.432896e+00 9.233740e+00 8.896684e+00 8.173407e+00 8.396599e+00 8.917442e+00
<VARIANCE> 128
 2.376497e+00 3.273154e+00 4.660656e+00 6.049731e+00 7.147270e+00 7.873044e+00 8.218613e+00 8.285163e+00 8.128541e+00 7.832269e+00 7.567500e+00 7.516573e+00 7.737437e+00 8.169078e+00 8.627630e+00 8.889977e+00 8.825633e+00 8.566363e+00 8.364844e+00 8.374978e+00 8.512886e+00 8.560106e+00 8.407642e+00 8.074951e+00 7.679679e+00 7.295425e+00 6.977216e+00 6.720370e+00 6.420370e+00 6.024018e+00 5.569203e+00 5.108990e+00 4.648296e+00 4.199003e+00 3.761994e+00 3.356671e+00 3.023988e+00 2.753308e+00 2.515069e+00 2.295458e+00 2.093050e+00 1.939699e+00 1.841004e+00 1.766799e+00 1.707358e+00 1.655002e+00 1.601658e+00 1.539654e+00 1.470502e+00 1.413373e+00 1.388169e+00 1.382931e+00 1.376098e+00 1.371344e+00 1.381265e+00 1.409628e+00 1.436180e+00 1.462716e+00 1.520084e+00 1.621370e+00 1.747352e+00 1.872809e+00 1.994996e+00 2.112776e+00 2.191185e+00 2.242647e+00 2.322977e+00 2.418917e+00 2.465442e+00 2.439587e+00 2.368034e+00 2.275136e+00 2.156883e+00 2.011039e+00 1.870099e+00 1.764412e+00 1.704893e+00 1.684082e+00 1.673086e+00 1.652178e+00 1.620423e+00 1.581692e+00 1.542296e+00 1.524040e+00 1.565124e+00 1.661304e+00 1.765127e+00 1.828136e+00 1.818057e+00 1.743312e+00 1.647090e+00 1.577757e+00 1.576940e+00 1.658844e+00 1.809435e+00 2.007595e+00 2.237493e+00 2.506951e+00 2.837749e+00 3.242089e+00 3.721407e+00 4.261089e+00 4.816055e+00 5.338970e+00 5.812877e+00 6.252213e+00 6.677015e+00 7.067975e+00 7.346632e+00 7.424994e+00 7.303836e+00 7.105817e+00 6.947053e+00 6.842200e+00 6.740987e+00 6.622110e+00 6.488559e+00 6.313282e+00 6.047412e+00 5.707720e+00 5.396408e+00 5.193151e+00 5.078728e+00 5.000036e+00 4.959185e+00 4.935780e+00 4.992847e+00 5.099864e+00
<GCONST> 3.914637e+02
<MIXTURE> 6 2.298257e-01
<MEAN> 128
 7.649690e+00 9.080853e+00 1.065848e+01 1.218654e+01 1.363600e+01 1.479767e+01 1.574677e+01 1.632822e+01 1.659136e+01 1.659076e+01 1.632951e+01 1.606295e+01 1.594875e+01 1.605147e+01 1.636464e+01 1.679670e+01 1.719340e+01 1.740726e+01 1.747081e+01 1.744726e+01 1.741573e+01 1.741013e+01 1.748426e+01 1.763374e+01 1.778539e+01 1.785765e+01 1.777804e+01 1.760823e+01 1.740422e+01 1.723062e+01 1.713234e+01 1.708405e+01 1.702759e+01 1.692901e+01 1.677912e+01 1.658928e+01 1.636976e+01 1.609556e+01 1.576484e+01 1.537672e+01 1.496219e+01 1.457224e+01 1.423681e+01 1.394102e+01 1.366115e+01 1.338068e+01 1.308845e+01 1.277876e+01 1.246420e+01 1.217614e+01 1.194144e+01 1.174814e+01 1.159025e+01 1.147659e+01 1.140755e+01 1.134747e+01 1.126872e+01 1.117500e+01 1.105491e+01 1.094225e+01 1.084045e+01 1.073703e+01 1.064901e+01 1.062594e+01 1.067011e+01 1.073916e+01 1.083949e+01 1.098756e+01 1.116853e+01 1.135658e+01 1.153633e+01 1.169813e+01 1.182264e+01 1.189777e+01 1.195495e+01 1.202013e+01 1.211147e+01 1.223210e+01 1.235463e+01 1.245956e+01 1.252184e+01 1.254737e+01 1.256146e+01 1.260515e+01 1.271772e+01 1.289510e+01 1.307235e+01 1.319366e+01 1.325404e+01 1.325591e+01 1.320343e+01 1.310393e+01 1.298703e+01 1.288950e+01 1.280121e+01 1.270561e+01 1.263799e+01 1.259517e+01 1.256538e+01 1.251355e+01 1.240973e+01 1.224936e+01 1.205102e+01 1.173982e+01 1.140613e+01 1.104724e+01 1.069209e+01 1.040237e+01 1.022123e+01 1.013065e+01 1.004947e+01 9.802985e+00 9.420943e+00 8.936251e+00 8.424084e+00 7.950738e+00 7.567775e+00 7.332586e+00 7.275621e+00 7.396167e+00 7.561844e+00 7.659127e+00 7.672113e+00 7.627717e+00 7.421796e+00 6.719161e+00 7.073857e+00 7.661938e+00
<VARIANCE> 128
 1.032355e+00 1.184989e+00 1.512143e+00 1.863576e+00 2.160713e+00 2.332920e+00 2.328813e+00 2.231923e+00 2.201862e+00 2.307642e+00 2.420499e+00 2.282251e+00 1.824507e+00 1.360662e+00 1.209904e+00 1.425772e+00 1.899977e+00 2.414091e+00 2.691483e+00 2.562196e+00 2.146700e+00 1.774103e+00 1.641504e+00 1.745103e+00 1.987117e+00 2.264594e+00 2.442249e+00 2.426168e+00 2.296360e+00 2.165971e+00 2.076862e+00 2.021055e+00 1.977205e+00 1.917380e+00 1.856385e+00 1.848415e+00 1.919582e+00 2.052507e+00 2.197269e+00 2.324470e+00 2.465318e+00 2.669926e+00 2.931530e+00 3.187323e+00 3.386159e+00 3.517034e+00 3.578822e+00 3.587683e+00 3.578955e+00 3.591597e+00 3.645158e+00 3.722893e+00 3.788935e+00 3.807736e+00 3.780255e+00 3.736487e+00 3.680016e+00 3.619994e+00 3.586048e+00 3.586703e+00 3.602742e+00 3.606968e+00 3.586728e+00 3.544369e+00 3.479655e+00 3.414393e+00 3.400483e+00 3.457005e+00 3.534429e+00 3.565988e+00 3.521586e+00 3.402280e+00 3.207390e+00 2.950671e+00 2.681825e+00 2.450055e+00 2.288853e+00 2.205886e+00 2.172561e+00 2.156086e+00 2.138268e+00 2.108342e+00 2.046422e+00 1.923412e+00 1.782637e+00 1.735470e+00 1.809334e+00 1.918830e+00 1.970079e+00 1.940815e+00 1.857856e+00 1.741756e+00 1.609464e+00 1.486828e+00 1.390127e+00 1.314624e+00 1.247378e+00 1.191468e+00 1.166169e+00 1.176911e+00 1.224974e+00 1.316676e+00 1.450162e+00 1.601182e+00 1.707353e+00 1.699607e+00 1.560040e+00 1.377634e+00 1.305808e+00 1.372634e+00 1.469324e+00 1.517880e+00 1.504327e+00 1.438486e+00 1.357964e+00 1.307559e+00 1.307101e+00 1.370819e+00 1.483652e+00 1.565852e+00 1.564332e+00 1.507830e+00 1.444769e+00 1.410270e+00 1.407182e+00 1.385476e+00 1.441704e+00 1.532995e+00
<GCONST> 3.296958e+02
<MIXTURE> 7 9.152907e-02
<MEAN> 128
 7.618977e+00 8.884599e+00 1.012601e+01 1.117418e+01 1.197705e+01 1.235686e+01 1.252232e+01 1.247108e+01 1.235087e+01 1.226549e+01 1.226498e+01 1.249706e+01 1.275092e+01 1.282167e+01 1.269824e+01 1.249714e+01 1.232175e+01 1.220071e+01 1.222806e+01 1.236145e+01 1.252215e+01 1.264315e+01 1.272075e+01 1.274170e+01 1.267650e+01 1.251573e+01 1.224242e+01 1.195657e+01 1.171656e+01 1.152785e+01 1.140269e+01 1.135317e+01 1.134958e+01 1.132095e+01 1.124401e+01 1.114274e+01 1.102160e+01 1.082748e+01 1.056544e+01 1.026677e+01 1.000036e+01 9.833385e+00 9.727735e+00 9.621863e+00 9.504936e+00 9.382434e+00 9.251307e+00 9.102180e+00 8.933686e+00 8.782510e+00 8.660197e+00 8.525098e+00 8.383298e+00 8.277011e+00 8.239195e+00 8.242325e+00 8.230932e+00 8.196876e+00 8.136607e+00 8.091169e+00 8.063018e+00 8.055716e+00 8.102921e+00 8.238262e+00 8.419652e+00 8.573036e+00 8.691838e+00 8.788862e+00 8.841320e+00 8.819949e+00 8.740140e+00 8.638038e+00 8.508115e+00 8.332090e+00 8.168113e+00 8.097621e+00 8.173273e+00 8.371077e+00 8.595734e+00 8.776514e+00 8.864569e+00 8.855271e+00 8.780119e+00 8.712244e+00 8.736466e+00 8.869421e+00 9.027919e+00 9.136922e+00 9.182079e+00 9.158149e+00 9.069071e+00 8.928444e+00 8.773200e+00 8.652750e+00 8.577363e+00 8.539272e+00 8.548223e+00 8.563235e+00 8.575363e+00 8.594293e+00 8.624439e+00 8.659796e+00 8.684921e+00 8.583574e+00 8.430165e+00 8.233645e+00 8.026015e+00 7.838180e+00 7.671635e+00 7.514138e+00 7.358513e+00 7.120987e+00 6.866055e+00 6.588132e+00 6.301214e+00 6.033391e+00 5.806124e+00 5.622499e+00 5.469325e+00 5.377448e+00 5.302263e+00 5.200325e+00 5.066776e+00 4.907540e+00 4.626323e+00 3.958259e+00 4.214032e+00 4.737832e+00
<VARIANCE> 128
 2.924630e+00 4.743910e+00 6.792888e+00 8.413096e+00 9.325477e+00 9.445582e+00 8.871264e+00 8.025634e+00 7.228367e+00 6.623914e+00 6.382920e+00 6.576632e+00 7.019863e+00 7.466162e+00 7.773007e+00 7.845832e+00 7.692000e+00 7.483654e+00 7.417680e+00 7.562341e+00 7.786891e+00 7.820007e+00 7.603232e+00 7.236170e+00 6.788154e+00 6.327858e+00 5.905255e+00 5.590803e+00 5.425650e+00 5.299336e+00 5.056213e+00 4.775619e+00 4.505556e+00 4.204708e+00 3.872103e+00 3.620713e+00 3.476688e+00 3.367687e+00 3.208217e+00 2.965592e+00 2.684592e+00 2.409246e+00 2.221735e+00 2.117085e+00 2.091655e+00 2.127697e+00 2.193539e+00 2.272169e+00 2.371638e+00 2.500266e+00 2.669479e+00 2.882007e+00 3.100833e+00 3.285205e+00 3.376303e+00 3.334296e+00 3.183409e+00 2.959831e+00 2.707674e+00 2.462276e+00 2.242749e+00 2.024401e+00 1.826939e+00 1.745380e+00 1.809950e+00 1.988888e+00 2.229986e+00 2.411204e+00 2.427551e+00 2.276563e+00 2.019867e+00 1.751811e+00 1.540393e+00 1.360435e+00 1.196701e+00 1.077094e+00 1.030310e+00 1.066604e+00 1.149025e+00 1.239701e+00 1.302975e+00 1.325637e+00 1.343268e+00 1.415468e+00 1.603382e+00 1.885951e+00 2.161120e+00 2.321566e+00 2.314972e+00 2.182387e+00 2.014879e+00 1.875994e+00 1.802161e+00 1.811298e+00 1.879878e+00 1.950300e+00 1.985396e+00 1.995404e+00 1.989227e+00 1.946557e+00 1.867669e+00 1.791341e+00 1.755856e+00 1.756129e+00 1.759954e+00 1.747783e+00 1.741063e+00 1.778804e+00 1.856696e+00 1.912306e+00 1.895248e+00 1.831656e+00 1.763384e+00 1.703632e+00 1.655988e+00 1.625198e+00 1.615290e+00 1.623496e+00 1.641218e+00 1.658399e+00 1.682145e+00 1.714160e+00 1.733816e+00 1.737207e+00 1.730985e+00 1.649374e+00 1.776492e+00 1.881022e+00
<GCONST> 3.635457e+02
<MIXTURE> 8 6.665409e-02
<MEAN> 128
 5.862173e+00 6.407462e+00 7.007590e+00 7.566919e+00 8.023466e+00 8.213847e+00 8.363569e+00 8.405410e+00 8.386898e+00 8.392932e+00 8.400139e+00 8.498435e+00 8.571556e+00 8.503037e+00 8.340687e+00 8.202404e+00 8.148766e+00 8.109751e+00 8.070127e+00 8.033988e+00 8.053315e+00 8.100690e+00 8.169949e+00 8.221111e+00 8.173965e+00 7.982262e+00 7.654593e+00 7.343312e+00 7.143130e+00 6.985542e+00 6.832792e+00 6.705497e+00 6.618683e+00 6.541934e+00 6.462346e+00 6.401283e+00 6.350299e+00 6.252047e+00 6.102013e+00 5.923875e+00 5.736040e+00 5.589138e+00 5.458257e+00 5.332173e+00 5.211717e+00 5.093468e+00 4.984625e+00 4.887979e+00 4.799984e+00 4.721808e+00 4.649940e+00 4.569682e+00 4.492350e+00 4.444460e+00 4.426118e+00 4.413502e+00 4.391272e+00 4.373677e+00 4.346878e+00 4.324982e+00 4.310026e+00 4.300621e+00 4.296962e+00 4.312674e+00 4.337624e+00 4.343825e+00 4.349062e+00 4.372734e+00 4.406651e+00 4.436512e+00 4.466047e+00 4.508567e+00 4.550268e+00 4.567295e+00 4.582107e+00 4.619464e+00 4.688467e+00 4.779869e+00 4.874925e+00 4.974315e+00 5.058825e+00 5.124052e+00 5.177444e+00 5.234982e+00 5.308418e+00 5.401495e+00 5.496881e+00 5.579369e+00 5.657944e+00 5.730543e+00 5.799234e+00 5.868823e+00 5.945942e+00 6.035870e+00 6.108129e+00 6.141623e+00 6.175780e+00 6.208712e+00 6.241689e+00 6.273557e+00 6.303941e+00 6.335481e+00 6.367001e+00 6.299494e+00 6.222427e+00 6.141813e+00 6.063532e+00 5.989122e+00 5.914943e+00 5.834565e+00 5.744453e+00 5.571270e+00 5.394829e+00 5.216356e+00 5.036338e+00 4.854257e+00 4.670413e+00 4.485689e+00 4.298756e+00 4.153000e+00 4.018265e+00 3.867278e+00 3.694653e+00 3.488009e+00 3.156754e+00 2.480443e+00 2.680765e+00 3.180677e+00
<VARIANCE> 128
 4.451556e+00 4.071769e+00 4.280842e+00 4.722326e+00 4.886971e+00 4.648552e+00 4.408479e+00 4.302176e+00 4.103182e+00 3.903206e+00 4.045938e+00 4.501291e+00 4.613290e+00 4.216507e+00 3.561176e+00 3.019954e+00 2.801169e+00 2.729490e+00 2.618823e+00 2.412658e+00 2.321711e+00 2.293189e+00 2.288595e+00 2.323114e+00 2.303171e+00 2.078663e+00 1.755765e+00 1.618629e+00 1.742468e+00 1.777156e+00 1.640077e+00 1.549788e+00 1.622128e+00 1.713468e+00 1.754705e+00 1.779848e+00 1.799581e+00 1.772230e+00 1.694280e+00 1.595502e+00 1.479171e+00 1.391175e+00 1.318323e+00 1.258558e+00 1.218714e+00 1.201307e+00 1.183025e+00 1.142293e+00 1.079073e+00 1.019132e+00 9.738432e-01 9.487880e-01 9.452850e-01 9.555401e-01 9.712409e-01 9.842020e-01 9.776654e-01 9.540597e-01 9.287789e-01 9.190268e-01 9.147950e-01 8.899973e-01 8.476556e-01 8.252331e-01 8.225404e-01 8.162870e-01 8.168932e-01 8.405085e-01 8.651337e-01 8.647975e-01 8.428003e-01 8.138358e-01 7.713727e-01 7.039381e-01 6.356340e-01 5.918640e-01 5.771329e-01 5.857094e-01 5.972553e-01 5.971377e-01 5.832793e-01 5.487899e-01 4.990330e-01 4.514271e-01 4.225763e-01 4.188448e-01 4.246851e-01 4.233929e-01 4.130562e-01 3.977917e-01 3.786966e-01 3.577123e-01 3.405714e-01 3.309749e-01 3.295963e-01 3.369102e-01 3.498161e-01 3.629492e-01 3.732151e-01 3.775327e-01 3.734260e-01 3.633226e-01 3.515470e-01 3.401872e-01 3.287158e-01 3.183827e-01 3.142500e-01 3.188926e-01 3.276492e-01 3.325129e-01 3.285024e-01 3.198904e-01 3.122695e-01 3.063135e-01 3.023173e-01 3.009646e-01 3.021547e-01 3.068453e-01 3.173997e-01 3.346659e-01 3.581591e-01 3.839073e-01 4.049062e-01 4.189723e-01 4.346202e-01 4.616514e-01 4.837339e-01 4.957772e-01
<GCONST> 2.226979e+02
<TRANSP> 3
 0.000000e+00 1.000000e+00 0.000000e+00
 0.000000e+00 9.933594e-01 6.640634e-03
 0.000000e+00 0.000000e+00 0.000000e+00
<ENDHMM>
~h "spkr2"
<BEGINHMM>
<NUMSTATES> 3
<STATE> 2
<NUMMIXES> 8
<MIXTURE> 1 1.364944e-01
<MEAN> 128
 7.149760e+00 8.740105e+00 1.041260e+01 1.202534e+01 1.357088e+01 1.482951e+01 1.586187e+01 1.650866e+01 1.681604e+01 1.684353e+01 1.660954e+01 1.638450e+01 1.632844e+01 1.649082e+01 1.683960e+01 1.729573e+01 1.773870e+01 1.802037e+01 1.813059e+01 1.807803e+01 1.791977e+01 1.771364e+01 1.755881e+01 1.750319e+01 1.753457e+01 1.761500e+01 1.767056e+01 1.774008e+01 1.785112e+01 1.800188e+01 1.815231e+01 1.825549e+01 1.830976e+01 1.835877e+01 1.842564e+01 1.850253e+01 1.857042e+01 1.859063e+01 1.856371e+01 1.849104e+01 1.838001e+01 1.822114e+01 1.799354e+01 1.768107e+01 1.728794e+01 1.683686e+01 1.636561e+01 1.591623e+01 1.553599e+01 1.526867e+01 1.511767e+01 1.501405e+01 1.489775e+01 1.475359e+01 1.460274e+01 1.446445e+01 1.435633e+01 1.428993e+01 1.423974e+01 1.421507e+01 1.419097e+01 1.413465e+01 1.405566e+01 1.401682e+01 1.406303e+01 1.417271e+01 1.432310e+01 1.449146e+01 1.464698e+01 1.477397e+01 1.488724e+01 1.500826e+01 1.512114e+01 1.519268e+01 1.522556e+01 1.522414e+01 1.519753e+01 1.517260e+01 1.519272e+01 1.532062e+01 1.556441e+01 1.588363e+01 1.621772e+01 1.651598e+01 1.673401e+01 1.683358e+01 1.678205e+01 1.658526e+01 1.629994e+01 1.597883e+01 1.567724e+01 1.544430e+01 1.529972e+01 1.522493e+01 1.516787e+01 1.509129e+01 1.499803e+01 1.484138e+01 1.460162e+01 1.429446e+01 1.395473e+01 1.361202e+01 1.328398e+01 1.289613e+01 1.256318e+01 1.230679e+01 1.215149e+01 1.212082e+01 1.219449e+01 1.228832e+01 1.229905e+01 1.208725e+01 1.173041e+01 1.127619e+01 1.077414e+01 1.025409e+01 9.747015e+00 9.299892e+00 8.962540e+00 8.822686e+00 8.854891e+00 8.963778e+00 9.036243e+00 8.976063e+00 8.678947e+00 7.988618e+00 8.152716e+00 8.606229e+00
<VARIANCE> 128
 1.063117e+00 1.113901e+00 1.239961e+00 1.312872e+00 1.238320e+00 9.932430e-01 7.046711e-01 6.085869e-01 8.702673e-01 1.391261e+00 1.814004e+00 1.799371e+00 1.383450e+00 9.545432e-01 8.156743e-01 9.194613e-01 1.056483e+00 1.133472e+00 1.225711e+00 1.407618e+00 1.589994e+00 1.635521e+00 1.546799e+00 1.426963e+00 1.350243e+00 1.345842e+00 1.436349e+00 1.598141e+00 1.736557e+00 1.780850e+00 1.766982e+00 1.763416e+00 1.747508e+00 1.619977e+00 1.411733e+00 1.283650e+00 1.350177e+00 1.641740e+00 2.131336e+00 2.739949e+00 3.357600e+00 3.913007e+00 4.364786e+00 4.697948e+00 4.946495e+00 5.134249e+00 5.213990e+00 5.097319e+00 4.756565e+00 4.333758e+00 4.011572e+00 3.832901e+00 3.765312e+00 3.803668e+00 3.954732e+00 4.209898e+00 4.534919e+00 4.881032e+00 5.213576e+00 5.512918e+00 5.751633e+00 5.922076e+00 6.056260e+00 6.179581e+00 6.224438e+00 6.104249e+00 5.858593e+00 5.582404e+00 5.302364e+00 4.983247e+00 4.608467e+00 4.200581e+00 3.779848e+00 3.342754e+00 2.913992e+00 2.549987e+00 2.281932e+00 2.119174e+00 2.044506e+00 2.009983e+00 1.965184e+00 1.859355e+00 1.666735e+00 1.423093e+00 1.219448e+00 1.137252e+00 1.165484e+00 1.225042e+00 1.241809e+00 1.189698e+00 1.103524e+00 1.055147e+00 1.081184e+00 1.139150e+00 1.177358e+00 1.204160e+00 1.285815e+00 1.471756e+00 1.721500e+00 1.945074e+00 2.092551e+00 2.177079e+00 2.214288e+00 2.180981e+00 2.064048e+00 1.920858e+00 1.881025e+00 2.041446e+00 2.346817e+00 2.627972e+00 2.749868e+00 2.684339e+00 2.487807e+00 2.265507e+00 2.096954e+00 1.967468e+00 1.826743e+00 1.683965e+00 1.616283e+00 1.694584e+00 1.873313e+00 1.985331e+00 1.918345e+00 1.735049e+00 1.576758e+00 1.421667e+00 1.480456e+00 1.697479e+00
<GCONST> 3.297794e+02
<MIXTURE> 2 1.314543e-01
<MEAN> 128
 6.440801e+00 7.413965e+00 8.444201e+00 9.321611e+00 9.956904e+00 1.022929e+01 1.043222e+01 1.048445e+01 1.046052e+01 1.046880e+01 1.047280e+01 1.056498e+01 1.064246e+01 1.062652e+01 1.056558e+01 1.058332e+01 1.068484e+01 1.077013e+01 1.084648e+01 1.092632e+01 1.104475e+01 1.119724e+01 1.140262e+01 1.162205e+01 1.179172e+01 1.189570e+01 1.194095e+01 1.202867e+01 1.213688e+01 1.219860e+01 1.219586e+01 1.216148e+01 1.214473e+01 1.213226e+01 1.210043e+01 1.205988e+01 1.200890e+01 1.192476e+01 1.182078e+01 1.169953e+01 1.157264e+01 1.144683e+01 1.129863e+01 1.110713e+01 1.088840e+01 1.066870e+01 1.046661e+01 1.028798e+01 1.015754e+01 1.011773e+01 1.015406e+01 1.017702e+01 1.014237e+01 1.006619e+01 9.985650e+00 9.920998e+00 9.886709e+00 9.891629e+00 9.907061e+00 9.943393e+00 9.984800e+00 1.001281e+01 1.004032e+01 1.011381e+01 1.025400e+01 1.043134e+01 1.063848e+01 1.088181e+01 1.115011e+01 1.141993e+01 1.168314e+01 1.194711e+01 1.219399e+01 1.238079e+01 1.249897e+01 1.254801e+01 1.253100e+01 1.246766e+01 1.239030e+01 1.234265e+01 1.233653e+01 1.237510e+01 1.245801e+01 1.260602e+01 1.283202e+01 1.310284e+01 1.333981e+01 1.349519e+01 1.359001e+01 1.366040e+01 1.375645e+01 1.391725e+01 1.414276e+01 1.440445e+01 1.465630e+01 1.487625e+01 1.509288e+01 1.527842e+01 1.540637e+01 1.547060e+01 1.549826e+01 1.554206e+01 1.565304e+01 1.575239e+01 1.589534e+01 1.602800e+01 1.611814e+01 1.616715e+01 1.619780e+01 1.621981e+01 1.620407e+01 1.603600e+01 1.578838e+01 1.549026e+01 1.515823e+01 1.479077e+01 1.441419e+01 1.406991e+01 1.376299e+01 1.353035e+01 1.334394e+01 1.316693e+01 1.296788e+01 1.270020e+01 1.226806e+01 1.155172e+01 1.156996e+01 1.193345e+01
<VARIANCE> 128
 2.676811e+00 3.432998e+00 4.497253e+00 5.463834e+00 6.201684e+00 6.705286e+00 7.016624e+00 7.221021e+00 7.246637e+00 7.085626e+00 6.904124e+00 6.752113e+00 6.688194e+00 6.707743e+00 6.827845e+00 7.024421e+00 7.176454e+00 7.140287e+00 6.948936e+00 6.684586e+00 6.414971e+00 6.179501e+00 5.929187e+00 5.646217e+00 5.325695e+00 4.973192e+00 4.621062e+00 4.311368e+00 4.053366e+00 3.809224e+00 3.565324e+00 3.353867e+00 3.157779e+00 2.985280e+00 2.847023e+00 2.716581e+00 2.594901e+00 2.487394e+00 2.400861e+00 2.340665e+00 2.302914e+00 2.282393e+00 2.278435e+00 2.276867e+00 2.272839e+00 2.265174e+00 2.256302e+00 2.250830e+00 2.242430e+00 2.237540e+00 2.257518e+00 2.283871e+00 2.295362e+00 2.304344e+00 2.329384e+00 2.374623e+00 2.445510e+00 2.552569e+00 2.709995e+00 2.908820e+00 3.104984e+00 3.258541e+00 3.374658e+00 3.464776e+00 3.497977e+00 3.453058e+00 3.356967e+00 3.222898e+00 3.020564e+00 2.741896e+00 2.435451e+00 2.180364e+00 2.022344e+00 1.966032e+00 1.997702e+00 2.077155e+00 2.160496e+00 2.225949e+00 2.268605e+00 2.307537e+00 2.376340e+00 2.464022e+00 2.528908e+00 2.563880e+00 2.596041e+00 2.643415e+00 2.697560e+00 2.740352e+00 2.752821e+00 2.740685e+00 2.753883e+00 2.846954e+00 3.017970e+00 3.224000e+00 3.446814e+00 3.694460e+00 3.969060e+00 4.273465e+00 4.623109e+00 5.050440e+00 5.612029e+00 6.362254e+00 7.252187e+00 8.113110e+00 8.807774e+00 9.318767e+00 9.673454e+00 9.886004e+00 9.982441e+00 1.003486e+01 1.011755e+01 1.024653e+01 1.040774e+01 1.058686e+01 1.074667e+01 1.082000e+01 1.074873e+01 1.053768e+01 1.024489e+01 9.925184e+00 9.599401e+00 9.260229e+00 8.899547e+00 8.529539e+00 8.223837e+00 8.206169e+00 7.856197e+00 7.583105e+00
<GCONST> 4.188982e+02
<MIXTURE> 3 1.619239e-01
<MEAN> 128
 7.491781e+00 9.121422e+00 1.075161e+01 1.222691e+01 1.352524e+01 1.444475e+01 1.509868e+01 1.539998e+01 1.548446e+01 1.551684e+01 1.553733e+01 1.568898e+01 1.596347e+01 1.627544e+01 1.655219e+01 1.676307e+01 1.688362e+01 1.688288e+01 1.684549e+01 1.680561e+01 1.677262e+01 1.673144e+01 1.673032e+01 1.679588e+01 1.690539e+01 1.701088e+01 1.703338e+01 1.701053e+01 1.697669e+01 1.694738e+01 1.690881e+01 1.683163e+01 1.671729e+01 1.659506e+01 1.646855e+01 1.632321e+01 1.614502e+01 1.591131e+01 1.563977e+01 1.534193e+01 1.503317e+01 1.471568e+01 1.437559e+01 1.399711e+01 1.358740e+01 1.317577e+01 1.279886e+01 1.248861e+01 1.228032e+01 1.220525e+01 1.223138e+01 1.224642e+01 1.218349e+01 1.205073e+01 1.189147e+01 1.173549e+01 1.159916e+01 1.149259e+01 1.139201e+01 1.131416e+01 1.124135e+01 1.113958e+01 1.100727e+01 1.089688e+01 1.086022e+01 1.089112e+01 1.097062e+01 1.107044e+01 1.115481e+01 1.120554e+01 1.124642e+01 1.131960e+01 1.142411e+01 1.153104e+01 1.164092e+01 1.174796e+01 1.184367e+01 1.193753e+01 1.205258e+01 1.222537e+01 1.245411e+01 1.271415e+01 1.296690e+01 1.318439e+01 1.334383e+01 1.342359e+01 1.339501e+01 1.325367e+01 1.303777e+01 1.278130e+01 1.252628e+01 1.231707e+01 1.218055e+01 1.211457e+01 1.208369e+01 1.206329e+01 1.206116e+01 1.202355e+01 1.191256e+01 1.172479e+01 1.148206e+01 1.121528e+01 1.096293e+01 1.067141e+01 1.045310e+01 1.030712e+01 1.023470e+01 1.024274e+01 1.031401e+01 1.040089e+01 1.044046e+01 1.030760e+01 1.007156e+01 9.760961e+00 9.402460e+00 9.007677e+00 8.598163e+00 8.207312e+00 7.862040e+00 7.635689e+00 7.512923e+00 7.440213e+00 7.358880e+00 7.214829e+00 6.905764e+00 6.210074e+00 6.419586e+00 6.913385e+00
<VARIANCE> 128
 1.430631e+00 1.693067e+00 1.871763e+00 1.835750e+00 1.592669e+00 1.313366e+00 1.247083e+00 1.529672e+00 1.994935e+00 2.180277e+00 1.946429e+00 1.607301e+00 1.322711e+00 1.148429e+00 1.171708e+00 1.463593e+00 1.966563e+00 2.427306e+00 2.603447e+00 2.487696e+00 2.260767e+00 2.102611e+00 2.059242e+00 2.037949e+00 1.929505e+00 1.752063e+00 1.632933e+00 1.645518e+00 1.743610e+00 1.837412e+00 1.885420e+00 1.900833e+00 1.871630e+00 1.778150e+00 1.694233e+00 1.678618e+00 1.717541e+00 1.804584e+00 1.945573e+00 2.129025e+00 2.334987e+00 2.545189e+00 2.730013e+00 2.882546e+00 3.043033e+00 3.240689e+00 3.473457e+00 3.731918e+00 3.984762e+00 4.177193e+00 4.294911e+00 4.370216e+00 4.432794e+00 4.469821e+00 4.442626e+00 4.350371e+00 4.261160e+00 4.236239e+00 4.284863e+00 4.371254e+00 4.469363e+00 4.583525e+00 4.738795e+00 4.916894e+00 5.013957e+00 4.925387e+00 4.656460e+00 4.306195e+00 3.955190e+00 3.612666e+00 3.276467e+00 3.005254e+00 2.849917e+00 2.782999e+00 2.786518e+00 2.859848e+00 2.998498e+00 3.191575e+00 3.400378e+00 3.597116e+00 3.771009e+00 3.860309e+00 3.790383e+00 3.569055e+00 3.301724e+00 3.107623e+00 3.016149e+00 2.994119e+00 2.989267e+00 2.951187e+00 2.871819e+00 2.799831e+00 2.784853e+00 2.839020e+00 2.969551e+00 3.179241e+00 3.426558e+00 3.631978e+00 3.736860e+00 3.728920e+00 3.651912e+00 3.578244e+00 3.545673e+00 3.556311e+00 3.602755e+00 3.672583e+00 3.774038e+00 3.949301e+00 4.198574e+00 4.413179e+00 4.452086e+00 4.273173e+00 3.945044e+00 3.585819e+00 3.288816e+00 3.076720e+00 2.940543e+00 2.870965e+00 2.831613e+00 2.780584e+00 2.699176e+00 2.579504e+00 2.423141e+00 2.252730e+00 2.115455e+00 1.992172e+00 2.015359e+00 2.185160e+00
<GCONST> 3.661464e+02
<MIXTURE> 4 9.670667e-02
<MEAN> 128
 6.320655e+00 7.550117e+00 8.779698e+00 9.777761e+00 1.045107e+01 1.066108e+01 1.069356e+01 1.056603e+01 1.043259e+01 1.042787e+01 1.055161e+01 1.081674e+01 1.103910e+01 1.109387e+01 1.103059e+01 1.098612e+01 1.102353e+01 1.108441e+01 1.116015e+01 1.120047e+01 1.120045e+01 1.116752e+01 1.118064e+01 1.123920e+01 1.127088e+01 1.121138e+01 1.102641e+01 1.083752e+01 1.067123e+01 1.045856e+01 1.015670e+01 9.812558e+00 9.546449e+00 9.398027e+00 9.330229e+00 9.325232e+00 9.347463e+00 9.340342e+00 9.296659e+00 9.230652e+00 9.179671e+00 9.153340e+00 9.101260e+00 8.982849e+00 8.818817e+00 8.645766e+00 8.481379e+00 8.313889e+00 8.158120e+00 8.080249e+00 8.077138e+00 8.043606e+00 7.922927e+00 7.742762e+00 7.560781e+00 7.395387e+00 7.243968e+00 7.105510e+00 6.960301e+00 6.837989e+00 6.722381e+00 6.593375e+00 6.466164e+00 6.406898e+00 6.458735e+00 6.584723e+00 6.737113e+00 6.878405e+00 6.971622e+00 6.982552e+00 6.931531e+00 6.888914e+00 6.891317e+00 6.917154e+00 6.962734e+00 7.003870e+00 6.997503e+00 6.932987e+00 6.836923e+00 6.767464e+00 6.762948e+00 6.831897e+00 6.948132e+00 7.082120e+00 7.188177e+00 7.225025e+00 7.169922e+00 7.043709e+00 6.899236e+00 6.759486e+00 6.647400e+00 6.584089e+00 6.570255e+00 6.588866e+00 6.601480e+00 6.592712e+00 6.603651e+00 6.629379e+00 6.664056e+00 6.695444e+00 6.709622e+00 6.698730e+00 6.671738e+00 6.560271e+00 6.477286e+00 6.426762e+00 6.400386e+00 6.393692e+00 6.407746e+00 6.441828e+00 6.478863e+00 6.423200e+00 6.340072e+00 6.219580e+00 6.044815e+00 5.809371e+00 5.533706e+00 5.239147e+00 4.927447e+00 4.654925e+00 4.418810e+00 4.206894e+00 4.008232e+00 3.789956e+00 3.442836e+00 2.767403e+00 2.927646e+00 3.396883e+00
<VARIANCE> 128
 3.323941e+00 4.931804e+00 6.721667e+00 8.115857e+00 8.874219e+00 8.965170e+00 8.535223e+00 7.930915e+00 7.439780e+00 7.250119e+00 7.475241e+00 7.891203e+00 8.145744e+00 8.130237e+00 7.867919e+00 7.519599e+00 7.362208e+00 7.477090e+00 7.704271e+00 7.777822e+00 7.565578e+00 7.077939e+00 6.524729e+00 6.108548e+00 5.837476e+00 5.576692e+00 5.317372e+00 5.184062e+00 5.193363e+00 5.148067e+00 4.924946e+00 4.683929e+00 4.679146e+00 4.815782e+00 4.864362e+00 4.835619e+00 4.732054e+00 4.520438e+00 4.251932e+00 4.000746e+00 3.834539e+00 3.763569e+00 3.765505e+00 3.794190e+00 3.847606e+00 3.910218e+00 3.962289e+00 4.018386e+00 4.091612e+00 4.177673e+00 4.340336e+00 4.538423e+00 4.687222e+00 4.714065e+00 4.572778e+00 4.310904e+00 4.012352e+00 3.717823e+00 3.430657e+00 3.162533e+00 2.951055e+00 2.773253e+00 2.630657e+00 2.562493e+00 2.571845e+00 2.631878e+00 2.718448e+00 2.799361e+00 2.833617e+00 2.809882e+00 2.715494e+00 2.580848e+00 2.452145e+00 2.327249e+00 2.209440e+00 2.120883e+00 2.039997e+00 1.946120e+00 1.845268e+00 1.756975e+00 1.723505e+00 1.741037e+00 1.769178e+00 1.782443e+00 1.772568e+00 1.745869e+00 1.721473e+00 1.722933e+00 1.753500e+00 1.793579e+00 1.834525e+00 1.883881e+00 1.937019e+00 1.961963e+00 1.953887e+00 1.933708e+00 1.913213e+00 1.894136e+00 1.880138e+00 1.874873e+00 1.878793e+00 1.890406e+00 1.908958e+00 1.943191e+00 2.008044e+00 2.105326e+00 2.225823e+00 2.354258e+00 2.469601e+00 2.549325e+00 2.559622e+00 2.500866e+00 2.413127e+00 2.326886e+00 2.238155e+00 2.139799e+00 2.051525e+00 1.991625e+00 1.955295e+00 1.941424e+00 1.960309e+00 1.999358e+00 2.024844e+00 2.010332e+00 1.952047e+00 1.916344e+00 1.876081e+00 1.849210e+00
<GCONST> 3.865413e+02
<MIXTURE> 5 1.604967e-01
<MEAN> 128
 7.536092e+00 9.192932e+00 1.085293e+01 1.236461e+01 1.370041e+01 1.464165e+01 1.529189e+01 1.556508e+01 1.559889e+01 1.555519e+01 1.550619e+01 1.564649e+01 1.596622e+01 1.635517e+01 1.671223e+01 1.697736e+01 1.710234e+01 1.704364e+01 1.690185e+01 1.675682e+01 1.665730e+01 1.658768e+01 1.656498e+01 1.659636e+01 1.667669e+01 1.679510e+01 1.688983e+01 1.698060e+01 1.706795e+01 1.714923e+01 1.721398e+01 1.725284e+01 1.728848e+01 1.735353e+01 1.743574e+01 1.750653e+01 1.754567e+01 1.752494e+01 1.745995e+01 1.735537e+01 1.721264e+01 1.702344e+01 1.677269e+01 1.644852e+01 1.606025e+01 1.563493e+01 1.520684e+01 1.480625e+01 1.447310e+01 1.425368e+01 1.415580e+01 1.410279e+01 1.402845e+01 1.392250e+01 1.380844e+01 1.370055e+01 1.361222e+01 1.355557e+01 1.350640e+01 1.347691e+01 1.345083e+01 1.340304e+01 1.334385e+01 1.332651e+01 1.338139e+01 1.347576e+01 1.358337e+01 1.368629e+01 1.376271e+01 1.380350e+01 1.382933e+01 1.387248e+01 1.392791e+01 1.396264e+01 1.397017e+01 1.394269e+01 1.387500e+01 1.378771e+01 1.373076e+01 1.378147e+01 1.396367e+01 1.423973e+01 1.453986e+01 1.480396e+01 1.498444e+01 1.504856e+01 1.497218e+01 1.476563e+01 1.448486e+01 1.417834e+01 1.389523e+01 1.367777e+01 1.353969e+01 1.345988e+01 1.338689e+01 1.328853e+01 1.317795e+01 1.301868e+01 1.279265e+01 1.250798e+01 1.219070e+01 1.186864e+01 1.157012e+01 1.123673e+01 1.098629e+01 1.082555e+01 1.075879e+01 1.079484e+01 1.091217e+01 1.104359e+01 1.110148e+01 1.095082e+01 1.066669e+01 1.028872e+01 9.853374e+00 9.380162e+00 8.893455e+00 8.430949e+00 8.035649e+00 7.808016e+00 7.756760e+00 7.817743e+00 7.884548e+00 7.844249e+00 7.568119e+00 6.885047e+00 7.063529e+00 7.523211e+00
<VARIANCE> 128
 1.195044e+00 1.415044e+00 1.577947e+00 1.561596e+00 1.357897e+00 1.094212e+00 9.826146e-01 1.170389e+00 1.548383e+00 1.750589e+00 1.598189e+00 1.288844e+00 1.044347e+00 9.204337e-01 9.080500e-01 1.025617e+00 1.294153e+00 1.627473e+00 1.836201e+00 1.816268e+00 1.648468e+00 1.500146e+00 1.468330e+00 1.510632e+00 1.525699e+00 1.484088e+00 1.485031e+00 1.627347e+00 1.882427e+00 2.136561e+00 2.324859e+00 2.429420e+00 2.395540e+00 2.183463e+00 1.901197e+00 1.680007e+00 1.578318e+00 1.634115e+00 1.847924e+00 2.175766e+00 2.550753e+00 2.911467e+00 3.217489e+00 3.451660e+00 3.616907e+00 3.709800e+00 3.714940e+00 3.625511e+00 3.463766e+00 3.321620e+00 3.277620e+00 3.313787e+00 3.413591e+00 3.602434e+00 3.847734e+00 4.071096e+00 4.234890e+00 4.338972e+00 4.377103e+00 4.351157e+00 4.294143e+00 4.257220e+00 4.265830e+00 4.291074e+00 4.246696e+00 4.084623e+00 3.826622e+00 3.518807e+00 3.200990e+00 2.886816e+00 2.606211e+00 2.432813e+00 2.395631e+00 2.448166e+00 2.552231e+00 2.680258e+00 2.804115e+00 2.902594e+00 2.942637e+00 2.892085e+00 2.749846e+00 2.507183e+00 2.155187e+00 1.752525e+00 1.412813e+00 1.218726e+00 1.149937e+00 1.131285e+00 1.107251e+00 1.059510e+00 1.013100e+00 1.021893e+00 1.103595e+00 1.208786e+00 1.286957e+00 1.348885e+00 1.447299e+00 1.601671e+00 1.773649e+00 1.916875e+00 2.015070e+00 2.074696e+00 2.089721e+00 2.050664e+00 1.987948e+00 1.976987e+00 2.118119e+00 2.460098e+00 2.919516e+00 3.315950e+00 3.506985e+00 3.463026e+00 3.231711e+00 2.909016e+00 2.595570e+00 2.331386e+00 2.114527e+00 1.947690e+00 1.835076e+00 1.789817e+00 1.810411e+00 1.831807e+00 1.780304e+00 1.662672e+00 1.547665e+00 1.442528e+00 1.454309e+00 1.609975e+00
<GCONST> 3.296926e+02
<MIXTURE> 6 1.257135e-01
<MEAN> 128
 7.907115e+00 9.636074e+00 1.128109e+01 1.267498e+01 1.378342e+01 1.441427e+01 1.473090e+01 1.471222e+01 1.456941e+01 1.455234e+01 1.473493e+01 1.514575e+01 1.560873e+01 1.594287e+01 1.607804e+01 1.605891e+01 1.597478e+01 1.588383e+01 1.587432e+01 1.591166e+01 1.593401e+01 1.589585e+01 1.585532e+01 1.585556e+01 1.587434e+01 1.587077e+01 1.578431e+01 1.567359e+01 1.556438e+01 1.544559e+01 1.529231e+01 1.510065e+01 1.491253e+01 1.477404e+01 1.466335e+01 1.453969e+01 1.437638e+01 1.414639e+01 1.386362e+01 1.353999e+01 1.321479e+01 1.291594e+01 1.261543e+01 1.227996e+01 1.191947e+01 1.157703e+01 1.130454e+01 1.111973e+01 1.103932e+01 1.109647e+01 1.123083e+01 1.129811e+01 1.123285e+01 1.105236e+01 1.080624e+01 1.053451e+01 1.026512e+01 1.002103e+01 9.791698e+00 9.610825e+00 9.467471e+00 9.324341e+00 9.178304e+00 9.084020e+00 9.087079e+00 9.167148e+00 9.293019e+00 9.425788e+00 9.517904e+00 9.542363e+00 9.522223e+00 9.522193e+00 9.574071e+00 9.657942e+00 9.764621e+00 9.865428e+00 9.920358e+00 9.918780e+00 9.885071e+00 9.878932e+00 9.942180e+00 1.007644e+01 1.023010e+01 1.035235e+01 1.040626e+01 1.037271e+01 1.023678e+01 1.000846e+01 9.735727e+00 9.453993e+00 9.200995e+00 9.010473e+00 8.889979e+00 8.822336e+00 8.769140e+00 8.714696e+00 8.695902e+00 8.692297e+00 8.675822e+00 8.623085e+00 8.525033e+00 8.390411e+00 8.249770e+00 8.055325e+00 7.929271e+00 7.868150e+00 7.853367e+00 7.876790e+00 7.944126e+00 8.061635e+00 8.207272e+00 8.256753e+00 8.245504e+00 8.151178e+00 7.954623e+00 7.649808e+00 7.263210e+00 6.831279e+00 6.377115e+00 5.982968e+00 5.671557e+00 5.442533e+00 5.271127e+00 5.101290e+00 4.811295e+00 4.189180e+00 4.369375e+00 4.821608e+00
<VARIANCE> 128
 1.576732e+00 1.954118e+00 2.153635e+00 2.070441e+00 1.757236e+00 1.438889e+00 1.334039e+00 1.503748e+00 1.714141e+00 1.649743e+00 1.366012e+00 1.183038e+00 1.156176e+00 1.259984e+00 1.544614e+00 1.966109e+00 2.286834e+00 2.302384e+00 2.072423e+00 1.826035e+00 1.727847e+00 1.800958e+00 1.913821e+00 1.919624e+00 1.810448e+00 1.673881e+00 1.625608e+00 1.688717e+00 1.813688e+00 1.911243e+00 1.937772e+00 1.924325e+00 1.895604e+00 1.817237e+00 1.720222e+00 1.664368e+00 1.675025e+00 1.742269e+00 1.850872e+00 1.977441e+00 2.110851e+00 2.248566e+00 2.402124e+00 2.561124e+00 2.721407e+00 2.902481e+00 3.103106e+00 3.344060e+00 3.625412e+00 3.881996e+00 4.103136e+00 4.304097e+00 4.489840e+00 4.620426e+00 4.615892e+00 4.454658e+00 4.268448e+00 4.138445e+00 4.075225e+00 4.020513e+00 3.948822e+00 3.858096e+00 3.767313e+00 3.701999e+00 3.664308e+00 3.620593e+00 3.532307e+00 3.390005e+00 3.210406e+00 2.985715e+00 2.720539e+00 2.487426e+00 2.355282e+00 2.311435e+00 2.350341e+00 2.476409e+00 2.669263e+00 2.901443e+00 3.131664e+00 3.321198e+00 3.469993e+00 3.553899e+00 3.543312e+00 3.464019e+00 3.369275e+00 3.305368e+00 3.271147e+00 3.251188e+00 3.241190e+00 3.233133e+00 3.246242e+00 3.325028e+00 3.475255e+00 3.642177e+00 3.793325e+00 3.931247e+00 4.015140e+00 3.963265e+00 3.758224e+00 3.465774e+00 3.167850e+00 2.904088e+00 2.684818e+00 2.545245e+00 2.507952e+00 2.549171e+00 2.640873e+00 2.774881e+00 2.930265e+00 3.032832e+00 3.003059e+00 2.866441e+00 2.720830e+00 2.622612e+00 2.554478e+00 2.461747e+00 2.333920e+00 2.205801e+00 2.097136e+00 2.020525e+00 2.000358e+00 2.034947e+00 2.078466e+00 2.072294e+00 1.987509e+00 1.800363e+00 1.846242e+00 1.995880e+00
<GCONST> 3.544779e+02
<MIXTURE> 7 1.056248e-01
<MEAN> 128
 5.683949e+00 6.517981e+00 7.408158e+00 8.166361e+00 8.690240e+00 8.844211e+00 8.916484e+00 8.866049e+00 8.769507e+00 8.718096e+00 8.692161e+00 8.781980e+00 8.865397e+00 8.836254e+00 8.731196e+00 8.676962e+00 8.700966e+00 8.717674e+00 8.732688e+00 8.736026e+00 8.765115e+00 8.845665e+00 9.019937e+00 9.235355e+00 9.400164e+00 9.481088e+00 9.483049e+00 9.533169e+00 9.627264e+00 9.691407e+00 9.701115e+00 9.685312e+00 9.698879e+00 9.719881e+00 9.728373e+00 9.738965e+00 9.743790e+00 9.707152e+00 9.638954e+00 9.544083e+00 9.439641e+00 9.333259e+00 9.204957e+00 9.038440e+00 8.851418e+00 8.666489e+00 8.498285e+00 8.354438e+00 8.255094e+00 8.232079e+00 8.270594e+00 8.291748e+00 8.260279e+00 8.191127e+00 8.111957e+00 8.038245e+00 7.986517e+00 7.972112e+00 7.969155e+00 7.991343e+00 8.029809e+00 8.076037e+00 8.150922e+00 8.296389e+00 8.515784e+00 8.763152e+00 9.019067e+00 9.278015e+00 9.521766e+00 9.720672e+00 9.861155e+00 9.959816e+00 1.002140e+01 1.002945e+01 1.000137e+01 9.951699e+00 9.884587e+00 9.816194e+00 9.767569e+00 9.763956e+00 9.802511e+00 9.881077e+00 9.996122e+00 1.015761e+01 1.036792e+01 1.060240e+01 1.081178e+01 1.097495e+01 1.112312e+01 1.128744e+01 1.149750e+01 1.176489e+01 1.206871e+01 1.237700e+01 1.264965e+01 1.286964e+01 1.307521e+01 1.325568e+01 1.340472e+01 1.353424e+01 1.367131e+01 1.384235e+01 1.406502e+01 1.424372e+01 1.444277e+01 1.462710e+01 1.477593e+01 1.489055e+01 1.498133e+01 1.504380e+01 1.504705e+01 1.488617e+01 1.464267e+01 1.434658e+01 1.401419e+01 1.364450e+01 1.325882e+01 1.289335e+01 1.255740e+01 1.229404e+01 1.207500e+01 1.186617e+01 1.164331e+01 1.136441e+01 1.093150e+01 1.021842e+01 1.024934e+01 1.061951e+01
<VARIANCE> 128
 2.644025e+00 3.689360e+00 5.088356e+00 6.261488e+00 6.783586e+00 6.617737e+00 6.157964e+00 5.765076e+00 5.499244e+00 5.448949e+00 5.656229e+00 5.928501e+00 5.966843e+00 5.762349e+00 5.476647e+00 5.329679e+00 5.341256e+00 5.347438e+00 5.286578e+00 5.108500e+00 4.878118e+00 4.675374e+00 4.518363e+00 4.332967e+00 4.072716e+00 3.752894e+00 3.468307e+00 3.369130e+00 3.339685e+00 3.246166e+00 3.093812e+00 2.990299e+00 2.952935e+00 2.900801e+00 2.812131e+00 2.714923e+00 2.626682e+00 2.547838e+00 2.475803e+00 2.413237e+00 2.358859e+00 2.322103e+00 2.310338e+00 2.310524e+00 2.300452e+00 2.272296e+00 2.227599e+00 2.167417e+00 2.109587e+00 2.075598e+00 2.079600e+00 2.098220e+00 2.096526e+00 2.078647e+00 2.066634e+00 2.076308e+00 2.119296e+00 2.200999e+00 2.327830e+00 2.484737e+00 2.631552e+00 2.720975e+00 2.742098e+00 2.713013e+00 2.655410e+00 2.610996e+00 2.627032e+00 2.706587e+00 2.780033e+00 2.774432e+00 2.681782e+00 2.549676e+00 2.420275e+00 2.299811e+00 2.183270e+00 2.067775e+00 1.947074e+00 1.828634e+00 1.736531e+00 1.680006e+00 1.659417e+00 1.664691e+00 1.681168e+00 1.704111e+00 1.727313e+00 1.742339e+00 1.740577e+00 1.731090e+00 1.757751e+00 1.881556e+00 2.147422e+00 2.548882e+00 3.030163e+00 3.553680e+00 4.122503e+00 4.742946e+00 5.388971e+00 6.021222e+00 6.640397e+00 7.334534e+00 8.243204e+00 9.443333e+00 1.085909e+01 1.227002e+01 1.345051e+01 1.434722e+01 1.504435e+01 1.565053e+01 1.621549e+01 1.669691e+01 1.703018e+01 1.720390e+01 1.725056e+01 1.720301e+01 1.709044e+01 1.695324e+01 1.680772e+01 1.667255e+01 1.655912e+01 1.641002e+01 1.615584e+01 1.578708e+01 1.533516e+01 1.485420e+01 1.444919e+01 1.441977e+01 1.390292e+01 1.349581e+01
<GCONST> 4.210603e+02
<MIXTURE> 8 8.158521e-02
<MEAN> 128
 4.806890e+00 5.552818e+00 6.322820e+00 6.979845e+00 7.462831e+00 7.623756e+00 7.745513e+00 7.767858e+00 7.759201e+00 7.799037e+00 7.834900e+00 7.952666e+00 8.052979e+00 8.018782e+00 7.897532e+00 7.855643e+00 7.919475e+00 7.975270e+00 7.989046e+00 7.946960e+00 7.900224e+00 7.895336e+00 8.013316e+00 8.182830e+00 8.261332e+00 8.175673e+00 7.918007e+00 7.660446e+00 7.474990e+00 7.278855e+00 7.017658e+00 6.718107e+00 6.455544e+00 6.242124e+00 6.068648e+00 5.966705e+00 5.927707e+00 5.882858e+00 5.829896e+00 5.772717e+00 5.709292e+00 5.667251e+00 5.608704e+00 5.513957e+00 5.406178e+00 5.303669e+00 5.204245e+00 5.089600e+00 4.965801e+00 4.868156e+00 4.812077e+00 4.748075e+00 4.649486e+00 4.542735e+00 4.459755e+00 4.406733e+00 4.382683e+00 4.378946e+00 4.354488e+00 4.310480e+00 4.235507e+00 4.127600e+00 4.001384e+00 3.904392e+00 3.879512e+00 3.922795e+00 4.011945e+00 4.118145e+00 4.212999e+00 4.267709e+00 4.280829e+00 4.291052e+00 4.321109e+00 4.358576e+00 4.410832e+00 4.470202e+00 4.511137e+00 4.523962e+00 4.520452e+00 4.537298e+00 4.583938e+00 4.655188e+00 4.735894e+00 4.824222e+00 4.917413e+00 5.002681e+00 5.056606e+00 5.076277e+00 5.088281e+00 5.102562e+00 5.130872e+00 5.182456e+00 5.255890e+00 5.341777e+00 5.403549e+00 5.422611e+00 5.444152e+00 5.469676e+00 5.499189e+00 5.530540e+00 5.560574e+00 5.587156e+00 5.611217e+00 5.542247e+00 5.476452e+00 5.418079e+00 5.368087e+00 5.327185e+00 5.291693e+00 5.250973e+00 5.189702e+00 5.025274e+00 4.841788e+00 4.649306e+00 4.449224e+00 4.241287e+00 4.033058e+00 3.831449e+00 3.631343e+00 3.471660e+00 3.322228e+00 3.157813e+00 2.973602e+00 2.753782e+00 2.403494e+00 1.706065e+00 1.900640e+00 2.405334e+00
<VARIANCE> 128
 4.170979e+00 4.513514e+00 5.433735e+00 6.240629e+00 6.378616e+00 5.900946e+00 5.373867e+00 4.983471e+00 4.687870e+00 4.592740e+00 4.718785e+00 4.862114e+00 4.758421e+00 4.300624e+00 3.704413e+00 3.548453e+00 3.814437e+00 4.082992e+00 4.174543e+00 4.038500e+00 3.788198e+00 3.581717e+00 3.535753e+00 3.508042e+00 3.365202e+00 3.100305e+00 2.820673e+00 2.802700e+00 2.967476e+00 2.978816e+00 2.714882e+00 2.396571e+00 2.267807e+00 2.245840e+00 2.189649e+00 2.138331e+00 2.124644e+00 2.151116e+00 2.199224e+00 2.252614e+00 2.321981e+00 2.413998e+00 2.539436e+00 2.694410e+00 2.899638e+00 3.156656e+00 3.410209e+00 3.575483e+00 3.602540e+00 3.567887e+00 3.565440e+00 3.565489e+00 3.514657e+00 3.433387e+00 3.402262e+00 3.456969e+00 3.522731e+00 3.508394e+00 3.359421e+00 3.092587e+00 2.746652e+00 2.342434e+00 1.945293e+00 1.651615e+00 1.526858e+00 1.560511e+00 1.703969e+00 1.894865e+00 2.059936e+00 2.124208e+00 2.061671e+00 1.932556e+00 1.822305e+00 1.755574e+00 1.720583e+00 1.682620e+00 1.594252e+00 1.449607e+00 1.282871e+00 1.137788e+00 1.051982e+00 1.013432e+00 9.897543e-01 9.687943e-01 9.352577e-01 8.809426e-01 8.128182e-01 7.455441e-01 6.890997e-01 6.432838e-01 6.106571e-01 5.946808e-01 5.893213e-01 5.836977e-01 5.726258e-01 5.558027e-01 5.373141e-01 5.211558e-01 5.097562e-01 5.042884e-01 5.059923e-01 5.114835e-01 5.151510e-01 5.163289e-01 5.194838e-01 5.323487e-01 5.622181e-01 6.118031e-01 6.744839e-01 7.325058e-01 7.635059e-01 7.583119e-01 7.288890e-01 6.940023e-01 6.596654e-01 6.246517e-01 5.987926e-01 5.910679e-01 5.949422e-01 6.001100e-01 6.017591e-01 5.971015e-01 5.833757e-01 5.589709e-01 5.349999e-01 5.613318e-01 5.476627e-01 5.312807e-01
<GCONST> 2.986695e+02
<TRANSP> 3
 0.000000e+00 1.000000e+00 0.000000e+00
 0.000000e+00 9.944912e-01 5.508853e-03
 0.000000e+00 0.000000e+00 0.000000e+00
<ENDHMM>
~h "spkr3"
<BEGINHMM>
<NUMSTATES> 3
<STATE> 2
<NUMMIXES> 8
<MIXTURE> 1 1.251397e-01
<MEAN> 128
 6.607316e+00 8.009928e+00 9.554061e+00 1.102752e+01 1.243092e+01 1.359418e+01 1.461206e+01 1.533546e+01 1.580641e+01 1.607125e+01 1.610894e+01 1.609831e+01 1.610894e+01 1.617277e+01 1.632802e+01 1.660373e+01 1.695433e+01 1.726330e+01 1.753093e+01 1.774555e+01 1.789632e+01 1.795550e+01 1.797194e+01 1.800219e+01 1.808520e+01 1.822592e+01 1.835990e+01 1.850414e+01 1.866092e+01 1.882842e+01 1.898410e+01 1.909989e+01 1.917509e+01 1.922610e+01 1.926035e+01 1.927988e+01 1.927191e+01 1.920512e+01 1.909505e+01 1.895215e+01 1.878190e+01 1.857228e+01 1.830137e+01 1.795695e+01 1.755249e+01 1.710971e+01 1.664653e+01 1.616910e+01 1.569007e+01 1.525078e+01 1.489237e+01 1.459270e+01 1.432266e+01 1.408713e+01 1.390113e+01 1.374154e+01 1.360745e+01 1.354768e+01 1.356513e+01 1.364058e+01 1.371099e+01 1.373313e+01 1.371800e+01 1.372351e+01 1.379686e+01 1.395031e+01 1.418817e+01 1.446607e+01 1.472825e+01 1.496132e+01 1.518065e+01 1.539529e+01 1.558706e+01 1.571888e+01 1.577435e+01 1.575013e+01 1.566692e+01 1.555296e+01 1.543023e+01 1.533315e+01 1.526530e+01 1.522751e+01 1.522535e+01 1.528965e+01 1.546909e+01 1.575827e+01 1.605737e+01 1.626865e+01 1.636011e+01 1.632728e+01 1.619629e+01 1.602091e+01 1.588141e+01 1.585132e+01 1.592922e+01 1.607817e+01 1.629097e+01 1.650564e+01 1.666761e+01 1.674027e+01 1.669786e+01 1.651689e+01 1.618302e+01 1.561708e+01 1.496717e+01 1.431431e+01 1.371321e+01 1.316654e+01 1.265434e+01 1.218326e+01 1.179965e+01 1.147311e+01 1.125837e+01 1.108398e+01 1.090499e+01 1.073675e+01 1.062395e+01 1.058539e+01 1.058508e+01 1.059771e+01 1.052742e+01 1.032206e+01 1.002673e+01 9.735838e+00 9.398658e+00 8.651146e+00 8.963170e+00 9.523345e+00
<VARIANCE> 128
 1.960104e+00 2.208548e+00 2.321903e+00 2.226746e+00 1.940324e+00 1.477923e+00 9.903602e-01 7.405245e-01 8.850636e-01 1.279284e+00 1.614972e+00 1.750429e+00 1.684013e+00 1.496475e+00 1.330603e+00 1.214664e+00 1.134125e+00 1.100093e+00 1.098840e+00 1.114497e+00 1.165317e+00 1.256311e+00 1.341184e+00 1.370375e+00 1.321731e+00 1.266417e+00 1.333376e+00 1.536772e+00 1.715243e+00 1.707696e+00 1.554793e+00 1.388859e+00 1.249106e+00 1.117651e+00 1.011335e+00 9.857942e-01 1.093376e+00 1.350007e+00 1.730383e+00 2.187487e+00 2.658583e+00 3.094893e+00 3.441735e+00 3.628608e+00 3.626181e+00 3.463074e+00 3.205718e+00 2.945635e+00 2.730531e+00 2.571892e+00 2.497447e+00 2.477832e+00 2.464053e+00 2.487098e+00 2.581348e+00 2.716436e+00 2.853391e+00 3.002203e+00 3.152728e+00 3.272941e+00 3.385439e+00 3.530455e+00 3.716050e+00 3.941423e+00 4.155359e+00 4.288923e+00 4.350825e+00 4.398653e+00 4.447635e+00 4.453563e+00 4.362794e+00 4.146900e+00 3.833815e+00 3.479948e+00 3.119816e+00 2.757989e+00 2.412652e+00 2.117182e+00 1.893625e+00 1.745975e+00 1.655397e+00 1.583865e+00 1.494899e+00 1.370499e+00 1.217654e+00 1.070416e+00 9.625440e-01 9.123182e-01 9.155651e-01 9.413438e-01 9.410719e-01 8.920978e-01 8.331192e-01 8.463934e-01 9.852627e-01 1.224251e+00 1.490614e+00 1.723997e+00 1.894835e+00 1.987216e+00 2.002500e+00 1.967074e+00 1.909670e+00 1.821035e+00 1.673743e+00 1.502240e+00 1.396543e+00 1.373572e+00 1.368199e+00 1.347520e+00 1.346818e+00 1.431188e+00 1.621116e+00 1.842866e+00 1.972881e+00 1.951737e+00 1.848316e+00 1.755157e+00 1.677978e+00 1.592638e+00 1.510275e+00 1.449589e+00 1.395370e+00 1.344829e+00 1.335853e+00 1.333137e+00 1.412986e+00 1.588244e+00
<GCONST> 3.105404e+02
<MIXTURE> 2 1.228843e-01
<MEAN> 128
 6.352832e+00 7.232878e+00 8.193929e+00 9.014471e+00 9.592507e+00 9.785286e+00 9.884016e+00 9.914137e+00 9.996009e+00 1.016278e+01 1.031531e+01 1.050314e+01 1.060545e+01 1.055361e+01 1.040788e+01 1.030041e+01 1.029425e+01 1.029811e+01 1.031744e+01 1.037026e+01 1.050427e+01 1.070977e+01 1.099100e+01 1.128742e+01 1.153347e+01 1.171598e+01 1.185725e+01 1.205951e+01 1.227889e+01 1.244074e+01 1.253371e+01 1.258545e+01 1.260914e+01 1.259620e+01 1.254643e+01 1.248351e+01 1.241748e+01 1.232366e+01 1.221267e+01 1.209807e+01 1.200024e+01 1.192279e+01 1.183931e+01 1.172887e+01 1.159992e+01 1.145970e+01 1.130348e+01 1.112617e+01 1.093597e+01 1.076696e+01 1.064482e+01 1.052637e+01 1.039013e+01 1.027111e+01 1.020069e+01 1.015058e+01 1.011227e+01 1.013170e+01 1.021292e+01 1.034247e+01 1.047084e+01 1.056399e+01 1.062666e+01 1.070087e+01 1.080835e+01 1.093514e+01 1.109196e+01 1.128509e+01 1.150181e+01 1.173267e+01 1.197199e+01 1.220668e+01 1.240609e+01 1.253683e+01 1.259269e+01 1.257482e+01 1.251053e+01 1.243424e+01 1.236879e+01 1.235008e+01 1.238487e+01 1.247887e+01 1.263807e+01 1.288133e+01 1.322151e+01 1.361262e+01 1.394759e+01 1.414663e+01 1.421022e+01 1.417472e+01 1.409501e+01 1.402766e+01 1.402772e+01 1.412535e+01 1.428183e+01 1.444585e+01 1.461993e+01 1.477146e+01 1.488530e+01 1.496436e+01 1.502015e+01 1.506564e+01 1.511325e+01 1.508168e+01 1.507261e+01 1.508749e+01 1.510664e+01 1.509356e+01 1.501372e+01 1.486004e+01 1.465968e+01 1.436895e+01 1.407188e+01 1.377139e+01 1.348421e+01 1.322051e+01 1.297160e+01 1.271992e+01 1.245620e+01 1.223286e+01 1.202846e+01 1.181727e+01 1.160284e+01 1.137551e+01 1.102455e+01 1.030157e+01 1.049602e+01 1.100509e+01
<VARIANCE> 128
 3.108980e+00 3.864527e+00 4.817719e+00 5.602320e+00 6.096366e+00 6.300753e+00 6.349143e+00 6.392663e+00 6.413614e+00 6.422451e+00 6.455328e+00 6.414385e+00 6.298055e+00 6.134167e+00 5.947991e+00 5.831758e+00 5.839367e+00 5.845918e+00 5.823722e+00 5.764110e+00 5.668022e+00 5.530274e+00 5.357709e+00 5.143700e+00 4.854807e+00 4.515847e+00 4.201500e+00 3.932350e+00 3.725917e+00 3.551749e+00 3.391985e+00 3.249194e+00 3.128292e+00 3.018226e+00 2.908425e+00 2.806253e+00 2.706081e+00 2.606349e+00 2.520346e+00 2.451840e+00 2.394504e+00 2.332804e+00 2.269654e+00 2.206403e+00 2.149657e+00 2.109728e+00 2.086165e+00 2.064845e+00 2.033984e+00 1.993231e+00 1.949555e+00 1.906196e+00 1.845689e+00 1.778955e+00 1.739028e+00 1.734053e+00 1.749219e+00 1.798175e+00 1.886125e+00 1.995002e+00 2.100514e+00 2.190696e+00 2.264781e+00 2.315403e+00 2.311242e+00 2.236318e+00 2.122552e+00 2.004223e+00 1.888915e+00 1.789296e+00 1.739156e+00 1.753842e+00 1.829200e+00 1.946529e+00 2.070999e+00 2.161060e+00 2.190286e+00 2.154612e+00 2.069735e+00 1.974723e+00 1.903102e+00 1.848771e+00 1.781884e+00 1.697954e+00 1.639286e+00 1.641860e+00 1.697541e+00 1.780342e+00 1.850813e+00 1.870916e+00 1.837850e+00 1.787881e+00 1.782477e+00 1.860390e+00 2.001132e+00 2.155847e+00 2.297585e+00 2.437436e+00 2.607835e+00 2.849931e+00 3.178022e+00 3.550921e+00 3.912954e+00 4.260894e+00 4.629132e+00 5.031975e+00 5.457282e+00 5.886652e+00 6.312516e+00 6.743686e+00 7.181437e+00 7.570621e+00 7.829608e+00 7.950237e+00 7.985918e+00 7.954480e+00 7.815637e+00 7.536022e+00 7.124927e+00 6.646778e+00 6.211375e+00 5.932186e+00 5.852264e+00 5.925876e+00 6.044176e+00 6.079944e+00 6.247290e+00 6.423375e+00
<GCONST> 3.874874e+02
<MIXTURE> 3 1.767237e-01
<MEAN> 128
 7.238018e+00 8.785131e+00 1.033953e+01 1.172406e+01 1.292192e+01 1.374981e+01 1.434801e+01 1.465699e+01 1.481822e+01 1.496401e+01 1.510535e+01 1.537307e+01 1.572674e+01 1.607070e+01 1.634968e+01 1.656051e+01 1.669751e+01 1.673928e+01 1.679420e+01 1.691165e+01 1.707023e+01 1.720381e+01 1.732288e+01 1.745167e+01 1.760021e+01 1.776149e+01 1.787658e+01 1.796910e+01 1.803529e+01 1.806488e+01 1.804626e+01 1.796353e+01 1.781170e+01 1.760098e+01 1.734258e+01 1.705616e+01 1.675623e+01 1.642891e+01 1.608989e+01 1.574810e+01 1.542048e+01 1.511387e+01 1.481583e+01 1.450660e+01 1.418385e+01 1.385583e+01 1.352039e+01 1.316211e+01 1.278142e+01 1.242442e+01 1.214917e+01 1.192991e+01 1.172634e+01 1.154854e+01 1.141663e+01 1.129767e+01 1.117898e+01 1.111295e+01 1.111912e+01 1.118797e+01 1.125434e+01 1.126409e+01 1.120590e+01 1.111870e+01 1.104734e+01 1.101227e+01 1.103427e+01 1.109583e+01 1.116387e+01 1.122866e+01 1.130828e+01 1.142660e+01 1.157957e+01 1.174240e+01 1.190644e+01 1.206727e+01 1.223956e+01 1.243285e+01 1.263447e+01 1.283632e+01 1.299937e+01 1.309400e+01 1.311117e+01 1.307989e+01 1.306429e+01 1.310953e+01 1.318404e+01 1.323560e+01 1.325179e+01 1.323089e+01 1.318649e+01 1.314689e+01 1.314812e+01 1.320853e+01 1.329119e+01 1.335841e+01 1.342972e+01 1.348342e+01 1.350011e+01 1.346456e+01 1.336455e+01 1.318807e+01 1.292636e+01 1.249255e+01 1.200819e+01 1.151064e+01 1.101843e+01 1.052704e+01 1.002953e+01 9.546305e+00 9.127612e+00 8.747039e+00 8.487398e+00 8.315794e+00 8.194723e+00 8.101480e+00 8.032518e+00 7.998240e+00 8.005041e+00 8.076649e+00 8.130128e+00 8.097058e+00 7.987236e+00 7.835602e+00 7.553428e+00 6.838676e+00 7.114051e+00 7.631305e+00
<VARIANCE> 128
 2.359700e+00 2.666821e+00 2.700506e+00 2.447458e+00 1.971825e+00 1.440157e+00 1.087335e+00 1.031046e+00 1.185729e+00 1.359669e+00 1.439427e+00 1.456537e+00 1.439589e+00 1.388233e+00 1.351390e+00 1.380599e+00 1.502553e+00 1.674818e+00 1.769536e+00 1.748994e+00 1.734284e+00 1.811446e+00 1.942412e+00 2.024242e+00 2.002603e+00 1.921307e+00 1.878721e+00 1.916371e+00 1.993023e+00 2.034391e+00 2.005766e+00 1.926834e+00 1.837978e+00 1.761217e+00 1.703372e+00 1.675013e+00 1.694810e+00 1.767077e+00 1.878787e+00 2.020272e+00 2.177397e+00 2.323405e+00 2.415233e+00 2.436704e+00 2.420936e+00 2.400687e+00 2.390246e+00 2.395789e+00 2.411014e+00 2.432497e+00 2.463830e+00 2.503778e+00 2.566141e+00 2.705122e+00 2.947746e+00 3.252166e+00 3.574397e+00 3.922099e+00 4.281648e+00 4.607512e+00 4.883046e+00 5.126837e+00 5.356503e+00 5.547812e+00 5.615382e+00 5.500391e+00 5.288125e+00 5.147429e+00 5.109217e+00 5.098926e+00 5.062331e+00 4.973860e+00 4.825572e+00 4.615736e+00 4.333215e+00 3.983555e+00 3.612510e+00 3.272121e+00 3.017369e+00 2.892900e+00 2.882995e+00 2.919934e+00 2.913788e+00 2.770461e+00 2.464707e+00 2.124528e+00 1.910208e+00 1.861627e+00 1.913489e+00 1.953802e+00 1.897620e+00 1.767030e+00 1.695326e+00 1.793661e+00 2.043405e+00 2.345001e+00 2.622330e+00 2.868745e+00 3.108183e+00 3.345253e+00 3.563046e+00 3.726430e+00 3.765046e+00 3.607853e+00 3.289086e+00 2.967933e+00 2.769502e+00 2.676670e+00 2.601813e+00 2.492145e+00 2.367085e+00 2.295539e+00 2.317545e+00 2.390512e+00 2.421167e+00 2.344208e+00 2.184250e+00 2.017335e+00 1.882023e+00 1.796894e+00 1.794994e+00 1.865904e+00 1.914950e+00 1.871541e+00 1.791818e+00 1.757057e+00 1.735849e+00 1.853905e+00
<GCONST> 3.486965e+02
<MIXTURE> 4 8.428127e-02
<MEAN> 128
 6.131458e+00 7.334073e+00 8.515254e+00 9.488858e+00 1.020507e+01 1.052393e+01 1.070661e+01 1.081467e+01 1.101651e+01 1.135141e+01 1.168074e+01 1.199111e+01 1.217137e+01 1.214133e+01 1.192282e+01 1.165826e+01 1.154802e+01 1.150207e+01 1.150350e+01 1.152075e+01 1.156067e+01 1.163696e+01 1.177774e+01 1.189213e+01 1.189272e+01 1.174795e+01 1.150741e+01 1.144000e+01 1.146760e+01 1.140983e+01 1.121795e+01 1.101443e+01 1.089033e+01 1.072013e+01 1.045926e+01 1.019971e+01 9.980981e+00 9.745259e+00 9.466566e+00 9.156586e+00 8.879869e+00 8.708554e+00 8.548900e+00 8.329150e+00 8.086601e+00 7.857056e+00 7.628212e+00 7.400119e+00 7.145308e+00 6.926580e+00 6.826952e+00 6.736166e+00 6.578348e+00 6.422975e+00 6.337083e+00 6.241964e+00 6.093152e+00 5.963300e+00 5.925506e+00 5.988941e+00 6.086292e+00 6.149749e+00 6.155229e+00 6.155653e+00 6.176013e+00 6.191643e+00 6.229820e+00 6.308640e+00 6.393078e+00 6.444605e+00 6.477087e+00 6.512800e+00 6.535416e+00 6.531021e+00 6.519095e+00 6.505319e+00 6.527779e+00 6.617657e+00 6.752416e+00 6.920742e+00 7.090291e+00 7.232660e+00 7.331919e+00 7.399703e+00 7.475257e+00 7.581267e+00 7.676394e+00 7.716781e+00 7.700293e+00 7.633339e+00 7.542431e+00 7.466622e+00 7.446116e+00 7.497799e+00 7.574473e+00 7.630179e+00 7.687352e+00 7.737864e+00 7.781937e+00 7.821805e+00 7.853023e+00 7.867409e+00 7.864207e+00 7.759706e+00 7.660489e+00 7.574829e+00 7.486900e+00 7.363303e+00 7.183042e+00 6.962213e+00 6.741077e+00 6.471397e+00 6.225583e+00 5.992995e+00 5.775755e+00 5.579177e+00 5.408783e+00 5.272910e+00 5.172961e+00 5.136305e+00 5.097981e+00 5.001194e+00 4.832412e+00 4.588685e+00 4.204074e+00 3.503400e+00 3.640329e+00 4.093947e+00
<VARIANCE> 128
 3.677423e+00 5.165702e+00 6.904647e+00 8.353337e+00 9.262214e+00 9.704465e+00 9.888860e+00 9.989037e+00 1.016609e+01 1.059506e+01 1.118748e+01 1.177235e+01 1.226137e+01 1.252046e+01 1.244017e+01 1.209259e+01 1.150739e+01 1.122882e+01 1.134183e+01 1.172997e+01 1.207725e+01 1.212275e+01 1.168268e+01 1.119037e+01 1.085768e+01 1.063340e+01 1.045085e+01 1.013481e+01 9.903043e+00 9.603241e+00 9.200756e+00 8.738270e+00 8.238107e+00 7.742757e+00 7.237359e+00 6.790583e+00 6.405673e+00 6.028398e+00 5.661689e+00 5.318598e+00 5.039458e+00 4.792600e+00 4.598817e+00 4.421159e+00 4.235548e+00 4.032946e+00 3.858638e+00 3.639554e+00 3.417210e+00 3.223799e+00 3.135782e+00 3.134685e+00 3.145122e+00 3.150936e+00 3.175925e+00 3.193121e+00 3.142043e+00 3.066634e+00 3.037817e+00 3.067390e+00 3.086090e+00 3.059492e+00 2.979761e+00 2.868955e+00 2.749189e+00 2.639476e+00 2.594507e+00 2.639040e+00 2.704765e+00 2.738760e+00 2.750938e+00 2.756402e+00 2.722645e+00 2.638126e+00 2.532373e+00 2.407606e+00 2.297210e+00 2.238641e+00 2.223116e+00 2.229740e+00 2.236243e+00 2.209821e+00 2.142771e+00 2.068852e+00 2.045162e+00 2.098661e+00 2.186384e+00 2.240834e+00 2.227599e+00 2.152732e+00 2.041564e+00 1.942579e+00 1.919261e+00 2.001242e+00 2.157056e+00 2.321737e+00 2.432483e+00 2.450972e+00 2.377590e+00 2.256413e+00 2.146718e+00 2.088184e+00 2.079138e+00 2.095924e+00 2.127974e+00 2.193054e+00 2.311591e+00 2.459747e+00 2.590351e+00 2.677736e+00 2.734257e+00 2.772469e+00 2.776608e+00 2.725622e+00 2.629158e+00 2.508041e+00 2.375540e+00 2.248576e+00 2.151517e+00 2.102080e+00 2.086733e+00 2.080726e+00 2.072804e+00 2.055914e+00 2.023125e+00 1.971940e+00 2.033681e+00 2.099302e+00
<GCONST> 4.073932e+02
<MIXTURE> 5 1.699003e-01
<MEAN> 128
 7.483212e+00 9.108543e+00 1.067850e+01 1.201789e+01 1.309265e+01 1.372754e+01 1.411219e+01 1.424917e+01 1.433429e+01 1.453834e+01 1.485161e+01 1.530089e+01 1.575538e+01 1.607938e+01 1.621988e+01 1.621765e+01 1.613971e+01 1.603392e+01 1.604962e+01 1.620784e+01 1.641672e+01 1.656613e+01 1.665209e+01 1.670325e+01 1.675247e+01 1.681723e+01 1.684145e+01 1.683094e+01 1.676014e+01 1.661381e+01 1.640456e+01 1.615305e+01 1.587151e+01 1.556125e+01 1.522817e+01 1.489940e+01 1.458582e+01 1.425432e+01 1.390556e+01 1.355093e+01 1.322651e+01 1.294561e+01 1.268504e+01 1.241548e+01 1.213299e+01 1.183992e+01 1.153310e+01 1.120165e+01 1.084321e+01 1.050921e+01 1.028524e+01 1.014179e+01 1.002707e+01 9.951868e+00 9.923389e+00 9.874400e+00 9.778058e+00 9.696040e+00 9.678966e+00 9.745047e+00 9.834156e+00 9.879937e+00 9.855889e+00 9.792870e+00 9.721019e+00 9.642594e+00 9.582099e+00 9.550604e+00 9.532121e+00 9.507973e+00 9.486489e+00 9.485154e+00 9.497425e+00 9.513339e+00 9.547359e+00 9.608606e+00 9.736292e+00 9.957378e+00 1.023777e+01 1.054100e+01 1.080430e+01 1.097657e+01 1.104247e+01 1.103605e+01 1.102792e+01 1.105995e+01 1.108465e+01 1.104302e+01 1.093172e+01 1.076818e+01 1.058625e+01 1.042141e+01 1.030606e+01 1.025276e+01 1.022641e+01 1.020823e+01 1.024763e+01 1.034113e+01 1.046230e+01 1.057166e+01 1.063148e+01 1.061297e+01 1.050213e+01 1.021633e+01 9.884791e+00 9.547851e+00 9.205887e+00 8.825099e+00 8.387577e+00 7.926132e+00 7.512163e+00 7.128269e+00 6.849913e+00 6.637876e+00 6.466106e+00 6.335546e+00 6.269123e+00 6.289727e+00 6.376801e+00 6.510714e+00 6.592884e+00 6.562088e+00 6.426277e+00 6.208787e+00 5.848378e+00 5.149769e+00 5.302281e+00 5.740779e+00
<VARIANCE> 128
 2.085878e+00 2.511047e+00 2.708880e+00 2.594657e+00 2.202977e+00 1.677976e+00 1.206730e+00 9.457597e-01 9.467861e-01 1.091740e+00 1.234277e+00 1.378349e+00 1.527543e+00 1.640636e+00 1.687523e+00 1.654415e+00 1.552554e+00 1.446427e+00 1.393088e+00 1.427581e+00 1.530489e+00 1.610808e+00 1.625896e+00 1.622083e+00 1.632313e+00 1.662109e+00 1.717404e+00 1.771127e+00 1.815104e+00 1.849624e+00 1.856730e+00 1.853578e+00 1.881481e+00 1.938359e+00 1.979077e+00 1.994733e+00 2.017924e+00 2.056248e+00 2.104526e+00 2.164031e+00 2.239000e+00 2.328999e+00 2.401335e+00 2.434357e+00 2.448089e+00 2.469571e+00 2.503478e+00 2.548325e+00 2.592386e+00 2.614714e+00 2.582364e+00 2.510766e+00 2.426857e+00 2.400418e+00 2.467934e+00 2.611459e+00 2.779222e+00 2.947850e+00 3.100927e+00 3.248037e+00 3.412309e+00 3.609354e+00 3.820799e+00 3.990199e+00 4.052742e+00 3.984685e+00 3.856465e+00 3.793371e+00 3.811051e+00 3.837568e+00 3.816596e+00 3.735782e+00 3.598093e+00 3.411803e+00 3.199621e+00 2.982253e+00 2.803017e+00 2.691492e+00 2.664278e+00 2.714404e+00 2.776163e+00 2.788162e+00 2.723747e+00 2.588045e+00 2.449913e+00 2.424192e+00 2.542307e+00 2.720702e+00 2.854208e+00 2.874344e+00 2.786232e+00 2.688336e+00 2.727776e+00 2.981765e+00 3.372584e+00 3.714895e+00 3.847487e+00 3.768102e+00 3.607809e+00 3.475102e+00 3.379408e+00 3.265696e+00 3.065511e+00 2.759142e+00 2.436647e+00 2.242237e+00 2.226516e+00 2.296168e+00 2.329065e+00 2.277559e+00 2.181046e+00 2.116487e+00 2.104642e+00 2.097188e+00 2.042485e+00 1.929294e+00 1.796794e+00 1.706972e+00 1.688807e+00 1.715631e+00 1.755444e+00 1.798288e+00 1.822012e+00 1.808751e+00 1.782175e+00 1.720095e+00 1.785731e+00 1.933847e+00
<GCONST> 3.424961e+02
<MIXTURE> 6 1.788426e-01
<MEAN> 128
 7.233595e+00 8.775415e+00 1.032140e+01 1.169780e+01 1.289560e+01 1.374092e+01 1.437644e+01 1.473199e+01 1.494125e+01 1.512716e+01 1.527363e+01 1.549805e+01 1.577881e+01 1.605654e+01 1.630239e+01 1.651917e+01 1.669077e+01 1.677265e+01 1.684361e+01 1.693605e+01 1.703877e+01 1.710482e+01 1.716183e+01 1.724677e+01 1.737681e+01 1.754541e+01 1.768861e+01 1.782588e+01 1.796199e+01 1.809673e+01 1.821372e+01 1.828973e+01 1.832351e+01 1.832924e+01 1.831036e+01 1.826959e+01 1.820872e+01 1.811108e+01 1.799380e+01 1.785873e+01 1.770113e+01 1.750919e+01 1.726546e+01 1.695829e+01 1.659693e+01 1.619998e+01 1.578327e+01 1.535028e+01 1.491055e+01 1.450461e+01 1.418076e+01 1.391776e+01 1.368315e+01 1.348750e+01 1.334948e+01 1.323479e+01 1.313183e+01 1.309469e+01 1.313077e+01 1.321417e+01 1.327827e+01 1.327519e+01 1.320253e+01 1.310852e+01 1.304043e+01 1.301973e+01 1.306757e+01 1.316213e+01 1.325989e+01 1.334010e+01 1.341086e+01 1.348996e+01 1.357273e+01 1.363461e+01 1.366908e+01 1.367318e+01 1.366648e+01 1.367077e+01 1.368704e+01 1.372271e+01 1.375273e+01 1.375584e+01 1.373127e+01 1.372272e+01 1.380642e+01 1.400625e+01 1.423782e+01 1.440737e+01 1.448713e+01 1.447933e+01 1.441329e+01 1.433851e+01 1.432013e+01 1.440146e+01 1.454405e+01 1.468507e+01 1.481401e+01 1.488794e+01 1.488249e+01 1.479216e+01 1.461983e+01 1.436396e+01 1.402004e+01 1.351051e+01 1.297730e+01 1.247209e+01 1.200352e+01 1.154892e+01 1.109437e+01 1.065496e+01 1.027032e+01 9.899106e+00 9.607290e+00 9.361146e+00 9.161933e+00 9.050637e+00 9.051826e+00 9.129561e+00 9.211591e+00 9.277865e+00 9.251955e+00 9.095194e+00 8.847870e+00 8.573970e+00 8.211918e+00 7.480231e+00 7.702100e+00 8.188878e+00
<VARIANCE> 128
 2.250551e+00 2.584689e+00 2.638887e+00 2.391722e+00 1.916824e+00 1.390694e+00 1.044420e+00 1.008462e+00 1.202355e+00 1.392779e+00 1.459179e+00 1.471135e+00 1.462268e+00 1.374734e+00 1.215322e+00 1.064271e+00 1.038822e+00 1.175281e+00 1.337328e+00 1.398498e+00 1.386610e+00 1.388767e+00 1.437842e+00 1.500321e+00 1.533243e+00 1.552649e+00 1.622372e+00 1.746789e+00 1.825840e+00 1.784579e+00 1.684672e+00 1.610664e+00 1.549578e+00 1.447520e+00 1.315063e+00 1.230455e+00 1.266810e+00 1.460669e+00 1.806684e+00 2.264921e+00 2.778505e+00 3.274744e+00 3.669361e+00 3.892646e+00 3.934157e+00 3.834776e+00 3.666128e+00 3.508724e+00 3.406658e+00 3.368257e+00 3.391145e+00 3.444304e+00 3.498184e+00 3.579601e+00 3.710945e+00 3.877902e+00 4.075164e+00 4.308409e+00 4.535735e+00 4.688309e+00 4.757489e+00 4.783880e+00 4.790147e+00 4.766759e+00 4.681734e+00 4.501953e+00 4.266705e+00 4.075997e+00 3.956549e+00 3.863601e+00 3.770206e+00 3.675105e+00 3.579647e+00 3.478918e+00 3.350785e+00 3.176337e+00 2.957840e+00 2.715826e+00 2.487829e+00 2.301888e+00 2.173403e+00 2.105810e+00 2.084791e+00 2.059538e+00 1.964767e+00 1.799782e+00 1.626731e+00 1.509396e+00 1.462323e+00 1.429542e+00 1.336952e+00 1.179725e+00 1.040970e+00 1.019051e+00 1.133464e+00 1.322262e+00 1.522254e+00 1.714575e+00 1.902570e+00 2.079182e+00 2.223922e+00 2.317326e+00 2.341975e+00 2.270921e+00 2.116856e+00 1.980731e+00 1.936763e+00 1.931966e+00 1.871548e+00 1.750899e+00 1.648683e+00 1.640512e+00 1.727875e+00 1.837246e+00 1.895571e+00 1.890829e+00 1.848998e+00 1.786720e+00 1.701608e+00 1.604643e+00 1.531061e+00 1.489743e+00 1.440614e+00 1.370468e+00 1.334015e+00 1.302042e+00 1.381855e+00 1.592723e+00
<GCONST> 3.290028e+02
<MIXTURE> 7 7.665239e-02
<MEAN> 128
 5.630413e+00 6.445826e+00 7.356409e+00 8.144829e+00 8.716324e+00 8.916081e+00 9.031174e+00 9.067716e+00 9.140455e+00 9.293720e+00 9.444789e+00 9.639529e+00 9.743245e+00 9.665239e+00 9.470300e+00 9.298162e+00 9.233082e+00 9.202541e+00 9.198772e+00 9.213832e+00 9.286600e+00 9.410515e+00 9.601061e+00 9.807217e+00 9.948411e+00 1.000927e+01 1.002557e+01 1.014330e+01 1.030624e+01 1.040094e+01 1.040964e+01 1.039172e+01 1.038218e+01 1.034448e+01 1.025778e+01 1.016263e+01 1.007672e+01 9.969878e+00 9.841457e+00 9.707515e+00 9.598853e+00 9.521933e+00 9.441950e+00 9.337845e+00 9.217475e+00 9.089136e+00 8.946476e+00 8.786429e+00 8.617607e+00 8.480492e+00 8.402599e+00 8.326838e+00 8.221791e+00 8.121922e+00 8.062793e+00 8.013820e+00 7.966428e+00 7.974026e+00 8.047495e+00 8.169747e+00 8.289502e+00 8.375882e+00 8.434974e+00 8.512361e+00 8.634565e+00 8.789562e+00 8.983335e+00 9.206501e+00 9.429963e+00 9.634058e+00 9.816965e+00 9.975189e+00 1.008449e+01 1.012401e+01 1.010594e+01 1.004257e+01 9.966967e+00 9.915215e+00 9.902082e+00 9.944281e+00 1.002822e+01 1.014782e+01 1.030733e+01 1.052611e+01 1.081976e+01 1.115504e+01 1.143937e+01 1.160579e+01 1.166298e+01 1.164600e+01 1.160286e+01 1.158240e+01 1.162985e+01 1.176436e+01 1.193991e+01 1.210746e+01 1.227845e+01 1.242978e+01 1.255108e+01 1.264182e+01 1.270469e+01 1.274955e+01 1.279887e+01 1.278506e+01 1.281284e+01 1.287828e+01 1.295739e+01 1.300938e+01 1.299715e+01 1.291413e+01 1.278600e+01 1.256013e+01 1.231196e+01 1.204483e+01 1.178046e+01 1.153006e+01 1.128142e+01 1.101880e+01 1.074062e+01 1.051088e+01 1.031377e+01 1.011737e+01 9.915213e+00 9.692830e+00 9.340986e+00 8.619426e+00 8.812799e+00 9.315718e+00
<VARIANCE> 128
 2.591607e+00 3.658957e+00 5.125377e+00 6.440050e+00 7.295435e+00 7.752309e+00 7.961615e+00 8.096951e+00 8.150702e+00 8.226324e+00 8.390059e+00 8.482649e+00 8.419669e+00 8.148214e+00 7.666503e+00 7.153740e+00 6.887709e+00 6.805349e+00 6.765804e+00 6.738322e+00 6.695935e+00 6.617824e+00 6.487781e+00 6.292597e+00 6.004714e+00 5.638099e+00 5.330315e+00 5.156952e+00 5.003525e+00 4.715342e+00 4.321667e+00 3.962504e+00 3.694005e+00 3.472046e+00 3.242022e+00 3.025118e+00 2.826804e+00 2.644284e+00 2.474204e+00 2.329830e+00 2.220599e+00 2.129264e+00 2.054782e+00 1.984041e+00 1.925673e+00 1.872515e+00 1.819998e+00 1.760407e+00 1.700717e+00 1.653412e+00 1.633020e+00 1.630390e+00 1.623262e+00 1.628522e+00 1.661996e+00 1.714492e+00 1.766166e+00 1.835721e+00 1.928093e+00 2.016557e+00 2.082350e+00 2.125834e+00 2.155793e+00 2.164713e+00 2.133205e+00 2.065069e+00 1.994751e+00 1.952110e+00 1.927037e+00 1.913076e+00 1.911015e+00 1.908482e+00 1.889639e+00 1.854637e+00 1.809898e+00 1.750227e+00 1.677094e+00 1.595304e+00 1.501347e+00 1.412724e+00 1.350099e+00 1.316053e+00 1.310130e+00 1.347145e+00 1.464037e+00 1.652249e+00 1.844871e+00 1.979314e+00 2.041099e+00 2.063645e+00 2.091352e+00 2.161870e+00 2.300793e+00 2.505727e+00 2.753287e+00 3.007836e+00 3.245558e+00 3.474931e+00 3.717889e+00 4.012659e+00 4.395452e+00 4.866042e+00 5.402178e+00 5.988180e+00 6.585294e+00 7.118479e+00 7.556180e+00 7.933558e+00 8.300783e+00 8.690319e+00 9.093596e+00 9.453800e+00 9.712288e+00 9.866328e+00 9.944009e+00 9.921734e+00 9.755633e+00 9.443682e+00 9.011050e+00 8.513727e+00 8.048970e+00 7.708041e+00 7.532264e+00 7.517483e+00 7.591775e+00 7.609662e+00 7.784471e+00 7.960820e+00
<GCONST> 3.999240e+02
<MIXTURE> 8 6.557563e-02
<MEAN> 128
 4.984521e+00 5.701426e+00 6.505416e+00 7.208234e+00 7.669101e+00 7.718356e+00 7.659428e+00 7.545178e+00 7.496172e+00 7.601756e+00 7.777856e+00 8.004119e+00 8.119200e+00 8.011443e+00 7.751928e+00 7.520196e+00 7.433519e+00 7.378489e+00 7.316026e+00 7.226016e+00 7.187665e+00 7.213520e+00 7.333852e+00 7.474624e+00 7.468134e+00 7.266422e+00 6.920597e+00 6.697092e+00 6.628799e+00 6.515944e+00 6.293189e+00 6.069674e+00 5.942889e+00 5.807294e+00 5.622194e+00 5.468560e+00 5.360943e+00 5.232521e+00 5.062641e+00 4.875650e+00 4.708714e+00 4.590785e+00 4.458476e+00 4.297884e+00 4.148928e+00 4.019893e+00 3.903358e+00 3.802109e+00 3.709665e+00 3.641523e+00 3.595317e+00 3.515782e+00 3.395082e+00 3.280671e+00 3.194977e+00 3.122077e+00 3.060793e+00 3.041134e+00 3.054238e+00 3.093912e+00 3.134035e+00 3.159131e+00 3.168773e+00 3.188964e+00 3.228291e+00 3.265965e+00 3.316096e+00 3.387735e+00 3.463040e+00 3.524324e+00 3.572678e+00 3.620699e+00 3.670524e+00 3.710585e+00 3.748763e+00 3.786463e+00 3.834822e+00 3.902419e+00 3.983028e+00 4.083682e+00 4.193604e+00 4.306941e+00 4.415620e+00 4.524095e+00 4.644174e+00 4.777438e+00 4.899020e+00 4.992854e+00 5.070423e+00 5.134326e+00 5.194818e+00 5.267276e+00 5.365478e+00 5.491100e+00 5.603062e+00 5.671679e+00 5.730212e+00 5.773633e+00 5.804712e+00 5.831358e+00 5.859002e+00 5.887434e+00 5.913373e+00 5.841307e+00 5.765578e+00 5.692938e+00 5.622396e+00 5.547040e+00 5.458813e+00 5.357547e+00 5.250461e+00 5.066595e+00 4.880292e+00 4.690300e+00 4.499974e+00 4.311223e+00 4.123877e+00 3.938869e+00 3.757064e+00 3.622168e+00 3.497927e+00 3.351416e+00 3.176620e+00 2.961096e+00 2.613067e+00 1.918189e+00 2.113907e+00 2.618882e+00
<VARIANCE> 128
 3.063097e+00 3.615899e+00 4.826746e+00 5.881973e+00 6.242207e+00 5.892542e+00 5.254483e+00 4.770268e+00 4.622223e+00 4.903306e+00 5.571431e+00 6.170143e+00 6.229732e+00 5.657282e+00 4.635572e+00 3.766652e+00 3.543346e+00 3.585979e+00 3.543321e+00 3.367369e+00 3.148847e+00 3.033499e+00 3.024690e+00 3.161369e+00 3.235333e+00 3.033036e+00 2.665096e+00 2.739901e+00 3.241128e+00 3.487859e+00 3.280185e+00 3.096238e+00 3.239526e+00 3.278463e+00 2.996732e+00 2.673105e+00 2.452041e+00 2.320513e+00 2.190135e+00 2.084091e+00 2.008549e+00 1.996437e+00 1.940391e+00 1.820946e+00 1.696307e+00 1.570727e+00 1.449604e+00 1.331266e+00 1.208546e+00 1.125884e+00 1.105616e+00 1.084620e+00 1.021582e+00 9.596119e-01 9.375700e-01 9.263393e-01 8.863818e-01 8.491765e-01 8.539914e-01 8.860500e-01 9.071902e-01 9.019588e-01 8.856308e-01 8.897240e-01 9.114844e-01 9.329792e-01 9.797739e-01 1.061938e+00 1.141973e+00 1.181350e+00 1.190843e+00 1.174888e+00 1.126976e+00 1.062639e+00 9.952900e-01 9.216579e-01 8.584768e-01 8.168483e-01 7.797719e-01 7.501447e-01 7.460223e-01 7.591994e-01 7.692761e-01 7.665732e-01 7.681190e-01 7.915010e-01 8.190879e-01 8.279618e-01 8.078707e-01 7.674513e-01 7.255734e-01 7.000231e-01 7.064605e-01 7.510548e-01 8.181068e-01 8.830203e-01 9.261492e-01 9.408895e-01 9.344851e-01 9.239194e-01 9.264731e-01 9.406509e-01 9.486756e-01 9.360094e-01 9.029877e-01 8.669275e-01 8.481102e-01 8.450651e-01 8.368540e-01 8.160737e-01 7.927210e-01 7.718426e-01 7.435427e-01 7.023183e-01 6.579499e-01 6.215038e-01 6.015673e-01 6.006509e-01 6.160005e-01 6.418367e-01 6.653147e-01 6.766083e-01 6.751168e-01 6.613795e-01 6.465451e-01 6.725320e-01 6.899728e-01 6.941497e-01
<GCONST> 2.777371e+02
<TRANSP> 3
 0.000000e+00 1.000000e+00 0.000000e+00
 0.000000e+00 9.953883e-01 4.611738e-03
 0.000000e+00 0.000000e+00 0.000000e+00
<ENDHMM>
~h "spkr4"
<BEGINHMM>
<NUMSTATES> 3
<STATE> 2
<NUMMIXES> 8
<MIXTURE> 1 1.164418e-01
<MEAN> 128
 4.914729e+00 5.340704e+00 5.867307e+00 6.412995e+00 6.955139e+00 7.373497e+00 7.888874e+00 8.444945e+00 9.136574e+00 9.995856e+00 1.088576e+01 1.187321e+01 1.293890e+01 1.403549e+01 1.514151e+01 1.623938e+01 1.725414e+01 1.803934e+01 1.854787e+01 1.873729e+01 1.861474e+01 1.821121e+01 1.764096e+01 1.701601e+01 1.642980e+01 1.597665e+01 1.572491e+01 1.579456e+01 1.617872e+01 1.678731e+01 1.750927e+01 1.822364e+01 1.881967e+01 1.921903e+01 1.937270e+01 1.928573e+01 1.902794e+01 1.869680e+01 1.842246e+01 1.828018e+01 1.829470e+01 1.844110e+01 1.864972e+01 1.882707e+01 1.889293e+01 1.879935e+01 1.854750e+01 1.818637e+01 1.778452e+01 1.740133e+01 1.708132e+01 1.682328e+01 1.660192e+01 1.637840e+01 1.612615e+01 1.585184e+01 1.562641e+01 1.552630e+01 1.550552e+01 1.549984e+01 1.546055e+01 1.538371e+01 1.527052e+01 1.512433e+01 1.496683e+01 1.481739e+01 1.470289e+01 1.464279e+01 1.468395e+01 1.484924e+01 1.507977e+01 1.531572e+01 1.552620e+01 1.569474e+01 1.584761e+01 1.601761e+01 1.620699e+01 1.639302e+01 1.654876e+01 1.665362e+01 1.667397e+01 1.660957e+01 1.648578e+01 1.635357e+01 1.627322e+01 1.627851e+01 1.635146e+01 1.645671e+01 1.658490e+01 1.672145e+01 1.684897e+01 1.694361e+01 1.697868e+01 1.692818e+01 1.675100e+01 1.643953e+01 1.605815e+01 1.564373e+01 1.525440e+01 1.495274e+01 1.477544e+01 1.472513e+01 1.479372e+01 1.487060e+01 1.499637e+01 1.510382e+01 1.514222e+01 1.508959e+01 1.494979e+01 1.474614e+01 1.449811e+01 1.411222e+01 1.361713e+01 1.298616e+01 1.223106e+01 1.138426e+01 1.049257e+01 9.627873e+00 8.900167e+00 8.501734e+00 8.508266e+00 8.836319e+00 9.280782e+00 9.618387e+00 9.611606e+00 8.916161e+00 9.402000e+00 1.006212e+01
<VARIANCE> 128
 4.193129e+00 4.343552e+00 4.360127e+00 4.122780e+00 3.608245e+00 2.935390e+00 2.335038e+00 1.916604e+00 1.684479e+00 1.588410e+00 1.580647e+00 1.645557e+00 1.766126e+00 1.899772e+00 1.977577e+00 1.915293e+00 1.660843e+00 1.267190e+00 9.236215e-01 8.308576e-01 1.032964e+00 1.379140e+00 1.665580e+00 1.766953e+00 1.648247e+00 1.364928e+00 1.097575e+00 1.079626e+00 1.339407e+00 1.665979e+00 1.835913e+00 1.762609e+00 1.551500e+00 1.422928e+00 1.563759e+00 1.949085e+00 2.278636e+00 2.254663e+00 1.906823e+00 1.543054e+00 1.421719e+00 1.558775e+00 1.805894e+00 2.040139e+00 2.251598e+00 2.467401e+00 2.654082e+00 2.744740e+00 2.768703e+00 2.833619e+00 2.964295e+00 3.069525e+00 3.081090e+00 3.039187e+00 3.023056e+00 3.054329e+00 3.046370e+00 2.927615e+00 2.785691e+00 2.747370e+00 2.814445e+00 2.887437e+00 2.933132e+00 3.002760e+00 3.083184e+00 3.122768e+00 3.110469e+00 3.098395e+00 3.032138e+00 2.843952e+00 2.627143e+00 2.458129e+00 2.316952e+00 2.184371e+00 2.075179e+00 1.974432e+00 1.871322e+00 1.771984e+00 1.682661e+00 1.627381e+00 1.607466e+00 1.602208e+00 1.571340e+00 1.477422e+00 1.323660e+00 1.157360e+00 1.011396e+00 8.859477e-01 7.786981e-01 7.005235e-01 6.701539e-01 7.211022e-01 8.724030e-01 1.077834e+00 1.243712e+00 1.305311e+00 1.257853e+00 1.128417e+00 9.648890e-01 8.369808e-01 8.018140e-01 8.563413e-01 9.478086e-01 1.036977e+00 1.136541e+00 1.284721e+00 1.477130e+00 1.663045e+00 1.794117e+00 1.855603e+00 1.878456e+00 1.902660e+00 1.928250e+00 1.936270e+00 1.920536e+00 1.876347e+00 1.784910e+00 1.629304e+00 1.441207e+00 1.342444e+00 1.405809e+00 1.464549e+00 1.379456e+00 1.236789e+00 1.150716e+00 1.131348e+00 1.116244e+00 1.178266e+00
<GCONST> 3.064960e+02
<MIXTURE> 2 1.285388e-01
<MEAN> 128
 4.947949e+00 5.404635e+00 5.888624e+00 6.347122e+00 6.798403e+00 7.113743e+00 7.463634e+00 7.735081e+00 7.999482e+00 8.325288e+00 8.639732e+00 9.010741e+00 9.370673e+00 9.657927e+00 9.916389e+00 1.026392e+01 1.060933e+01 1.086403e+01 1.099830e+01 1.098069e+01 1.086994e+01 1.071484e+01 1.057276e+01 1.047585e+01 1.041715e+01 1.041134e+01 1.046867e+01 1.064146e+01 1.087269e+01 1.109489e+01 1.128522e+01 1.145799e+01 1.160717e+01 1.169522e+01 1.172000e+01 1.171562e+01 1.170174e+01 1.165781e+01 1.159357e+01 1.151234e+01 1.142523e+01 1.133501e+01 1.121607e+01 1.104649e+01 1.083668e+01 1.061017e+01 1.038739e+01 1.017191e+01 9.977084e+00 9.840486e+00 9.796517e+00 9.810170e+00 9.834243e+00 9.853586e+00 9.873340e+00 9.885473e+00 9.892340e+00 9.921708e+00 9.975848e+00 1.006683e+01 1.015179e+01 1.018554e+01 1.016291e+01 1.011480e+01 1.005548e+01 9.978432e+00 9.915407e+00 9.904753e+00 9.955792e+00 1.005095e+01 1.016800e+01 1.029443e+01 1.041326e+01 1.052128e+01 1.066938e+01 1.089711e+01 1.120614e+01 1.156345e+01 1.190745e+01 1.219458e+01 1.238700e+01 1.248636e+01 1.251639e+01 1.251714e+01 1.253337e+01 1.258865e+01 1.266005e+01 1.272365e+01 1.279765e+01 1.291361e+01 1.310539e+01 1.337025e+01 1.365403e+01 1.388233e+01 1.398012e+01 1.392800e+01 1.379952e+01 1.364859e+01 1.353530e+01 1.349027e+01 1.350623e+01 1.356713e+01 1.367713e+01 1.375643e+01 1.388474e+01 1.402546e+01 1.414077e+01 1.420904e+01 1.422606e+01 1.420503e+01 1.416729e+01 1.404119e+01 1.389922e+01 1.374883e+01 1.358258e+01 1.338091e+01 1.314779e+01 1.289931e+01 1.264164e+01 1.243435e+01 1.227005e+01 1.212146e+01 1.196611e+01 1.177983e+01 1.145055e+01 1.073478e+01 1.094401e+01 1.145799e+01
<VARIANCE> 128
 3.345237e+00 3.509914e+00 3.636065e+00 3.637148e+00 3.443286e+00 3.100270e+00 2.817165e+00 2.781448e+00 3.085056e+00 3.744488e+00 4.666245e+00 5.768147e+00 7.088733e+00 8.673892e+00 1.047866e+01 1.222620e+01 1.375827e+01 1.455503e+01 1.456538e+01 1.392064e+01 1.274286e+01 1.128738e+01 9.773358e+00 8.338582e+00 7.135166e+00 6.239766e+00 5.666503e+00 5.359033e+00 5.257316e+00 5.297492e+00 5.426145e+00 5.563924e+00 5.604567e+00 5.496056e+00 5.201898e+00 4.763256e+00 4.281403e+00 3.808696e+00 3.359813e+00 2.958164e+00 2.628099e+00 2.370113e+00 2.165071e+00 1.988771e+00 1.822884e+00 1.677647e+00 1.563195e+00 1.479451e+00 1.413263e+00 1.374267e+00 1.367810e+00 1.361039e+00 1.334037e+00 1.298916e+00 1.275729e+00 1.263162e+00 1.245723e+00 1.223366e+00 1.220457e+00 1.253577e+00 1.304327e+00 1.347508e+00 1.380635e+00 1.417873e+00 1.462998e+00 1.502931e+00 1.550540e+00 1.622056e+00 1.692158e+00 1.728466e+00 1.736531e+00 1.734317e+00 1.721632e+00 1.700717e+00 1.684412e+00 1.681693e+00 1.698499e+00 1.710995e+00 1.695981e+00 1.670330e+00 1.662281e+00 1.678136e+00 1.700445e+00 1.710952e+00 1.704907e+00 1.688409e+00 1.668236e+00 1.647001e+00 1.621921e+00 1.594479e+00 1.583849e+00 1.601644e+00 1.636824e+00 1.667917e+00 1.674785e+00 1.652690e+00 1.623433e+00 1.633721e+00 1.721684e+00 1.877761e+00 2.055850e+00 2.220896e+00 2.371821e+00 2.521156e+00 2.673393e+00 2.832457e+00 3.011328e+00 3.225028e+00 3.466908e+00 3.702496e+00 3.908263e+00 4.095363e+00 4.295036e+00 4.544207e+00 4.847898e+00 5.171045e+00 5.479373e+00 5.740670e+00 5.909888e+00 5.945341e+00 5.852988e+00 5.680373e+00 5.492097e+00 5.375714e+00 5.369651e+00 5.369821e+00 5.435706e+00 5.541325e+00
<GCONST> 3.728316e+02
<MIXTURE> 3 1.633115e-01
<MEAN> 128
 4.321584e+00 4.782755e+00 5.369893e+00 6.060079e+00 6.859712e+00 7.625759e+00 8.524985e+00 9.460907e+00 1.049487e+01 1.161985e+01 1.270107e+01 1.379908e+01 1.485862e+01 1.578011e+01 1.650203e+01 1.701017e+01 1.728601e+01 1.728436e+01 1.707478e+01 1.671565e+01 1.629173e+01 1.590249e+01 1.569431e+01 1.570683e+01 1.588512e+01 1.617093e+01 1.647286e+01 1.677382e+01 1.702170e+01 1.718020e+01 1.724558e+01 1.723841e+01 1.721144e+01 1.721321e+01 1.724010e+01 1.725458e+01 1.720775e+01 1.704903e+01 1.678878e+01 1.646386e+01 1.614327e+01 1.587576e+01 1.565731e+01 1.544375e+01 1.518215e+01 1.484242e+01 1.444045e+01 1.404787e+01 1.376092e+01 1.362142e+01 1.358739e+01 1.355772e+01 1.346906e+01 1.331964e+01 1.315147e+01 1.300697e+01 1.292434e+01 1.290641e+01 1.287878e+01 1.282541e+01 1.275169e+01 1.265600e+01 1.252207e+01 1.235445e+01 1.218515e+01 1.203577e+01 1.192200e+01 1.185935e+01 1.188539e+01 1.201836e+01 1.222304e+01 1.244358e+01 1.263369e+01 1.276546e+01 1.285832e+01 1.293696e+01 1.301571e+01 1.309198e+01 1.314978e+01 1.318370e+01 1.317341e+01 1.312775e+01 1.307269e+01 1.304603e+01 1.308154e+01 1.318601e+01 1.332670e+01 1.347672e+01 1.363801e+01 1.379569e+01 1.392847e+01 1.401158e+01 1.402488e+01 1.395466e+01 1.376947e+01 1.346392e+01 1.310246e+01 1.271958e+01 1.237409e+01 1.212618e+01 1.199480e+01 1.195907e+01 1.199404e+01 1.198392e+01 1.198860e+01 1.198208e+01 1.195617e+01 1.191712e+01 1.186414e+01 1.177775e+01 1.162055e+01 1.126363e+01 1.074377e+01 1.007238e+01 9.305411e+00 8.515471e+00 7.783415e+00 7.201247e+00 6.860647e+00 6.847415e+00 7.067296e+00 7.370924e+00 7.648924e+00 7.816158e+00 7.720990e+00 6.975970e+00 7.476605e+00 8.155592e+00
<VARIANCE> 128
 3.405224e+00 3.226187e+00 2.957904e+00 2.557259e+00 2.095482e+00 1.728692e+00 1.584766e+00 1.685814e+00 1.967929e+00 2.332619e+00 2.696851e+00 2.952446e+00 2.948949e+00 2.599365e+00 2.042228e+00 1.649348e+00 1.799920e+00 2.572082e+00 3.678750e+00 4.649821e+00 5.037816e+00 4.510617e+00 3.217046e+00 1.904937e+00 1.234707e+00 1.275314e+00 1.688123e+00 2.088767e+00 2.355038e+00 2.653412e+00 3.161443e+00 3.772955e+00 4.116404e+00 3.942816e+00 3.368374e+00 2.707875e+00 2.240433e+00 2.066115e+00 2.140148e+00 2.318352e+00 2.431193e+00 2.461659e+00 2.483473e+00 2.529610e+00 2.632598e+00 2.776233e+00 2.949335e+00 3.196766e+00 3.577118e+00 4.005257e+00 4.283520e+00 4.311046e+00 4.167022e+00 4.033751e+00 4.048721e+00 4.158141e+00 4.147446e+00 3.934330e+00 3.677576e+00 3.540271e+00 3.482714e+00 3.351306e+00 3.154930e+00 3.047102e+00 3.077818e+00 3.175965e+00 3.291458e+00 3.435848e+00 3.578489e+00 3.680414e+00 3.754748e+00 3.815706e+00 3.836207e+00 3.816114e+00 3.784646e+00 3.741005e+00 3.689636e+00 3.648757e+00 3.591194e+00 3.484257e+00 3.331751e+00 3.147798e+00 2.953168e+00 2.783677e+00 2.674689e+00 2.624406e+00 2.577477e+00 2.481158e+00 2.315803e+00 2.088513e+00 1.825815e+00 1.587722e+00 1.439783e+00 1.395839e+00 1.412773e+00 1.427883e+00 1.401661e+00 1.331014e+00 1.241226e+00 1.189773e+00 1.236941e+00 1.395030e+00 1.649738e+00 1.983127e+00 2.361911e+00 2.717354e+00 2.951228e+00 2.988769e+00 2.859416e+00 2.685905e+00 2.578444e+00 2.562732e+00 2.590528e+00 2.596163e+00 2.532767e+00 2.378097e+00 2.165675e+00 1.992993e+00 1.948765e+00 2.028336e+00 2.100385e+00 2.012853e+00 1.756397e+00 1.501527e+00 1.393667e+00 1.343405e+00 1.416213e+00 1.572596e+00
<GCONST> 3.552079e+02
<MIXTURE> 4 1.020851e-01
<MEAN> 128
 3.819012e+00 4.319913e+00 4.908612e+00 5.544058e+00 6.247543e+00 6.889597e+00 7.639878e+00 8.399788e+00 9.260024e+00 1.023543e+01 1.119254e+01 1.215691e+01 1.303078e+01 1.368963e+01 1.407798e+01 1.425907e+01 1.423748e+01 1.399025e+01 1.360478e+01 1.313311e+01 1.263464e+01 1.215228e+01 1.177694e+01 1.155388e+01 1.150061e+01 1.159633e+01 1.174193e+01 1.193426e+01 1.201385e+01 1.191115e+01 1.166098e+01 1.137507e+01 1.115991e+01 1.098543e+01 1.082223e+01 1.068836e+01 1.058585e+01 1.043105e+01 1.020148e+01 9.906243e+00 9.591303e+00 9.330112e+00 9.092736e+00 8.834395e+00 8.555927e+00 8.261710e+00 7.959473e+00 7.658369e+00 7.405379e+00 7.306582e+00 7.366713e+00 7.425491e+00 7.364205e+00 7.186401e+00 6.983254e+00 6.817714e+00 6.683140e+00 6.593600e+00 6.581844e+00 6.694870e+00 6.841849e+00 6.923369e+00 6.890394e+00 6.773403e+00 6.589864e+00 6.330499e+00 6.048740e+00 5.843476e+00 5.810931e+00 5.972757e+00 6.260452e+00 6.583524e+00 6.861842e+00 7.047601e+00 7.165089e+00 7.227928e+00 7.233531e+00 7.195302e+00 7.137064e+00 7.091466e+00 7.062409e+00 7.065506e+00 7.136951e+00 7.305751e+00 7.538448e+00 7.759820e+00 7.897151e+00 7.931601e+00 7.898999e+00 7.846796e+00 7.833768e+00 7.889527e+00 7.989722e+00 8.072082e+00 8.048716e+00 7.876682e+00 7.611287e+00 7.297044e+00 6.996405e+00 6.754093e+00 6.581316e+00 6.473429e+00 6.437891e+00 6.408447e+00 6.489564e+00 6.648966e+00 6.823511e+00 6.953878e+00 6.996948e+00 6.933059e+00 6.761947e+00 6.409736e+00 5.965890e+00 5.474195e+00 4.990940e+00 4.564448e+00 4.227839e+00 3.982591e+00 3.800888e+00 3.708260e+00 3.668790e+00 3.639778e+00 3.590320e+00 3.477437e+00 3.195354e+00 2.523140e+00 2.758995e+00 3.282161e+00
<VARIANCE> 128
 1.758439e+00 1.697021e+00 1.774875e+00 1.819808e+00 1.757557e+00 1.764879e+00 2.114346e+00 2.974675e+00 4.330625e+00 6.063686e+00 7.940916e+00 9.854895e+00 1.170308e+01 1.319865e+01 1.405536e+01 1.382069e+01 1.303077e+01 1.214564e+01 1.121235e+01 1.021269e+01 9.176400e+00 8.147958e+00 7.265291e+00 6.781963e+00 6.888934e+00 7.505773e+00 8.357919e+00 8.817963e+00 8.987446e+00 8.913458e+00 8.653000e+00 8.244808e+00 7.824242e+00 7.568130e+00 7.501451e+00 7.653690e+00 7.854737e+00 7.795600e+00 7.423863e+00 6.862744e+00 6.270861e+00 5.767932e+00 5.408441e+00 5.059343e+00 4.673672e+00 4.268119e+00 3.885273e+00 3.542924e+00 3.231212e+00 3.008737e+00 2.931903e+00 2.928394e+00 2.960440e+00 3.003511e+00 2.962806e+00 2.837365e+00 2.764268e+00 2.767909e+00 2.811834e+00 2.854228e+00 2.928889e+00 2.961750e+00 2.934776e+00 2.829527e+00 2.684037e+00 2.563045e+00 2.503105e+00 2.524596e+00 2.591019e+00 2.641931e+00 2.658597e+00 2.661620e+00 2.647242e+00 2.620782e+00 2.587775e+00 2.549679e+00 2.469988e+00 2.327188e+00 2.146368e+00 1.958975e+00 1.795849e+00 1.683422e+00 1.646584e+00 1.731478e+00 1.923819e+00 2.137835e+00 2.281649e+00 2.323643e+00 2.285277e+00 2.212204e+00 2.155430e+00 2.143495e+00 2.170825e+00 2.190593e+00 2.152135e+00 2.027368e+00 1.823123e+00 1.586052e+00 1.401955e+00 1.344029e+00 1.401084e+00 1.505404e+00 1.609737e+00 1.699880e+00 1.766537e+00 1.811230e+00 1.854421e+00 1.902228e+00 1.931881e+00 1.924834e+00 1.888563e+00 1.825087e+00 1.740848e+00 1.675457e+00 1.655470e+00 1.665342e+00 1.679367e+00 1.681863e+00 1.667275e+00 1.653757e+00 1.661621e+00 1.679891e+00 1.693888e+00 1.706453e+00 1.715204e+00 1.668230e+00 1.791679e+00 1.902791e+00
<GCONST> 3.821646e+02
<MIXTURE> 5 1.695898e-01
<MEAN> 128
 4.022777e+00 4.478977e+00 5.076439e+00 5.806710e+00 6.683900e+00 7.547342e+00 8.542861e+00 9.562780e+00 1.066655e+01 1.184713e+01 1.297009e+01 1.409386e+01 1.515410e+01 1.604618e+01 1.671433e+01 1.716085e+01 1.738964e+01 1.736529e+01 1.715551e+01 1.681207e+01 1.641035e+01 1.602359e+01 1.576761e+01 1.570057e+01 1.579640e+01 1.597827e+01 1.613498e+01 1.625950e+01 1.633011e+01 1.634228e+01 1.630722e+01 1.623846e+01 1.617017e+01 1.614241e+01 1.614830e+01 1.613396e+01 1.603263e+01 1.578504e+01 1.541000e+01 1.495803e+01 1.450247e+01 1.410065e+01 1.377540e+01 1.349940e+01 1.321000e+01 1.284441e+01 1.239009e+01 1.190469e+01 1.149805e+01 1.125467e+01 1.114347e+01 1.104690e+01 1.089083e+01 1.067356e+01 1.044527e+01 1.026109e+01 1.015528e+01 1.013419e+01 1.015375e+01 1.021687e+01 1.029200e+01 1.031837e+01 1.025245e+01 1.010797e+01 9.917839e+00 9.693613e+00 9.463672e+00 9.285954e+00 9.232110e+00 9.331758e+00 9.540229e+00 9.780656e+00 9.984242e+00 1.011217e+01 1.019077e+01 1.025356e+01 1.032153e+01 1.039945e+01 1.047054e+01 1.052831e+01 1.055605e+01 1.056813e+01 1.060589e+01 1.071767e+01 1.091114e+01 1.113354e+01 1.130916e+01 1.140650e+01 1.144969e+01 1.146604e+01 1.148475e+01 1.151275e+01 1.152266e+01 1.147075e+01 1.130206e+01 1.100091e+01 1.062817e+01 1.022314e+01 9.852260e+00 9.578553e+00 9.423822e+00 9.377988e+00 9.432845e+00 9.490700e+00 9.613918e+00 9.754397e+00 9.871582e+00 9.945435e+00 9.958433e+00 9.885905e+00 9.701447e+00 9.299271e+00 8.740910e+00 8.056101e+00 7.311128e+00 6.586004e+00 5.968086e+00 5.537620e+00 5.339209e+00 5.404848e+00 5.625238e+00 5.871615e+00 6.059612e+00 6.131686e+00 5.978137e+00 5.262415e+00 5.684558e+00 6.324509e+00
<VARIANCE> 128
 2.025159e+00 1.785314e+00 1.558161e+00 1.330428e+00 1.128182e+00 1.047475e+00 1.163966e+00 1.476641e+00 1.910374e+00 2.372741e+00 2.794169e+00 3.074291e+00 3.091500e+00 2.792043e+00 2.352484e+00 2.173939e+00 2.600060e+00 3.664160e+00 5.027122e+00 6.147016e+00 6.514550e+00 5.912856e+00 4.595410e+00 3.135024e+00 2.091458e+00 1.717211e+00 1.797181e+00 1.926914e+00 1.942892e+00 1.995725e+00 2.300880e+00 2.870790e+00 3.428603e+00 3.608126e+00 3.301605e+00 2.751324e+00 2.253873e+00 1.919809e+00 1.690952e+00 1.506858e+00 1.401654e+00 1.454428e+00 1.653165e+00 1.888865e+00 2.080257e+00 2.240501e+00 2.411152e+00 2.585088e+00 2.697497e+00 2.750749e+00 2.826756e+00 2.920244e+00 2.963062e+00 2.954830e+00 2.943440e+00 2.950716e+00 2.968374e+00 2.974866e+00 2.998744e+00 3.027925e+00 3.038939e+00 3.056568e+00 3.148540e+00 3.312754e+00 3.480645e+00 3.604669e+00 3.716348e+00 3.841376e+00 3.954207e+00 4.007367e+00 3.972826e+00 3.878151e+00 3.768617e+00 3.683684e+00 3.626503e+00 3.577845e+00 3.504910e+00 3.382279e+00 3.204427e+00 2.971258e+00 2.701202e+00 2.445843e+00 2.272286e+00 2.235518e+00 2.337864e+00 2.530573e+00 2.732060e+00 2.887825e+00 2.979859e+00 2.985255e+00 2.877475e+00 2.679391e+00 2.490363e+00 2.399086e+00 2.382202e+00 2.359893e+00 2.289745e+00 2.169221e+00 2.038064e+00 1.979185e+00 2.059813e+00 2.263966e+00 2.514815e+00 2.709167e+00 2.784897e+00 2.777682e+00 2.747455e+00 2.677756e+00 2.542678e+00 2.396099e+00 2.314028e+00 2.308911e+00 2.323560e+00 2.297868e+00 2.206411e+00 2.046240e+00 1.840922e+00 1.667496e+00 1.614374e+00 1.694570e+00 1.830171e+00 1.898145e+00 1.833697e+00 1.705922e+00 1.622913e+00 1.527103e+00 1.632362e+00 1.802198e+00
<GCONST> 3.523018e+02
<MIXTURE> 6 9.762079e-02
<MEAN> 128
