~o
<STREAMINFO> 1 128
<VECSIZE> 128<NULLD><USER><DIAGC>
~h "spkr1"
<BEGINHMM>
<NUMSTATES> 3
<STATE> 2
<NUMMIXES> 16
<MIXTURE> 1 5.588596e-02
<MEAN> 128
 7.313853e+00 8.476374e+00 9.908300e+00 1.137891e+01 1.286252e+01 1.419945e+01 1.549125e+01 1.655812e+01 1.738653e+01 1.794182e+01 1.812767e+01 1.809909e+01 1.794226e+01 1.775349e+01 1.765616e+01 1.773014e+01 1.791931e+01 1.811804e+01 1.832438e+01 1.850465e+01 1.863466e+01 1.869546e+01 1.874261e+01 1.881200e+01 1.890005e+01 1.897758e+01 1.897600e+01 1.893058e+01 1.887856e+01 1.888679e+01 1.899056e+01 1.914004e+01 1.926307e+01 1.931740e+01 1.929463e+01 1.921091e+01 1.907310e+01 1.885616e+01 1.856886e+01 1.821835e+01 1.783513e+01 1.746193e+01 1.711320e+01 1.677559e+01 1.643486e+01 1.607889e+01 1.569714e+01 1.528801e+01 1.486945e+01 1.447268e+01 1.412399e+01 1.382069e+01 1.357226e+01 1.339417e+01 1.328310e+01 1.319197e+01 1.308393e+01 1.296084e+01 1.281796e+01 1.269695e+01 1.260072e+01 1.250577e+01 1.242849e+01 1.242541e+01 1.250451e+01 1.263401e+01 1.283273e+01 1.311465e+01 1.343919e+01 1.376118e+01 1.405684e+01 1.430556e+01 1.448004e+01 1.456538e+01 1.458532e+01 1.455815e+01 1.450541e+01 1.445023e+01 1.439606e+01 1.434775e+01 1.430109e+01 1.428732e+01 1.434950e+01 1.452310e+01 1.482018e+01 1.519529e+01 1.554423e+01 1.579161e+01 1.592652e+01 1.595138e+01 1.587882e+01 1.572856e+01 1.553840e+01 1.535164e+01 1.516447e+01 1.496361e+01 1.479097e+01 1.466028e+01 1.457916e+01 1.450937e+01 1.439879e+01 1.422337e+01 1.398946e+01 1.361841e+01 1.320121e+01 1.273511e+01 1.226277e+01 1.189880e+01 1.174738e+01 1.176082e+01 1.176578e+01 1.153940e+01 1.111394e+01 1.054680e+01 9.944320e+00 9.397724e+00 8.965689e+00 8.701878e+00 8.646120e+00 8.803542e+00 9.030573e+00 9.189642e+00 9.226455e+00 9.139688e+00 8.857411e+00 8.144631e+00 8.392868e+00 8.912685e+00
<VARIANCE> 128
 7.990329e-01 9.434144e-01 1.433116e+00 2.016635e+00 2.632808e+00 3.088162e+00 3.087773e+00 2.611051e+00 1.962221e+00 1.605656e+00 1.796354e+00 2.368656e+00 2.840965e+00 2.699759e+00 1.993708e+00 1.164066e+00 7.281405e-01 6.420569e-01 7.011642e-01 8.277689e-01 1.056858e+00 1.364003e+00 1.620462e+00 1.691526e+00 1.519205e+00 1.190390e+00 8.868554e-01 7.638249e-01 8.626145e-01 1.064294e+00 1.213796e+00 1.247453e+00 1.172840e+00 1.046159e+00 9.412055e-01 9.274819e-01 1.032958e+00 1.229127e+00 1.448627e+00 1.653998e+00 1.861784e+00 2.094796e+00 2.327387e+00 2.474167e+00 2.518704e+00 2.532333e+00 2.558864e+00 2.566011e+00 2.507994e+00 2.404994e+00 2.320076e+00 2.259388e+00 2.224572e+00 2.242007e+00 2.305952e+00 2.391415e+00 2.480053e+00 2.573642e+00 2.709359e+00 2.902838e+00 3.110289e+00 3.288916e+00 3.430477e+00 3.563344e+00 3.680901e+00 3.759926e+00 3.828945e+00 3.880637e+00 3.857036e+00 3.728149e+00 3.479589e+00 3.112441e+00 2.643022e+00 2.111957e+00 1.619450e+00 1.269091e+00 1.092496e+00 1.045317e+00 1.041308e+00 1.026538e+00 1.002963e+00 9.859861e-01 9.615684e-01 8.904027e-01 7.887344e-01 7.314323e-01 7.805022e-01 9.271710e-01 1.100308e+00 1.226817e+00 1.271182e+00 1.235532e+00 1.144708e+00 1.030390e+00 9.179254e-01 8.223639e-01 7.412049e-01 6.731828e-01 6.367306e-01 6.463216e-01 7.017866e-01 7.945905e-01 9.099837e-01 1.016430e+00 1.067580e+00 1.024061e+00 8.734637e-01 6.987811e-01 6.725307e-01 8.075318e-01 9.449078e-01 1.000890e+00 9.842396e-01 9.170001e-01 8.430762e-01 8.158954e-01 8.344578e-01 8.804443e-01 9.420269e-01 9.685635e-01 9.299495e-01 8.566926e-01 7.806312e-01 7.173280e-01 6.892890e-01 6.890500e-01 7.082441e-01 8.039728e-01
<GCONST> 2.761286e+02
<MIXTURE> 2 7.720973e-02
<MEAN> 128
 7.579590e+00 9.039556e+00 1.063235e+01 1.215734e+01 1.357712e+01 1.468446e+01 1.557263e+01 1.610945e+01 1.635911e+01 1.638123e+01 1.617990e+01 1.602575e+01 1.606314e+01 1.628117e+01 1.659769e+01 1.691736e+01 1.715000e+01 1.722182e+01 1.722449e+01 1.723749e+01 1.731337e+01 1.743420e+01 1.759224e+01 1.773310e+01 1.778534e+01 1.771499e+01 1.750051e+01 1.722224e+01 1.693447e+01 1.669942e+01 1.656165e+01 1.649054e+01 1.640571e+01 1.626228e+01 1.607076e+01 1.586259e+01 1.564095e+01 1.535877e+01 1.500752e+01 1.460368e+01 1.420248e+01 1.385488e+01 1.356598e+01 1.329973e+01 1.303060e+01 1.275172e+01 1.246377e+01 1.216463e+01 1.186548e+01 1.158893e+01 1.135394e+01 1.114674e+01 1.097238e+01 1.085839e+01 1.081646e+01 1.080281e+01 1.077295e+01 1.072182e+01 1.063339e+01 1.054283e+01 1.046105e+01 1.039107e+01 1.036184e+01 1.041113e+01 1.050744e+01 1.057607e+01 1.060882e+01 1.063747e+01 1.067403e+01 1.070235e+01 1.071095e+01 1.070388e+01 1.066524e+01 1.057551e+01 1.048036e+01 1.044035e+01 1.049845e+01 1.065304e+01 1.084638e+01 1.102806e+01 1.114737e+01 1.119008e+01 1.117387e+01 1.114284e+01 1.114408e+01 1.118540e+01 1.122020e+01 1.121234e+01 1.116774e+01 1.108997e+01 1.097963e+01 1.084263e+01 1.071235e+01 1.062798e+01 1.057675e+01 1.053557e+01 1.052568e+01 1.052811e+01 1.052743e+01 1.049473e+01 1.040255e+01 1.024806e+01 1.005449e+01 9.754998e+00 9.446138e+00 9.126316e+00 8.820121e+00 8.573238e+00 8.405255e+00 8.294430e+00 8.185917e+00 7.942803e+00 7.617125e+00 7.234692e+00 6.846686e+00 6.500775e+00 6.240249e+00 6.105072e+00 6.100517e+00 6.219718e+00 6.345960e+00 6.392441e+00 6.375895e+00 6.346694e+00 6.189607e+00 5.543721e+00 5.922434e+00 6.509679e+00
<VARIANCE> 128
 1.148577e+00 1.554037e+00 2.043213e+00 2.449077e+00 2.726842e+00 2.825053e+00 2.757875e+00 2.655387e+00 2.757143e+00 3.185970e+00 3.740702e+00 3.890792e+00 3.431032e+00 2.707371e+00 2.195178e+00 2.145545e+00 2.513430e+00 2.966020e+00 3.079464e+00 2.829989e+00 2.536384e+00 2.457390e+00 2.575472e+00 2.824718e+00 3.075155e+00 3.164671e+00 2.986395e+00 2.657017e+00 2.460310e+00 2.479845e+00 2.546847e+00 2.485690e+00 2.350300e+00 2.236117e+00 2.135184e+00 2.018779e+00 1.924952e+00 1.888101e+00 1.883402e+00 1.873222e+00 1.854841e+00 1.883379e+00 1.964206e+00 2.054734e+00 2.130329e+00 2.185845e+00 2.222274e+00 2.263033e+00 2.332569e+00 2.449598e+00 2.614438e+00 2.798079e+00 2.949727e+00 3.003039e+00 2.919791e+00 2.725634e+00 2.484088e+00 2.261878e+00 2.111315e+00 2.045641e+00 2.038515e+00 2.038662e+00 2.014498e+00 1.980502e+00 1.948871e+00 1.926725e+00 1.940264e+00 1.995245e+00 2.060517e+00 2.116614e+00 2.186612e+00 2.278591e+00 2.347646e+00 2.336854e+00 2.219160e+00 2.014927e+00 1.803818e+00 1.677517e+00 1.640215e+00 1.642718e+00 1.652000e+00 1.650750e+00 1.616725e+00 1.528125e+00 1.413097e+00 1.356280e+00 1.386289e+00 1.430364e+00 1.412151e+00 1.330440e+00 1.236193e+00 1.157314e+00 1.100625e+00 1.079383e+00 1.087229e+00 1.097701e+00 1.092948e+00 1.082597e+00 1.080330e+00 1.069641e+00 1.039814e+00 1.007499e+00 9.971199e-01 1.014506e+00 1.027134e+00 9.874303e-01 8.852111e-01 7.837938e-01 7.681813e-01 8.331759e-01 8.955166e-01 8.890114e-01 7.985928e-01 6.686721e-01 5.625081e-01 5.131811e-01 5.282881e-01 6.103405e-01 7.430367e-01 8.813093e-01 9.753866e-01 1.005028e+00 9.881054e-01 9.693006e-01 9.685921e-01 9.047822e-01 1.000796e+00 1.116277e+00
<GCONST> 3.030158e+02
<MIXTURE> 3 6.634632e-02
<MEAN> 128
 7.704741e+00 8.704320e+00 9.774080e+00 1.072336e+01 1.150810e+01 1.197135e+01 1.233771e+01 1.257038e+01 1.275713e+01 1.294742e+01 1.307707e+01 1.324709e+01 1.338020e+01 1.340884e+01 1.335621e+01 1.329562e+01 1.326785e+01 1.324461e+01 1.327366e+01 1.337305e+01 1.357450e+01 1.382409e+01 1.408247e+01 1.429383e+01 1.441220e+01 1.444446e+01 1.440635e+01 1.441869e+01 1.450496e+01 1.460234e+01 1.466520e+01 1.469047e+01 1.469349e+01 1.466999e+01 1.460968e+01 1.452440e+01 1.441729e+01 1.425975e+01 1.405583e+01 1.381697e+01 1.358493e+01 1.339729e+01 1.324785e+01 1.310459e+01 1.295891e+01 1.281908e+01 1.268627e+01 1.254802e+01 1.240613e+01 1.228539e+01 1.220027e+01 1.212333e+01 1.205118e+01 1.199651e+01 1.196108e+01 1.191997e+01 1.185706e+01 1.178782e+01 1.171069e+01 1.166406e+01 1.165035e+01 1.164418e+01 1.164224e+01 1.168031e+01 1.176537e+01 1.187738e+01 1.204505e+01 1.228411e+01 1.256028e+01 1.283325e+01 1.308516e+01 1.331372e+01 1.350401e+01 1.363159e+01 1.370661e+01 1.374043e+01 1.374358e+01 1.372528e+01 1.368515e+01 1.364018e+01 1.360395e+01 1.362227e+01 1.374890e+01 1.401437e+01 1.439787e+01 1.482241e+01 1.518464e+01 1.541755e+01 1.551877e+01 1.550657e+01 1.541035e+01 1.526345e+01 1.511767e+01 1.502851e+01 1.499494e+01 1.499224e+01 1.503389e+01 1.509249e+01 1.515322e+01 1.520669e+01 1.525565e+01 1.532116e+01 1.542119e+01 1.544057e+01 1.542493e+01 1.535939e+01 1.527109e+01 1.518945e+01 1.510062e+01 1.496312e+01 1.475922e+01 1.443821e+01 1.410522e+01 1.376248e+01 1.340828e+01 1.306042e+01 1.274802e+01 1.248356e+01 1.224989e+01 1.207121e+01 1.191838e+01 1.177161e+01 1.161742e+01 1.142330e+01 1.108024e+01 1.035623e+01 1.055611e+01 1.106634e+01
<VARIANCE> 128
 2.245709e+00 2.657008e+00 3.265560e+00 3.870216e+00 4.376326e+00 4.885063e+00 5.394072e+00 5.803601e+00 6.012405e+00 6.119363e+00 6.168506e+00 6.098963e+00 5.948594e+00 5.708530e+00 5.426457e+00 5.107441e+00 4.734289e+00 4.326769e+00 3.952821e+00 3.694558e+00 3.584593e+00 3.623166e+00 3.716920e+00 3.768951e+00 3.687960e+00 3.449326e+00 3.133153e+00 2.817295e+00 2.583934e+00 2.462564e+00 2.425732e+00 2.404999e+00 2.322497e+00 2.213309e+00 2.117277e+00 2.034417e+00 1.963834e+00 1.893400e+00 1.836709e+00 1.810301e+00 1.802488e+00 1.799817e+00 1.799952e+00 1.807184e+00 1.820246e+00 1.830106e+00 1.837284e+00 1.854241e+00 1.867118e+00 1.874330e+00 1.887851e+00 1.906315e+00 1.920269e+00 1.930462e+00 1.957146e+00 2.008682e+00 2.072343e+00 2.135776e+00 2.221745e+00 2.341897e+00 2.466357e+00 2.573104e+00 2.657295e+00 2.708980e+00 2.707392e+00 2.665327e+00 2.633152e+00 2.607560e+00 2.528401e+00 2.372293e+00 2.169137e+00 1.961516e+00 1.783194e+00 1.671546e+00 1.640215e+00 1.646595e+00 1.643598e+00 1.619906e+00 1.583921e+00 1.548100e+00 1.525638e+00 1.524517e+00 1.536304e+00 1.552598e+00 1.603000e+00 1.724170e+00 1.887455e+00 2.024602e+00 2.079044e+00 2.046362e+00 1.962782e+00 1.877558e+00 1.827923e+00 1.832225e+00 1.884264e+00 1.965765e+00 2.049909e+00 2.113728e+00 2.149563e+00 2.170674e+00 2.205202e+00 2.290425e+00 2.443396e+00 2.631620e+00 2.814297e+00 2.997715e+00 3.216683e+00 3.468064e+00 3.690229e+00 3.836208e+00 3.918764e+00 3.980065e+00 4.051432e+00 4.128430e+00 4.177646e+00 4.189429e+00 4.178783e+00 4.126683e+00 3.986662e+00 3.752026e+00 3.484346e+00 3.285758e+00 3.193877e+00 3.182012e+00 3.224766e+00 3.215869e+00 3.389983e+00 3.554305e+00
<GCONST> 3.596566e+02
<MIXTURE> 4 3.460601e-02
<MEAN> 128
 6.300307e+00 7.099405e+00 7.941275e+00 8.635406e+00 9.124136e+00 9.264604e+00 9.302671e+00 9.244260e+00 9.216808e+00 9.258487e+00 9.312546e+00 9.462387e+00 9.561795e+00 9.519651e+00 9.390009e+00 9.275227e+00 9.242605e+00 9.223139e+00 9.230771e+00 9.261920e+00 9.343465e+00 9.465124e+00 9.614424e+00 9.735417e+00 9.755589e+00 9.648139e+00 9.420455e+00 9.212107e+00 9.093622e+00 9.020502e+00 8.958619e+00 8.926245e+00 8.944399e+00 8.959149e+00 8.945922e+00 8.927773e+00 8.884128e+00 8.761802e+00 8.572527e+00 8.344148e+00 8.141912e+00 8.023937e+00 7.947445e+00 7.871840e+00 7.794036e+00 7.716341e+00 7.628577e+00 7.516435e+00 7.383995e+00 7.261677e+00 7.160751e+00 7.052170e+00 6.945949e+00 6.873352e+00 6.847704e+00 6.840562e+00 6.823791e+00 6.808054e+00 6.782397e+00 6.772390e+00 6.771409e+00 6.768006e+00 6.777138e+00 6.840159e+00 6.947192e+00 7.051781e+00 7.158489e+00 7.267099e+00 7.340462e+00 7.348586e+00 7.303556e+00 7.238706e+00 7.152918e+00 7.028452e+00 6.916498e+00 6.883739e+00 6.960787e+00 7.118534e+00 7.283473e+00 7.409458e+00 7.464554e+00 7.452878e+00 7.400919e+00 7.356014e+00 7.368790e+00 7.454397e+00 7.571686e+00 7.684095e+00 7.786387e+00 7.862247e+00 7.899916e+00 7.903300e+00 7.901647e+00 7.928279e+00 7.968599e+00 8.006128e+00 8.064962e+00 8.123571e+00 8.174625e+00 8.215785e+00 8.247938e+00 8.279680e+00 8.309810e+00 8.227824e+00 8.114974e+00 7.985590e+00 7.863950e+00 7.763825e+00 7.671663e+00 7.562794e+00 7.433625e+00 7.228337e+00 7.029999e+00 6.825429e+00 6.609783e+00 6.393753e+00 6.186912e+00 5.988342e+00 5.788955e+00 5.627485e+00 5.476128e+00 5.313182e+00 5.134005e+00 4.918630e+00 4.570617e+00 3.866438e+00 4.078217e+00 4.586695e+00
<VARIANCE> 128
 2.465598e+00 2.895768e+00 4.173205e+00 5.387429e+00 5.844084e+00 5.485506e+00 4.798599e+00 4.189733e+00 3.750584e+00 3.612325e+00 3.750566e+00 4.001012e+00 4.072186e+00 3.900900e+00 3.576267e+00 3.280791e+00 3.087833e+00 3.007554e+00 2.949495e+00 2.866405e+00 2.832866e+00 2.836782e+00 2.865810e+00 2.847619e+00 2.763136e+00 2.582839e+00 2.356077e+00 2.214570e+00 2.249681e+00 2.257239e+00 2.120723e+00 1.967400e+00 1.930583e+00 1.900327e+00 1.841757e+00 1.815359e+00 1.813828e+00 1.798859e+00 1.749693e+00 1.668162e+00 1.583169e+00 1.524585e+00 1.541597e+00 1.614011e+00 1.732383e+00 1.870008e+00 1.968149e+00 2.001349e+00 1.970814e+00 1.901496e+00 1.835109e+00 1.784355e+00 1.750438e+00 1.733386e+00 1.713650e+00 1.670207e+00 1.591352e+00 1.488289e+00 1.400656e+00 1.342381e+00 1.290430e+00 1.225413e+00 1.164348e+00 1.150864e+00 1.176551e+00 1.212061e+00 1.264824e+00 1.311150e+00 1.294933e+00 1.200735e+00 1.085743e+00 1.012324e+00 9.818750e-01 9.469178e-01 8.854928e-01 8.108541e-01 7.595161e-01 7.574263e-01 7.818624e-01 7.966560e-01 7.931067e-01 7.676962e-01 7.277286e-01 6.935607e-01 6.874693e-01 7.304345e-01 8.051745e-01 8.712891e-01 9.114065e-01 9.462885e-01 9.915045e-01 1.049219e+00 1.135145e+00 1.254848e+00 1.374087e+00 1.456278e+00 1.496886e+00 1.510618e+00 1.515318e+00 1.507848e+00 1.477055e+00 1.441886e+00 1.437420e+00 1.468574e+00 1.510947e+00 1.551214e+00 1.611141e+00 1.712060e+00 1.840515e+00 1.949086e+00 1.982171e+00 1.938992e+00 1.869902e+00 1.805116e+00 1.748711e+00 1.703946e+00 1.669069e+00 1.651099e+00 1.655400e+00 1.678933e+00 1.728062e+00 1.797677e+00 1.860439e+00 1.900969e+00 1.918920e+00 1.912447e+00 2.016960e+00 2.069168e+00
<GCONST> 3.043552e+02
<MIXTURE> 5 7.333709e-02
<MEAN> 128
 7.565388e+00 8.733727e+00 1.001102e+01 1.114296e+01 1.202761e+01 1.248898e+01 1.272993e+01 1.272647e+01 1.260252e+01 1.244893e+01 1.230399e+01 1.235043e+01 1.249559e+01 1.258284e+01 1.255760e+01 1.245502e+01 1.233378e+01 1.219653e+01 1.213205e+01 1.216830e+01 1.229715e+01 1.245649e+01 1.261367e+01 1.271914e+01 1.271562e+01 1.260392e+01 1.240474e+01 1.226769e+01 1.223384e+01 1.224713e+01 1.224972e+01 1.223353e+01 1.220847e+01 1.215784e+01 1.206631e+01 1.196296e+01 1.184976e+01 1.167888e+01 1.145089e+01 1.118198e+01 1.091782e+01 1.070722e+01 1.054112e+01 1.038300e+01 1.022519e+01 1.007509e+01 9.933617e+00 9.791724e+00 9.648593e+00 9.525111e+00 9.437993e+00 9.364846e+00 9.306617e+00 9.277697e+00 9.277856e+00 9.274094e+00 9.241158e+00 9.191455e+00 9.122781e+00 9.074918e+00 9.052163e+00 9.041987e+00 9.057506e+00 9.142049e+00 9.300032e+00 9.506061e+00 9.777961e+00 1.011660e+01 1.046986e+01 1.078053e+01 1.102253e+01 1.119637e+01 1.129618e+01 1.131705e+01 1.129434e+01 1.126036e+01 1.124170e+01 1.125156e+01 1.127368e+01 1.130558e+01 1.134978e+01 1.143972e+01 1.161112e+01 1.188634e+01 1.225296e+01 1.264903e+01 1.297648e+01 1.317392e+01 1.325196e+01 1.324439e+01 1.319456e+01 1.314088e+01 1.312125e+01 1.316362e+01 1.324166e+01 1.332317e+01 1.343120e+01 1.355021e+01 1.367029e+01 1.378585e+01 1.390390e+01 1.404131e+01 1.420064e+01 1.425729e+01 1.426215e+01 1.420780e+01 1.412250e+01 1.403296e+01 1.392760e+01 1.377555e+01 1.356437e+01 1.323389e+01 1.288011e+01 1.251054e+01 1.213298e+01 1.176845e+01 1.144343e+01 1.116917e+01 1.092912e+01 1.074160e+01 1.057134e+01 1.040038e+01 1.022245e+01 1.001267e+01 9.667226e+00 8.941824e+00 9.161360e+00 9.685320e+00
<VARIANCE> 128
 2.119512e+00 2.782044e+00 3.714290e+00 4.553803e+00 5.196432e+00 5.647901e+00 5.901643e+00 5.999121e+00 5.963259e+00 5.834628e+00 5.707843e+00 5.717233e+00 5.998658e+00 6.583323e+00 7.322345e+00 7.935878e+00 8.150299e+00 7.972360e+00 7.590680e+00 7.291083e+00 7.270405e+00 7.455317e+00 7.617698e+00 7.591779e+00 7.366696e+00 6.938087e+00 6.387046e+00 5.816068e+00 5.326235e+00 4.926771e+00 4.541610e+00 4.132411e+00 3.677316e+00 3.200623e+00 2.743559e+00 2.352741e+00 2.041516e+00 1.792766e+00 1.585151e+00 1.390047e+00 1.217031e+00 1.087340e+00 1.005317e+00 9.582420e-01 9.346319e-01 9.169473e-01 8.871849e-01 8.406185e-01 7.808437e-01 7.347805e-01 7.149726e-01 7.039377e-01 6.864794e-01 6.696247e-01 6.778922e-01 7.121809e-01 7.445224e-01 7.683090e-01 8.140185e-01 9.011152e-01 1.020291e+00 1.150655e+00 1.282058e+00 1.409004e+00 1.502437e+00 1.573896e+00 1.672775e+00 1.768046e+00 1.792568e+00 1.734691e+00 1.630300e+00 1.520886e+00 1.429704e+00 1.363190e+00 1.334519e+00 1.345238e+00 1.376782e+00 1.403939e+00 1.397977e+00 1.351606e+00 1.282947e+00 1.211607e+00 1.144737e+00 1.095712e+00 1.094216e+00 1.127043e+00 1.159328e+00 1.172192e+00 1.150540e+00 1.095555e+00 1.026092e+00 9.697692e-01 9.659930e-01 1.044881e+00 1.205919e+00 1.424251e+00 1.672465e+00 1.953781e+00 2.297340e+00 2.725850e+00 3.248374e+00 3.836646e+00 4.416971e+00 4.932723e+00 5.376675e+00 5.787892e+00 6.205477e+00 6.608904e+00 6.917990e+00 7.035874e+00 6.951443e+00 6.788408e+00 6.668442e+00 6.594871e+00 6.507516e+00 6.387001e+00 6.241681e+00 6.043787e+00 5.752473e+00 5.399512e+00 5.089351e+00 4.903538e+00 4.819813e+00 4.780532e+00 4.770720e+00 4.745084e+00 4.824215e+00 4.939398e+00
<GCONST> 3.541369e+02
<MIXTURE> 6 1.206654e-01
<MEAN> 128
 7.670146e+00 9.202808e+00 1.089760e+01 1.255186e+01 1.413985e+01 1.543672e+01 1.648851e+01 1.711848e+01 1.736503e+01 1.728467e+01 1.688897e+01 1.644700e+01 1.616686e+01 1.621287e+01 1.663643e+01 1.729477e+01 1.793908e+01 1.833866e+01 1.846385e+01 1.835611e+01 1.814144e+01 1.795241e+01 1.793568e+01 1.812946e+01 1.843060e+01 1.866774e+01 1.867934e+01 1.849754e+01 1.822192e+01 1.798815e+01 1.787784e+01 1.783987e+01 1.777542e+01 1.764100e+01 1.744077e+01 1.719826e+01 1.693051e+01 1.662288e+01 1.627772e+01 1.588614e+01 1.546508e+01 1.505617e+01 1.469824e+01 1.439013e+01 1.410706e+01 1.382329e+01 1.352557e+01 1.321452e+01 1.290679e+01 1.263023e+01 1.240747e+01 1.222732e+01 1.208320e+01 1.198248e+01 1.192274e+01 1.186767e+01 1.179221e+01 1.170164e+01 1.158204e+01 1.146148e+01 1.134207e+01 1.121129e+01 1.108658e+01 1.102154e+01 1.102818e+01 1.106983e+01 1.114644e+01 1.126368e+01 1.140327e+01 1.154339e+01 1.167427e+01 1.179267e+01 1.188549e+01 1.194563e+01 1.200798e+01 1.210043e+01 1.223823e+01 1.241452e+01 1.258968e+01 1.273716e+01 1.282930e+01 1.287011e+01 1.288359e+01 1.290922e+01 1.298694e+01 1.312234e+01 1.326654e+01 1.337574e+01 1.344795e+01 1.348025e+01 1.346726e+01 1.340785e+01 1.332484e+01 1.324775e+01 1.316343e+01 1.305840e+01 1.297185e+01 1.290293e+01 1.284259e+01 1.275951e+01 1.262673e+01 1.244025e+01 1.222006e+01 1.189407e+01 1.155591e+01 1.120655e+01 1.087548e+01 1.061664e+01 1.046516e+01 1.040019e+01 1.033069e+01 1.007187e+01 9.659290e+00 9.145289e+00 8.621510e+00 8.159341e+00 7.811491e+00 7.637575e+00 7.659004e+00 7.847817e+00 8.050457e+00 8.156393e+00 8.167839e+00 8.129216e+00 7.934362e+00 7.224634e+00 7.607175e+00 8.209890e+00
<VARIANCE> 128
 6.388994e-01 5.727271e-01 6.081829e-01 6.241229e-01 5.807697e-01 4.723977e-01 3.600195e-01 3.668557e-01 5.864587e-01 9.868177e-01 1.384479e+00 1.497257e+00 1.167010e+00 6.864077e-01 4.600929e-01 4.851487e-01 6.122993e-01 8.152455e-01 1.090370e+00 1.302566e+00 1.258167e+00 1.014172e+00 8.428953e-01 8.291231e-01 8.353081e-01 8.572253e-01 1.007178e+00 1.232372e+00 1.358192e+00 1.314188e+00 1.192343e+00 1.152959e+00 1.229472e+00 1.318472e+00 1.383001e+00 1.513334e+00 1.765713e+00 2.079823e+00 2.366963e+00 2.598387e+00 2.837170e+00 3.163162e+00 3.567831e+00 3.966682e+00 4.292230e+00 4.530395e+00 4.667756e+00 4.711731e+00 4.711373e+00 4.727714e+00 4.799963e+00 4.920744e+00 5.066386e+00 5.180329e+00 5.224865e+00 5.220907e+00 5.175704e+00 5.102711e+00 5.032830e+00 4.964774e+00 4.871850e+00 4.744091e+00 4.570327e+00 4.337014e+00 4.065650e+00 3.817739e+00 3.663576e+00 3.632293e+00 3.670066e+00 3.688920e+00 3.641266e+00 3.526633e+00 3.342662e+00 3.108070e+00 2.886608e+00 2.734778e+00 2.662206e+00 2.636337e+00 2.620671e+00 2.604763e+00 2.584692e+00 2.547263e+00 2.452810e+00 2.256033e+00 2.006116e+00 1.843368e+00 1.824469e+00 1.877139e+00 1.909725e+00 1.886458e+00 1.812243e+00 1.696339e+00 1.556117e+00 1.420913e+00 1.308798e+00 1.217958e+00 1.139954e+00 1.074205e+00 1.031602e+00 1.023431e+00 1.070469e+00 1.197622e+00 1.396560e+00 1.619741e+00 1.779914e+00 1.785102e+00 1.608798e+00 1.368614e+00 1.253978e+00 1.299382e+00 1.394823e+00 1.464997e+00 1.488482e+00 1.454622e+00 1.388068e+00 1.333800e+00 1.314411e+00 1.339600e+00 1.377807e+00 1.364235e+00 1.292876e+00 1.203762e+00 1.121863e+00 1.066910e+00 1.053336e+00 1.047418e+00 1.085132e+00 1.162310e+00
<GCONST> 3.060095e+02
<MIXTURE> 7 4.593584e-02
<MEAN> 128
 8.402118e+00 9.913080e+00 1.134305e+01 1.251462e+01 1.336710e+01 1.371016e+01 1.376173e+01 1.355155e+01 1.326736e+01 1.305485e+01 1.302181e+01 1.331634e+01 1.363944e+01 1.372316e+01 1.353402e+01 1.320205e+01 1.287774e+01 1.266175e+01 1.269742e+01 1.289648e+01 1.308998e+01 1.316773e+01 1.314834e+01 1.308254e+01 1.298545e+01 1.285784e+01 1.263684e+01 1.236145e+01 1.207510e+01 1.185014e+01 1.175737e+01 1.178511e+01 1.184183e+01 1.185788e+01 1.183549e+01 1.179918e+01 1.172977e+01 1.156835e+01 1.133034e+01 1.106394e+01 1.085135e+01 1.074178e+01 1.069870e+01 1.066620e+01 1.061852e+01 1.054906e+01 1.045964e+01 1.034428e+01 1.021353e+01 1.010050e+01 1.001987e+01 9.936186e+00 9.838954e+00 9.755473e+00 9.716235e+00 9.706693e+00 9.689418e+00 9.656524e+00 9.590202e+00 9.517224e+00 9.446688e+00 9.391507e+00 9.393188e+00 9.490829e+00 9.655079e+00 9.813894e+00 9.940710e+00 1.002655e+01 1.004636e+01 9.978927e+00 9.838304e+00 9.663924e+00 9.463679e+00 9.223444e+00 8.997129e+00 8.871957e+00 8.913280e+00 9.100465e+00 9.326267e+00 9.503469e+00 9.570630e+00 9.526890e+00 9.417100e+00 9.330330e+00 9.366698e+00 9.539961e+00 9.749928e+00 9.903625e+00 9.974238e+00 9.947192e+00 9.822279e+00 9.618292e+00 9.384787e+00 9.185958e+00 9.047296e+00 8.970473e+00 8.961628e+00 8.967749e+00 8.972061e+00 8.981762e+00 9.001044e+00 9.023774e+00 9.034861e+00 8.917159e+00 8.743340e+00 8.517974e+00 8.270930e+00 8.040273e+00 7.840705e+00 7.670390e+00 7.516154e+00 7.268348e+00 6.971740e+00 6.629346e+00 6.280402e+00 5.968655e+00 5.718850e+00 5.532458e+00 5.396846e+00 5.343328e+00 5.319003e+00 5.267772e+00 5.184680e+00 5.085485e+00 4.860975e+00 4.204306e+00 4.512505e+00 5.063668e+00
<VARIANCE> 128
 2.470356e+00 4.023771e+00 5.479638e+00 6.459002e+00 6.862722e+00 6.633997e+00 5.759052e+00 4.672805e+00 3.718030e+00 3.019502e+00 2.716426e+00 2.836371e+00 3.144445e+00 3.424103e+00 3.487193e+00 3.277554e+00 2.921836e+00 2.656052e+00 2.699605e+00 2.986838e+00 3.229496e+00 3.153272e+00 2.810140e+00 2.400218e+00 2.075364e+00 1.873781e+00 1.774316e+00 1.769228e+00 1.846673e+00 1.968342e+00 2.069452e+00 2.165119e+00 2.228029e+00 2.252383e+00 2.300084e+00 2.428314e+00 2.602517e+00 2.748676e+00 2.809965e+00 2.766174e+00 2.631799e+00 2.438909e+00 2.267815e+00 2.146469e+00 2.081448e+00 2.075334e+00 2.120363e+00 2.228669e+00 2.407914e+00 2.680427e+00 3.083642e+00 3.608861e+00 4.194062e+00 4.726432e+00 5.071107e+00 5.158981e+00 5.060366e+00 4.838453e+00 4.547708e+00 4.252782e+00 3.934927e+00 3.495200e+00 2.895390e+00 2.277081e+00 1.809180e+00 1.550257e+00 1.481651e+00 1.513953e+00 1.525527e+00 1.456007e+00 1.339486e+00 1.232976e+00 1.144714e+00 1.047501e+00 9.396982e-01 8.342687e-01 7.505271e-01 7.148243e-01 7.221478e-01 7.576014e-01 8.115112e-01 8.847656e-01 1.005225e+00 1.197703e+00 1.465698e+00 1.753340e+00 1.969747e+00 2.047966e+00 1.972444e+00 1.812197e+00 1.659564e+00 1.559169e+00 1.525542e+00 1.565256e+00 1.643853e+00 1.698659e+00 1.704794e+00 1.679752e+00 1.622215e+00 1.508680e+00 1.352486e+00 1.215696e+00 1.149147e+00 1.145932e+00 1.151533e+00 1.126701e+00 1.079592e+00 1.046855e+00 1.045453e+00 1.045146e+00 1.014754e+00 9.771090e-01 9.515337e-01 9.416389e-01 9.533992e-01 9.862509e-01 1.038705e+00 1.110674e+00 1.198072e+00 1.299391e+00 1.416880e+00 1.531692e+00 1.606556e+00 1.642733e+00 1.659534e+00 1.554688e+00 1.721411e+00 1.869949e+00
<GCONST> 3.217805e+02
<MIXTURE> 8 3.664864e-02
<MEAN> 128
 6.280724e+00 6.820599e+00 7.424146e+00 7.995625e+00 8.469148e+00 8.680467e+00 8.855794e+00 8.928407e+00 8.955163e+00 9.003364e+00 9.060860e+00 9.207055e+00 9.296948e+00 9.226607e+00 9.052908e+00 8.896484e+00 8.822784e+00 8.762424e+00 8.707277e+00 8.652884e+00 8.664227e+00 8.721485e+00 8.819577e+00 8.904601e+00 8.880458e+00 8.686374e+00 8.333635e+00 8.020623e+00 7.855595e+00 7.707106e+00 7.528602e+00 7.371706e+00 7.305972e+00 7.251645e+00 7.171572e+00 7.105140e+00 7.048873e+00 6.936419e+00 6.766685e+00 6.563763e+00 6.349266e+00 6.185107e+00 6.041035e+00 5.902435e+00 5.767607e+00 5.632842e+00 5.508843e+00 5.401881e+00 5.299647e+00 5.204982e+00 5.115883e+00 5.019137e+00 4.930405e+00 4.877770e+00 4.857942e+00 4.848001e+00 4.828723e+00 4.811369e+00 4.785452e+00 4.766528e+00 4.751828e+00 4.737240e+00 4.723228e+00 4.728123e+00 4.742165e+00 4.734448e+00 4.724340e+00 4.738531e+00 4.770822e+00 4.802919e+00 4.835147e+00 4.880508e+00 4.920859e+00 4.929135e+00 4.934811e+00 4.969404e+00 5.041354e+00 5.139893e+00 5.241577e+00 5.342969e+00 5.423611e+00 5.476091e+00 5.508760e+00 5.543823e+00 5.599834e+00 5.683051e+00 5.772853e+00 5.850347e+00 5.923027e+00 5.987866e+00 6.046048e+00 6.104140e+00 6.170990e+00 6.252457e+00 6.319129e+00 6.350235e+00 6.383850e+00 6.417911e+00 6.454453e+00 6.490904e+00 6.523366e+00 6.553297e+00 6.581234e+00 6.510574e+00 6.430238e+00 6.344634e+00 6.260443e+00 6.181063e+00 6.103244e+00 6.019984e+00 5.927563e+00 5.752323e+00 5.574568e+00 5.396013e+00 5.217525e+00 5.037943e+00 4.856105e+00 4.672561e+00 4.487269e+00 4.344707e+00 4.214920e+00 4.069512e+00 3.901025e+00 3.695603e+00 3.366662e+00 2.699030e+00 2.892675e+00 3.384869e+00
<VARIANCE> 128
 3.673652e+00 3.512156e+00 3.875609e+00 4.446264e+00 4.764149e+00 4.714592e+00 4.624159e+00 4.667564e+00 4.676917e+00 4.669710e+00 5.019597e+00 5.633640e+00 5.818164e+00 5.409847e+00 4.668494e+00 3.995656e+00 3.681809e+00 3.613031e+00 3.545748e+00 3.360715e+00 3.243112e+00 3.171375e+00 3.122447e+00 3.085589e+00 2.937390e+00 2.534828e+00 2.002665e+00 1.748901e+00 1.892849e+00 1.888410e+00 1.619323e+00 1.392134e+00 1.408396e+00 1.453307e+00 1.420125e+00 1.411366e+00 1.430458e+00 1.404981e+00 1.331377e+00 1.246671e+00 1.153636e+00 1.076618e+00 1.021518e+00 9.691486e-01 9.394882e-01 9.378856e-01 9.276584e-01 8.802139e-01 8.185846e-01 7.681807e-01 7.410532e-01 7.394250e-01 7.520733e-01 7.656084e-01 7.810767e-01 7.908826e-01 7.811635e-01 7.569743e-01 7.267218e-01 7.094187e-01 6.997896e-01 6.664271e-01 6.154240e-01 5.909293e-01 5.928434e-01 5.923588e-01 5.987450e-01 6.228123e-01 6.444262e-01 6.424629e-01 6.231842e-01 5.977206e-01 5.601432e-01 4.989599e-01 4.342786e-01 3.926122e-01 3.830667e-01 4.022282e-01 4.225999e-01 4.239527e-01 4.092415e-01 3.779983e-01 3.347433e-01 2.936778e-01 2.700327e-01 2.672573e-01 2.704560e-01 2.671761e-01 2.561103e-01 2.425605e-01 2.288195e-01 2.136511e-01 1.992535e-01 1.902510e-01 1.868792e-01 1.885352e-01 1.933755e-01 1.977757e-01 1.999725e-01 2.001022e-01 1.994359e-01 1.992890e-01 1.972872e-01 1.912502e-01 1.833973e-01 1.775045e-01 1.766240e-01 1.826552e-01 1.912033e-01 1.953036e-01 1.912859e-01 1.829548e-01 1.751048e-01 1.692138e-01 1.659397e-01 1.653907e-01 1.666914e-01 1.711900e-01 1.816659e-01 2.001711e-01 2.254978e-01 2.523847e-01 2.748175e-01 2.933975e-01 3.163844e-01 3.545282e-01 3.728590e-01 3.799607e-01
<GCONST> 1.896910e+02
<MIXTURE> 9 1.107925e-01
<MEAN> 128
 7.732427e+00 9.110498e+00 1.060616e+01 1.203098e+01 1.334906e+01 1.436201e+01 1.516767e+01 1.563462e+01 1.583127e+01 1.582085e+01 1.561367e+01 1.547817e+01 1.552993e+01 1.571593e+01 1.595123e+01 1.617871e+01 1.633189e+01 1.635012e+01 1.634972e+01 1.642523e+01 1.658898e+01 1.676267e+01 1.690841e+01 1.698829e+01 1.696960e+01 1.686562e+01 1.669216e+01 1.653646e+01 1.639921e+01 1.625928e+01 1.612480e+01 1.600581e+01 1.589440e+01 1.577074e+01 1.561337e+01 1.542315e+01 1.520805e+01 1.493864e+01 1.460915e+01 1.421868e+01 1.380371e+01 1.342355e+01 1.310172e+01 1.281255e+01 1.253653e+01 1.226760e+01 1.199639e+01 1.170766e+01 1.140477e+01 1.112282e+01 1.089524e+01 1.071007e+01 1.056359e+01 1.046510e+01 1.041276e+01 1.036735e+01 1.030041e+01 1.021806e+01 1.011195e+01 1.001858e+01 9.939811e+00 9.862581e+00 9.802801e+00 9.806448e+00 9.870406e+00 9.948129e+00 1.005130e+01 1.020699e+01 1.040611e+01 1.062396e+01 1.084588e+01 1.106040e+01 1.124445e+01 1.138394e+01 1.150612e+01 1.162747e+01 1.175656e+01 1.189270e+01 1.201301e+01 1.210555e+01 1.215080e+01 1.216057e+01 1.216686e+01 1.221801e+01 1.235966e+01 1.258401e+01 1.280856e+01 1.295943e+01 1.302472e+01 1.301147e+01 1.293244e+01 1.280222e+01 1.265648e+01 1.253867e+01 1.244187e+01 1.234779e+01 1.228815e+01 1.225729e+01 1.224306e+01 1.221380e+01 1.214556e+01 1.203792e+01 1.190287e+01 1.165011e+01 1.135758e+01 1.101857e+01 1.066323e+01 1.035628e+01 1.014501e+01 1.002056e+01 9.918956e+00 9.678944e+00 9.326280e+00 8.874100e+00 8.376473e+00 7.890445e+00 7.468469e+00 7.168029e+00 7.025413e+00 7.061159e+00 7.164856e+00 7.229043e+00 7.228072e+00 7.173621e+00 6.956397e+00 6.256464e+00 6.590305e+00 7.167186e+00
<VARIANCE> 128
 1.435996e+00 1.735980e+00 2.206125e+00 2.651415e+00 2.947428e+00 2.961375e+00 2.676573e+00 2.302527e+00 2.104443e+00 2.177027e+00 2.307346e+00 2.135040e+00 1.676569e+00 1.326410e+00 1.301703e+00 1.552589e+00 1.963477e+00 2.360519e+00 2.468336e+00 2.231290e+00 1.919618e+00 1.769696e+00 1.790080e+00 1.907376e+00 2.076272e+00 2.220120e+00 2.234386e+00 2.120311e+00 2.002959e+00 1.930864e+00 1.846029e+00 1.714611e+00 1.601013e+00 1.560589e+00 1.597204e+00 1.712764e+00 1.885685e+00 2.073933e+00 2.230078e+00 2.354459e+00 2.502768e+00 2.717769e+00 2.973735e+00 3.198332e+00 3.363955e+00 3.466080e+00 3.491001e+00 3.457797e+00 3.403266e+00 3.358883e+00 3.348985e+00 3.367453e+00 3.371667e+00 3.341911e+00 3.306668e+00 3.294204e+00 3.288167e+00 3.291851e+00 3.340102e+00 3.445102e+00 3.583145e+00 3.721960e+00 3.858827e+00 3.987828e+00 4.054863e+00 4.044786e+00 4.021296e+00 4.035666e+00 4.066351e+00 4.054834e+00 3.960981e+00 3.766118e+00 3.462564e+00 3.055634e+00 2.595365e+00 2.163361e+00 1.846172e+00 1.676074e+00 1.606534e+00 1.576758e+00 1.553648e+00 1.523580e+00 1.479510e+00 1.403827e+00 1.319077e+00 1.296323e+00 1.355338e+00 1.442505e+00 1.487557e+00 1.469144e+00 1.409438e+00 1.323055e+00 1.219994e+00 1.126788e+00 1.066461e+00 1.030820e+00 9.928212e-01 9.480575e-01 9.205819e-01 9.165151e-01 9.271756e-01 9.508106e-01 1.004506e+00 1.093855e+00 1.176119e+00 1.198173e+00 1.148787e+00 1.082309e+00 1.083864e+00 1.154237e+00 1.217117e+00 1.235406e+00 1.218219e+00 1.183848e+00 1.161564e+00 1.178494e+00 1.246409e+00 1.361027e+00 1.484026e+00 1.541592e+00 1.515764e+00 1.456958e+00 1.403978e+00 1.376933e+00 1.373083e+00 1.352669e+00 1.395930e+00 1.478043e+00
<GCONST> 3.193019e+02
<MIXTURE> 10 8.060502e-02
<MEAN> 128
 7.001122e+00 7.900382e+00 8.916865e+00 9.786025e+00 1.037773e+01 1.054273e+01 1.057837e+01 1.051656e+01 1.044510e+01 1.042118e+01 1.043029e+01 1.057054e+01 1.067447e+01 1.063131e+01 1.047681e+01 1.034057e+01 1.028889e+01 1.027585e+01 1.031088e+01 1.039017e+01 1.053861e+01 1.071413e+01 1.090923e+01 1.108800e+01 1.118912e+01 1.121077e+01 1.118561e+01 1.123507e+01 1.135507e+01 1.147907e+01 1.158370e+01 1.167829e+01 1.176545e+01 1.183480e+01 1.188112e+01 1.191474e+01 1.192575e+01 1.187428e+01 1.177281e+01 1.164170e+01 1.151330e+01 1.141255e+01 1.132838e+01 1.123640e+01 1.113374e+01 1.102776e+01 1.092563e+01 1.082433e+01 1.072569e+01 1.064729e+01 1.060220e+01 1.056771e+01 1.053948e+01 1.052797e+01 1.053284e+01 1.052631e+01 1.049451e+01 1.045506e+01 1.040846e+01 1.038930e+01 1.039617e+01 1.040797e+01 1.043108e+01 1.050715e+01 1.065238e+01 1.085327e+01 1.112795e+01 1.147598e+01 1.184626e+01 1.217535e+01 1.242112e+01 1.257378e+01 1.263158e+01 1.259515e+01 1.250683e+01 1.240690e+01 1.232492e+01 1.227244e+01 1.223368e+01 1.220912e+01 1.220377e+01 1.225416e+01 1.240278e+01 1.268650e+01 1.310236e+01 1.358066e+01 1.401076e+01 1.431232e+01 1.447073e+01 1.450281e+01 1.445273e+01 1.437360e+01 1.432364e+01 1.434612e+01 1.442284e+01 1.452108e+01 1.465397e+01 1.479666e+01 1.493573e+01 1.506645e+01 1.519767e+01 1.534865e+01 1.552297e+01 1.559488e+01 1.561632e+01 1.558524e+01 1.553603e+01 1.549541e+01 1.544094e+01 1.532612e+01 1.513507e+01 1.482142e+01 1.449258e+01 1.415283e+01 1.380210e+01 1.345988e+01 1.315438e+01 1.289256e+01 1.265146e+01 1.245235e+01 1.227041e+01 1.209576e+01 1.192183e+01 1.171558e+01 1.137123e+01 1.064310e+01 1.085342e+01 1.138328e+01
<VARIANCE> 128
 2.169697e+00 2.837656e+00 3.890515e+00 4.804139e+00 5.229746e+00 5.042480e+00 4.540758e+00 4.147103e+00 3.884652e+00 3.753883e+00 3.933541e+00 4.251920e+00 4.371605e+00 4.220877e+00 3.917137e+00 3.595180e+00 3.372117e+00 3.271870e+00 3.212809e+00 3.175289e+00 3.156960e+00 3.124474e+00 3.065735e+00 2.971042e+00 2.827095e+00 2.649894e+00 2.515483e+00 2.470975e+00 2.474224e+00 2.456927e+00 2.423250e+00 2.408197e+00 2.375047e+00 2.311441e+00 2.227627e+00 2.130100e+00 2.025236e+00 1.918846e+00 1.804585e+00 1.676790e+00 1.561638e+00 1.475628e+00 1.409629e+00 1.348663e+00 1.295148e+00 1.253937e+00 1.219609e+00 1.188549e+00 1.155714e+00 1.130258e+00 1.115955e+00 1.096716e+00 1.074726e+00 1.064216e+00 1.082770e+00 1.127939e+00 1.174667e+00 1.221328e+00 1.291723e+00 1.393965e+00 1.502458e+00 1.594207e+00 1.664270e+00 1.707570e+00 1.697113e+00 1.648647e+00 1.622035e+00 1.609859e+00 1.557538e+00 1.467651e+00 1.390370e+00 1.351311e+00 1.331911e+00 1.312991e+00 1.294676e+00 1.270779e+00 1.235857e+00 1.202008e+00 1.172078e+00 1.139998e+00 1.119958e+00 1.123068e+00 1.132275e+00 1.133008e+00 1.167012e+00 1.285401e+00 1.474239e+00 1.656933e+00 1.744527e+00 1.702510e+00 1.574162e+00 1.443351e+00 1.398511e+00 1.496494e+00 1.727841e+00 2.033667e+00 2.361834e+00 2.710741e+00 3.112961e+00 3.593350e+00 4.150833e+00 4.751088e+00 5.324584e+00 5.808717e+00 6.202675e+00 6.552910e+00 6.894288e+00 7.204543e+00 7.429283e+00 7.529047e+00 7.503451e+00 7.414919e+00 7.332301e+00 7.244515e+00 7.099487e+00 6.882224e+00 6.626914e+00 6.368045e+00 6.093026e+00 5.780461e+00 5.460518e+00 5.210351e+00 5.064564e+00 5.016737e+00 5.039342e+00 5.039328e+00 5.170221e+00 5.320910e+00
<GCONST> 3.511241e+02
<MIXTURE> 11 6.428812e-02
<MEAN> 128
 7.815825e+00 9.343145e+00 1.093924e+01 1.242209e+01 1.374806e+01 1.469000e+01 1.534771e+01 1.562123e+01 1.561897e+01 1.544648e+01 1.516668e+01 1.510690e+01 1.536043e+01 1.577162e+01 1.616412e+01 1.643806e+01 1.653935e+01 1.647123e+01 1.642655e+01 1.650756e+01 1.670374e+01 1.691441e+01 1.706403e+01 1.708857e+01 1.696360e+01 1.673050e+01 1.641651e+01 1.610436e+01 1.580539e+01 1.552169e+01 1.527730e+01 1.507079e+01 1.486657e+01 1.463760e+01 1.437220e+01 1.408235e+01 1.377986e+01 1.342926e+01 1.302836e+01 1.259302e+01 1.218085e+01 1.184726e+01 1.157359e+01 1.130561e+01 1.102325e+01 1.073943e+01 1.045667e+01 1.016488e+01 9.862187e+00 9.572489e+00 9.312807e+00 9.060580e+00 8.829729e+00 8.669383e+00 8.617806e+00 8.633380e+00 8.647554e+00 8.638822e+00 8.591218e+00 8.541652e+00 8.499030e+00 8.472097e+00 8.502611e+00 8.624667e+00 8.782924e+00 8.887029e+00 8.931198e+00 8.954765e+00 8.975157e+00 8.988218e+00 9.003004e+00 9.031181e+00 9.047074e+00 9.026450e+00 9.022881e+00 9.100508e+00 9.292941e+00 9.574831e+00 9.868789e+00 1.011928e+01 1.027881e+01 1.033993e+01 1.033491e+01 1.033029e+01 1.038315e+01 1.048460e+01 1.055630e+01 1.054280e+01 1.044942e+01 1.029320e+01 1.009452e+01 9.871211e+00 9.657560e+00 9.497088e+00 9.388764e+00 9.313862e+00 9.288034e+00 9.285668e+00 9.298016e+00 9.310641e+00 9.305990e+00 9.280054e+00 9.234010e+00 9.063210e+00 8.835622e+00 8.547436e+00 8.234849e+00 7.955873e+00 7.745715e+00 7.600784e+00 7.481897e+00 7.260643e+00 6.981544e+00 6.650424e+00 6.299767e+00 5.969717e+00 5.696871e+00 5.508649e+00 5.412100e+00 5.423821e+00 5.454108e+00 5.429604e+00 5.358749e+00 5.282095e+00 5.092640e+00 4.457000e+00 4.794562e+00 5.358834e+00
<VARIANCE> 128
 1.413118e+00 1.865541e+00 2.414168e+00 2.869451e+00 3.127160e+00 3.127482e+00 2.833778e+00 2.440395e+00 2.182243e+00 2.140077e+00 2.115386e+00 1.781010e+00 1.281778e+00 9.751888e-01 1.045198e+00 1.457532e+00 2.105542e+00 2.586798e+00 2.401384e+00 1.789011e+00 1.325556e+00 1.222980e+00 1.421400e+00 1.784736e+00 2.124967e+00 2.212793e+00 2.003272e+00 1.726583e+00 1.616936e+00 1.640905e+00 1.589658e+00 1.440845e+00 1.333049e+00 1.298890e+00 1.291802e+00 1.308075e+00 1.332072e+00 1.351361e+00 1.338777e+00 1.284474e+00 1.222053e+00 1.209960e+00 1.265798e+00 1.337795e+00 1.394958e+00 1.412444e+00 1.405613e+00 1.400576e+00 1.407831e+00 1.419993e+00 1.442409e+00 1.478032e+00 1.524396e+00 1.578843e+00 1.629254e+00 1.648191e+00 1.619232e+00 1.580944e+00 1.587321e+00 1.639358e+00 1.684814e+00 1.690456e+00 1.697862e+00 1.787659e+00 1.944819e+00 2.105139e+00 2.236404e+00 2.306169e+00 2.283065e+00 2.164625e+00 2.018551e+00 1.913482e+00 1.849118e+00 1.778701e+00 1.683725e+00 1.576616e+00 1.495775e+00 1.480188e+00 1.518015e+00 1.571731e+00 1.600459e+00 1.582997e+00 1.535748e+00 1.507646e+00 1.595804e+00 1.851494e+00 2.193640e+00 2.481186e+00 2.621350e+00 2.616749e+00 2.531765e+00 2.416291e+00 2.299219e+00 2.199647e+00 2.103837e+00 1.993266e+00 1.860870e+00 1.734153e+00 1.639835e+00 1.565164e+00 1.505039e+00 1.478595e+00 1.496768e+00 1.533993e+00 1.532908e+00 1.456898e+00 1.324637e+00 1.199741e+00 1.132493e+00 1.120985e+00 1.135635e+00 1.125955e+00 1.051384e+00 9.238752e-01 7.874655e-01 6.783949e-01 6.211559e-01 6.254894e-01 6.798297e-01 7.581193e-01 8.270736e-01 8.517900e-01 8.187537e-01 7.811821e-01 7.844971e-01 7.344874e-01 8.399346e-01 9.497026e-01
<GCONST> 2.897111e+02
<MIXTURE> 12 7.740720e-02
<MEAN> 128
 7.455498e+00 8.732152e+00 1.021611e+01 1.169746e+01 1.313906e+01 1.434288e+01 1.539504e+01 1.613422e+01 1.659612e+01 1.681616e+01 1.676431e+01 1.663301e+01 1.652316e+01 1.651747e+01 1.667426e+01 1.699807e+01 1.734435e+01 1.755370e+01 1.763293e+01 1.762154e+01 1.760230e+01 1.761309e+01 1.768999e+01 1.782416e+01 1.796566e+01 1.805192e+01 1.800817e+01 1.789321e+01 1.775913e+01 1.767254e+01 1.767358e+01 1.773097e+01 1.779395e+01 1.783994e+01 1.784810e+01 1.780847e+01 1.771815e+01 1.755582e+01 1.732747e+01 1.703514e+01 1.671198e+01 1.640266e+01 1.612630e+01 1.586271e+01 1.558355e+01 1.527587e+01 1.493912e+01 1.457190e+01 1.418685e+01 1.381434e+01 1.348612e+01 1.320255e+01 1.296642e+01 1.278797e+01 1.266563e+01 1.256739e+01 1.246757e+01 1.236652e+01 1.225452e+01 1.216649e+01 1.209701e+01 1.202410e+01 1.196231e+01 1.196321e+01 1.203350e+01 1.213910e+01 1.229618e+01 1.252107e+01 1.277948e+01 1.303037e+01 1.325256e+01 1.343116e+01 1.354490e+01 1.357816e+01 1.355632e+01 1.350741e+01 1.346098e+01 1.344115e+01 1.344496e+01 1.346622e+01 1.348844e+01 1.353089e+01 1.362454e+01 1.379538e+01 1.405045e+01 1.434662e+01 1.459301e+01 1.472863e+01 1.475842e+01 1.470613e+01 1.459651e+01 1.444646e+01 1.428760e+01 1.416018e+01 1.405549e+01 1.395047e+01 1.387393e+01 1.382195e+01 1.378311e+01 1.371607e+01 1.358307e+01 1.337733e+01 1.311902e+01 1.273881e+01 1.233276e+01 1.190186e+01 1.148965e+01 1.118843e+01 1.105185e+01 1.102971e+01 1.100803e+01 1.080273e+01 1.043413e+01 9.923507e+00 9.347565e+00 8.784757e+00 8.290387e+00 7.922861e+00 7.742416e+00 7.796789e+00 7.972751e+00 8.127922e+00 8.189375e+00 8.145111e+00 7.910054e+00 7.195158e+00 7.515630e+00 8.087294e+00
<VARIANCE> 128
 1.039513e+00 1.236982e+00 1.708203e+00 2.254830e+00 2.812517e+00 3.260705e+00 3.377921e+00 3.146152e+00 2.801868e+00 2.654516e+00 2.776299e+00 2.953881e+00 2.882917e+00 2.484421e+00 2.033399e+00 1.626500e+00 1.480200e+00 1.544233e+00 1.683339e+00 1.769641e+00 1.688445e+00 1.563122e+00 1.604043e+00 1.758250e+00 1.850264e+00 1.828885e+00 1.752174e+00 1.625749e+00 1.537526e+00 1.511082e+00 1.526861e+00 1.557088e+00 1.544004e+00 1.424924e+00 1.247791e+00 1.112398e+00 1.074848e+00 1.131248e+00 1.266575e+00 1.467786e+00 1.699537e+00 1.937886e+00 2.179108e+00 2.410176e+00 2.604922e+00 2.735381e+00 2.798077e+00 2.809716e+00 2.768066e+00 2.686610e+00 2.612001e+00 2.557795e+00 2.520730e+00 2.503751e+00 2.527024e+00 2.595906e+00 2.690672e+00 2.812654e+00 2.991916e+00 3.241273e+00 3.515537e+00 3.739002e+00 3.868645e+00 3.913188e+00 3.889161e+00 3.824213e+00 3.751655e+00 3.652524e+00 3.496340e+00 3.268538e+00 2.971264e+00 2.626133e+00 2.242637e+00 1.845146e+00 1.498834e+00 1.249955e+00 1.108240e+00 1.052611e+00 1.028824e+00 9.996458e-01 9.681631e-01 9.421682e-01 9.081025e-01 8.308628e-01 7.201806e-01 6.447459e-01 6.562458e-01 7.401150e-01 8.340640e-01 8.807231e-01 8.714167e-01 8.243913e-01 7.578906e-01 6.880302e-01 6.352925e-01 6.151362e-01 6.143515e-01 6.146302e-01 6.206979e-01 6.456475e-01 7.018229e-01 7.997215e-01 9.476114e-01 1.126844e+00 1.276490e+00 1.326818e+00 1.238379e+00 1.086183e+00 1.044200e+00 1.142439e+00 1.256732e+00 1.320837e+00 1.347434e+00 1.341502e+00 1.313505e+00 1.305001e+00 1.338439e+00 1.421880e+00 1.554690e+00 1.656831e+00 1.646107e+00 1.552118e+00 1.447930e+00 1.366014e+00 1.314360e+00 1.302491e+00 1.294578e+00 1.366252e+00
<GCONST> 2.951299e+02
<MIXTURE> 13 5.113676e-02
<MEAN> 128
 6.513724e+00 7.129900e+00 7.868971e+00 8.577588e+00 9.162951e+00 9.430213e+00 9.606634e+00 9.661364e+00 9.682736e+00 9.728387e+00 9.750731e+00 9.863870e+00 9.971228e+00 9.959662e+00 9.845816e+00 9.724200e+00 9.647647e+00 9.591461e+00 9.602152e+00 9.680083e+00 9.828813e+00 9.996751e+00 1.015328e+01 1.026619e+01 1.029247e+01 1.023446e+01 1.010134e+01 1.000636e+01 9.996952e+00 1.002522e+01 1.005793e+01 1.010221e+01 1.016804e+01 1.020836e+01 1.020625e+01 1.018631e+01 1.014266e+01 1.003676e+01 9.878057e+00 9.676189e+00 9.476686e+00 9.315152e+00 9.180637e+00 9.048951e+00 8.921250e+00 8.800657e+00 8.684402e+00 8.571321e+00 8.462382e+00 8.378864e+00 8.328249e+00 8.282013e+00 8.244479e+00 8.232858e+00 8.249290e+00 8.268451e+00 8.270040e+00 8.262618e+00 8.241234e+00 8.242879e+00 8.270125e+00 8.313377e+00 8.380139e+00 8.489134e+00 8.628061e+00 8.771724e+00 8.946803e+00 9.166026e+00 9.390902e+00 9.576046e+00 9.702900e+00 9.777333e+00 9.797615e+00 9.757651e+00 9.698311e+00 9.661510e+00 9.675230e+00 9.744116e+00 9.837837e+00 9.936091e+00 1.001934e+01 1.009856e+01 1.019619e+01 1.034137e+01 1.055643e+01 1.082285e+01 1.107400e+01 1.125836e+01 1.138316e+01 1.146962e+01 1.153542e+01 1.158925e+01 1.165081e+01 1.174469e+01 1.185147e+01 1.194639e+01 1.205175e+01 1.214963e+01 1.223264e+01 1.229897e+01 1.235788e+01 1.242841e+01 1.252312e+01 1.252750e+01 1.249286e+01 1.240849e+01 1.230181e+01 1.220180e+01 1.210037e+01 1.196279e+01 1.176675e+01 1.144894e+01 1.110905e+01 1.075352e+01 1.038932e+01 1.003626e+01 9.718736e+00 9.449174e+00 9.215102e+00 9.036901e+00 8.874936e+00 8.706857e+00 8.528363e+00 8.319260e+00 7.971885e+00 7.245434e+00 7.461058e+00 7.969533e+00
<VARIANCE> 128
 2.258083e+00 2.838821e+00 3.923405e+00 5.059035e+00 5.800242e+00 6.055755e+00 5.973775e+00 5.791985e+00 5.591131e+00 5.478550e+00 5.533513e+00 5.800686e+00 6.072319e+00 6.175272e+00 6.076829e+00 5.811566e+00 5.437033e+00 5.159157e+00 5.084293e+00 5.228607e+00 5.430089e+00 5.456620e+00 5.224102e+00 4.849252e+00 4.491086e+00 4.251297e+00 4.131001e+00 4.130932e+00 4.133921e+00 4.049103e+00 3.916352e+00 3.820315e+00 3.733277e+00 3.565818e+00 3.329304e+00 3.092063e+00 2.899980e+00 2.754982e+00 2.633958e+00 2.527216e+00 2.429979e+00 2.346515e+00 2.284486e+00 2.220404e+00 2.148799e+00 2.067735e+00 1.990975e+00 1.916142e+00 1.848052e+00 1.786128e+00 1.747687e+00 1.734689e+00 1.722536e+00 1.710094e+00 1.707164e+00 1.710164e+00 1.706452e+00 1.692258e+00 1.691591e+00 1.732070e+00 1.805650e+00 1.882611e+00 1.956038e+00 2.034275e+00 2.090896e+00 2.130365e+00 2.190560e+00 2.257855e+00 2.278370e+00 2.245060e+00 2.201843e+00 2.171999e+00 2.134490e+00 2.073772e+00 2.002810e+00 1.935402e+00 1.880996e+00 1.850119e+00 1.841648e+00 1.839972e+00 1.840299e+00 1.843570e+00 1.853448e+00 1.874894e+00 1.919538e+00 1.994813e+00 2.075209e+00 2.113192e+00 2.079579e+00 1.998929e+00 1.924359e+00 1.898991e+00 1.947988e+00 2.061737e+00 2.205316e+00 2.363178e+00 2.537632e+00 2.739136e+00 2.983215e+00 3.272314e+00 3.605412e+00 3.990553e+00 4.410998e+00 4.824943e+00 5.205020e+00 5.540918e+00 5.827415e+00 6.051960e+00 6.172900e+00 6.150893e+00 6.002810e+00 5.806299e+00 5.637169e+00 5.518239e+00 5.416278e+00 5.294687e+00 5.141446e+00 4.952456e+00 4.728765e+00 4.502904e+00 4.340935e+00 4.275488e+00 4.273601e+00 4.287269e+00 4.314227e+00 4.306524e+00 4.430907e+00 4.561650e+00
<GCONST> 3.816559e+02
<MIXTURE> 14 4.077006e-02
<MEAN> 128
 7.481711e+00 8.765817e+00 1.002372e+01 1.106010e+01 1.182029e+01 1.215213e+01 1.228398e+01 1.222210e+01 1.211565e+01 1.205919e+01 1.208099e+01 1.230952e+01 1.252842e+01 1.254891e+01 1.239275e+01 1.220307e+01 1.207587e+01 1.200358e+01 1.204082e+01 1.213531e+01 1.225913e+01 1.238138e+01 1.249676e+01 1.255615e+01 1.250857e+01 1.232085e+01 1.199423e+01 1.166851e+01 1.142935e+01 1.124166e+01 1.108868e+01 1.101206e+01 1.101664e+01 1.100779e+01 1.094222e+01 1.085503e+01 1.075163e+01 1.056377e+01 1.029631e+01 9.986235e+00 9.711179e+00 9.555147e+00 9.460223e+00 9.354899e+00 9.236973e+00 9.106115e+00 8.960707e+00 8.797320e+00 8.610899e+00 8.444823e+00 8.310829e+00 8.154075e+00 7.988968e+00 7.870422e+00 7.836188e+00 7.848130e+00 7.833834e+00 7.782994e+00 7.708847e+00 7.665327e+00 7.642922e+00 7.638370e+00 7.677711e+00 7.799624e+00 7.964684e+00 8.094670e+00 8.190358e+00 8.271764e+00 8.309129e+00 8.267124e+00 8.168041e+00 8.056126e+00 7.918769e+00 7.733047e+00 7.562770e+00 7.493390e+00 7.575198e+00 7.780645e+00 8.009366e+00 8.184937e+00 8.261500e+00 8.233643e+00 8.127791e+00 8.015044e+00 7.982542e+00 8.060631e+00 8.174841e+00 8.254739e+00 8.288278e+00 8.269885e+00 8.199535e+00 8.086753e+00 7.963561e+00 7.873959e+00 7.822636e+00 7.800360e+00 7.818911e+00 7.835718e+00 7.839422e+00 7.844962e+00 7.863005e+00 7.888134e+00 7.901924e+00 7.789361e+00 7.632541e+00 7.448503e+00 7.266648e+00 7.105974e+00 6.954859e+00 6.798120e+00 6.640997e+00 6.418333e+00 6.201109e+00 5.976118e+00 5.743593e+00 5.519400e+00 5.317153e+00 5.138409e+00 4.973906e+00 4.863050e+00 4.770105e+00 4.655017e+00 4.505737e+00 4.319655e+00 4.011449e+00 3.338478e+00 3.566554e+00 4.081761e+00
<VARIANCE> 128
 2.395858e+00 3.843603e+00 5.540974e+00 6.800818e+00 7.396834e+00 7.330291e+00 6.825246e+00 6.286404e+00 5.886871e+00 5.659244e+00 5.651170e+00 5.839212e+00 6.158537e+00 6.509710e+00 6.797847e+00 6.958191e+00 6.938924e+00 6.819243e+00 6.692916e+00 6.663891e+00 6.735049e+00 6.783036e+00 6.708412e+00 6.524182e+00 6.180850e+00 5.704096e+00 5.205297e+00 4.865832e+00 4.841362e+00 4.866453e+00 4.654436e+00 4.354596e+00 4.103535e+00 3.798535e+00 3.425077e+00 3.171641e+00 3.069996e+00 2.991466e+00 2.823351e+00 2.523607e+00 2.161430e+00 1.806107e+00 1.560403e+00 1.425659e+00 1.420336e+00 1.522016e+00 1.652015e+00 1.775040e+00 1.922487e+00 2.092576e+00 2.264107e+00 2.450744e+00 2.642193e+00 2.803560e+00 2.848310e+00 2.749878e+00 2.546248e+00 2.288360e+00 2.030898e+00 1.797727e+00 1.636044e+00 1.510060e+00 1.429847e+00 1.464005e+00 1.626317e+00 1.900806e+00 2.232926e+00 2.475454e+00 2.517733e+00 2.357641e+00 2.058210e+00 1.728503e+00 1.467699e+00 1.246237e+00 1.047256e+00 9.154586e-01 8.793505e-01 9.255840e-01 1.002354e+00 1.088368e+00 1.149484e+00 1.163794e+00 1.162381e+00 1.195446e+00 1.327998e+00 1.562268e+00 1.813990e+00 1.979879e+00 2.003495e+00 1.910256e+00 1.768783e+00 1.625394e+00 1.512975e+00 1.457225e+00 1.459915e+00 1.477452e+00 1.468748e+00 1.435671e+00 1.388920e+00 1.322525e+00 1.240031e+00 1.166009e+00 1.120230e+00 1.088611e+00 1.044520e+00 9.828755e-01 9.273497e-01 9.086951e-01 9.231840e-01 9.300845e-01 9.023547e-01 8.542126e-01 8.061424e-01 7.640876e-01 7.333509e-01 7.186548e-01 7.188325e-01 7.293150e-01 7.471654e-01 7.727081e-01 8.126813e-01 8.606724e-01 8.947368e-01 9.143443e-01 9.305557e-01 9.018272e-01 9.878376e-01 1.060067e+00
<GCONST> 3.280795e+02
<MIXTURE> 15 3.592588e-02
<MEAN> 128
 6.103745e+00 6.779648e+00 7.552670e+00 8.231199e+00 8.742793e+00 8.937487e+00 9.057761e+00 9.088604e+00 9.118494e+00 9.192595e+00 9.275037e+00 9.432107e+00 9.546891e+00 9.518158e+00 9.379091e+00 9.253699e+00 9.215590e+00 9.183796e+00 9.179029e+00 9.180619e+00 9.228542e+00 9.319762e+00 9.449128e+00 9.558999e+00 9.554255e+00 9.403825e+00 9.104397e+00 8.823685e+00 8.683619e+00 8.577875e+00 8.446142e+00 8.337551e+00 8.348130e+00 8.362396e+00 8.324370e+00 8.289922e+00 8.258914e+00 8.143534e+00 7.944514e+00 7.694367e+00 7.449470e+00 7.280060e+00 7.147576e+00 7.008944e+00 6.871684e+00 6.731799e+00 6.590586e+00 6.445594e+00 6.295089e+00 6.170066e+00 6.081385e+00 5.982062e+00 5.887602e+00 5.827394e+00 5.808160e+00 5.802584e+00 5.778879e+00 5.750355e+00 5.715566e+00 5.696061e+00 5.684241e+00 5.668705e+00 5.659010e+00 5.692036e+00 5.747684e+00 5.782488e+00 5.822180e+00 5.885177e+00 5.941872e+00 5.960631e+00 5.954622e+00 5.953176e+00 5.937383e+00 5.881229e+00 5.834036e+00 5.848238e+00 5.937147e+00 6.070118e+00 6.195030e+00 6.293252e+00 6.345157e+00 6.348988e+00 6.318906e+00 6.289349e+00 6.297258e+00 6.360471e+00 6.452537e+00 6.541192e+00 6.619371e+00 6.676650e+00 6.712409e+00 6.735196e+00 6.767336e+00 6.828287e+00 6.895747e+00 6.951014e+00 7.018005e+00 7.073883e+00 7.114492e+00 7.143053e+00 7.164610e+00 7.187413e+00 7.212352e+00 7.133143e+00 7.033112e+00 6.923913e+00 6.823391e+00 6.739182e+00 6.658255e+00 6.561191e+00 6.446989e+00 6.255257e+00 6.069179e+00 5.882422e+00 5.690193e+00 5.492994e+00 5.296024e+00 5.102775e+00 4.912498e+00 4.769022e+00 4.641746e+00 4.499672e+00 4.333292e+00 4.128262e+00 3.793585e+00 3.114564e+00 3.322518e+00 3.819168e+00
<VARIANCE> 128
 3.261404e+00 3.153098e+00 3.817166e+00 4.714170e+00 5.240542e+00 5.295981e+00 5.239487e+00 5.325370e+00 5.472567e+00 5.697605e+00 6.157308e+00 6.610884e+00 6.770185e+00 6.582114e+00 6.176962e+00 5.777415e+00 5.594529e+00 5.541933e+00 5.468947e+00 5.318702e+00 5.271769e+00 5.273516e+00 5.327695e+00 5.359846e+00 5.196732e+00 4.735075e+00 4.039109e+00 3.565377e+00 3.649170e+00 3.631310e+00 3.241498e+00 2.870906e+00 2.929148e+00 2.977540e+00 2.861973e+00 2.800175e+00 2.812155e+00 2.739580e+00 2.544878e+00 2.263398e+00 2.011942e+00 1.844645e+00 1.750458e+00 1.707636e+00 1.713812e+00 1.756157e+00 1.759325e+00 1.720785e+00 1.662427e+00 1.599901e+00 1.545948e+00 1.525314e+00 1.528102e+00 1.537919e+00 1.534937e+00 1.515744e+00 1.462798e+00 1.380396e+00 1.310301e+00 1.264734e+00 1.231884e+00 1.184668e+00 1.129024e+00 1.107288e+00 1.122484e+00 1.145110e+00 1.200271e+00 1.281068e+00 1.306802e+00 1.240662e+00 1.131046e+00 1.042600e+00 9.928015e-01 9.332141e-01 8.500452e-01 7.744567e-01 7.408831e-01 7.601379e-01 7.943943e-01 8.072814e-01 7.885941e-01 7.376138e-01 6.599343e-01 5.804384e-01 5.360636e-01 5.454142e-01 5.839128e-01 6.135398e-01 6.234670e-01 6.248851e-01 6.199806e-01 6.089942e-01 6.111825e-01 6.389118e-01 6.809119e-01 7.198408e-01 7.502313e-01 7.712895e-01 7.827942e-01 7.771745e-01 7.540805e-01 7.260394e-01 7.100715e-01 7.101636e-01 7.179547e-01 7.305252e-01 7.571760e-01 8.077133e-01 8.720824e-01 9.127656e-01 9.116606e-01 8.875285e-01 8.636902e-01 8.404163e-01 8.141082e-01 7.888654e-01 7.733770e-01 7.701101e-01 7.798072e-01 8.035758e-01 8.472416e-01 9.061994e-01 9.611529e-01 1.003080e+00 1.029297e+00 1.066584e+00 1.156332e+00 1.176191e+00
<GCONST> 2.907368e+02
<MIXTURE> 16 2.843875e-02
<MEAN> 128
 5.532739e+00 6.098188e+00 6.706042e+00 7.265277e+00 7.717014e+00 7.897373e+00 8.026093e+00 8.038960e+00 7.977447e+00 7.945868e+00 7.912405e+00 7.975158e+00 8.035248e+00 7.959721e+00 7.792161e+00 7.658273e+00 7.613843e+00 7.592346e+00 7.565842e+00 7.547463e+00 7.570100e+00 7.603415e+00 7.637137e+00 7.640939e+00 7.554729e+00 7.344810e+00 7.014001e+00 6.679804e+00 6.432399e+00 6.247211e+00 6.097139e+00 5.972668e+00 5.851242e+00 5.741715e+00 5.644128e+00 5.571393e+00 5.520219e+00 5.433842e+00 5.301246e+00 5.146696e+00 4.986239e+00 4.859666e+00 4.744992e+00 4.631019e+00 4.522305e+00 4.416515e+00 4.316968e+00 4.226117e+00 4.153095e+00 4.094189e+00 4.038869e+00 3.973335e+00 3.906500e+00 3.862352e+00 3.845675e+00 3.832051e+00 3.807332e+00 3.788713e+00 3.758957e+00 3.731186e+00 3.712865e+00 3.706383e+00 3.709917e+00 3.730330e+00 3.759236e+00 3.773376e+00 3.787702e+00 3.813812e+00 3.843602e+00 3.867707e+00 3.892245e+00 3.932978e+00 3.983504e+00 4.022226e+00 4.060414e+00 4.111120e+00 4.182536e+00 4.268879e+00 4.358418e+00 4.458270e+00 4.551447e+00 4.635938e+00 4.716407e+00 4.801244e+00 4.894972e+00 4.998529e+00 5.098861e+00 5.185912e+00 5.271256e+00 5.354807e+00 5.439732e+00 5.526462e+00 5.615893e+00 5.711823e+00 5.783848e+00 5.813347e+00 5.843467e+00 5.873036e+00 5.901303e+00 5.927660e+00 5.955889e+00 5.989755e+00 6.026300e+00 5.964879e+00 5.895581e+00 5.824500e+00 5.754395e+00 5.684917e+00 5.613503e+00 5.535950e+00 5.450246e+00 5.282543e+00 5.111170e+00 4.936528e+00 4.758003e+00 4.575326e+00 4.389884e+00 4.202520e+00 4.011138e+00 3.859650e+00 3.718120e+00 3.559868e+00 3.381511e+00 3.173056e+00 2.840533e+00 2.160423e+00 2.364630e+00 2.869600e+00
<VARIANCE> 128
 5.260219e+00 4.765229e+00 4.920284e+00 5.297298e+00 5.351048e+00 4.953286e+00 4.547692e+00 4.239565e+00 3.758560e+00 3.324955e+00 3.264425e+00 3.596266e+00 3.646619e+00 3.248098e+00 2.650760e+00 2.196699e+00 2.010123e+00 1.948665e+00 1.820246e+00 1.620524e+00 1.534459e+00 1.505655e+00 1.476738e+00 1.483397e+00 1.480598e+00 1.339533e+00 1.129525e+00 1.007980e+00 1.007112e+00 1.000504e+00 9.503381e-01 9.480823e-01 9.852258e-01 1.026309e+00 1.056185e+00 1.049417e+00 1.061828e+00 1.067437e+00 1.024963e+00 9.684632e-01 8.901317e-01 8.354056e-01 7.818579e-01 7.445337e-01 7.178156e-01 7.006424e-01 6.843972e-01 6.600108e-01 6.259403e-01 5.973239e-01 5.685221e-01 5.442551e-01 5.354506e-01 5.446678e-01 5.695503e-01 5.964509e-01 5.978386e-01 5.735491e-01 5.424624e-01 5.227283e-01 5.127540e-01 4.996918e-01 4.763057e-01 4.616641e-01 4.595331e-01 4.543958e-01 4.480748e-01 4.551018e-01 4.636002e-01 4.524917e-01 4.242285e-01 3.974960e-01 3.758081e-01 3.515925e-01 3.320668e-01 3.222391e-01 3.158437e-01 3.107812e-01 3.091659e-01 3.139481e-01 3.206457e-01 3.175724e-01 3.053960e-01 2.912439e-01 2.818863e-01 2.859397e-01 2.975688e-01 3.036733e-01 3.039774e-01 3.020112e-01 2.974345e-01 2.910077e-01 2.830931e-01 2.728020e-01 2.632445e-01 2.604294e-01 2.656573e-01 2.742299e-01 2.804054e-01 2.805021e-01 2.735822e-01 2.634596e-01 2.558845e-01 2.531996e-01 2.520671e-01 2.501634e-01 2.493913e-01 2.517468e-01 2.555673e-01 2.583388e-01 2.586179e-01 2.573512e-01 2.550376e-01 2.523698e-01 2.503599e-01 2.486002e-01 2.462483e-01 2.456376e-01 2.481098e-01 2.530752e-01 2.603735e-01 2.662780e-01 2.646248e-01 2.569862e-01 2.551261e-01 2.730784e-01 2.892349e-01 3.058577e-01
<GCONST> 1.720718e+02
<TRANSP> 3
 0.000000e+00 1.000000e+00 0.000000e+00
 0.000000e+00 9.933594e-01 6.640634e-03
 0.000000e+00 0.000000e+00 0.000000e+00
<ENDHMM>
~h "spkr2"
<BEGINHMM>
<NUMSTATES> 3
<STATE> 2
<NUMMIXES> 16
<MIXTURE> 1 5.325132e-02
<MEAN> 128
 7.141815e+00 8.703493e+00 1.036372e+01 1.198240e+01 1.355682e+01 1.486487e+01 1.596018e+01 1.667005e+01 1.702487e+01 1.707051e+01 1.680983e+01 1.650767e+01 1.635220e+01 1.644731e+01 1.679806e+01 1.732081e+01 1.786084e+01 1.823598e+01 1.841048e+01 1.837481e+01 1.818025e+01 1.789931e+01 1.766992e+01 1.758390e+01 1.764398e+01 1.777703e+01 1.785628e+01 1.791011e+01 1.800381e+01 1.817360e+01 1.838900e+01 1.858419e+01 1.872628e+01 1.884106e+01 1.895949e+01 1.908600e+01 1.920087e+01 1.925788e+01 1.924856e+01 1.917434e+01 1.905301e+01 1.888194e+01 1.863923e+01 1.830622e+01 1.788378e+01 1.739277e+01 1.687291e+01 1.637044e+01 1.594123e+01 1.563676e+01 1.545866e+01 1.533383e+01 1.520064e+01 1.504211e+01 1.487727e+01 1.472580e+01 1.460650e+01 1.453168e+01 1.447890e+01 1.445918e+01 1.444729e+01 1.441210e+01 1.436871e+01 1.438810e+01 1.451482e+01 1.471442e+01 1.495799e+01 1.522229e+01 1.547352e+01 1.569337e+01 1.589049e+01 1.607195e+01 1.620987e+01 1.627023e+01 1.626176e+01 1.619810e+01 1.609798e+01 1.599535e+01 1.594018e+01 1.600224e+01 1.619719e+01 1.648820e+01 1.681260e+01 1.711212e+01 1.733169e+01 1.742477e+01 1.735491e+01 1.712865e+01 1.680820e+01 1.645474e+01 1.612981e+01 1.588383e+01 1.573528e+01 1.566439e+01 1.561734e+01 1.555429e+01 1.547626e+01 1.533589e+01 1.511288e+01 1.481969e+01 1.448549e+01 1.413520e+01 1.378230e+01 1.335107e+01 1.296884e+01 1.267657e+01 1.250479e+01 1.247007e+01 1.254493e+01 1.264044e+01 1.265364e+01 1.245147e+01 1.211766e+01 1.169665e+01 1.122587e+01 1.072413e+01 1.021888e+01 9.759093e+00 9.398710e+00 9.235729e+00 9.261201e+00 9.378568e+00 9.458219e+00 9.390793e+00 9.074019e+00 8.372660e+00 8.512270e+00 8.957479e+00
<VARIANCE> 128
 8.972904e-01 8.947556e-01 1.022231e+00 1.158048e+00 1.179853e+00 1.020397e+00 7.488140e-01 5.540150e-01 6.288629e-01 1.001829e+00 1.446918e+00 1.592389e+00 1.309101e+00 9.181877e-01 7.845666e-01 8.962937e-01 1.022387e+00 1.020134e+00 9.711457e-01 1.034787e+00 1.196175e+00 1.300112e+00 1.278180e+00 1.192559e+00 1.107652e+00 1.082314e+00 1.205179e+00 1.449491e+00 1.640551e+00 1.673435e+00 1.594909e+00 1.505116e+00 1.445411e+00 1.348504e+00 1.177619e+00 1.032271e+00 1.046202e+00 1.265839e+00 1.670980e+00 2.184848e+00 2.707550e+00 3.189817e+00 3.582997e+00 3.836776e+00 3.968572e+00 4.000950e+00 3.918936e+00 3.703488e+00 3.358148e+00 2.985115e+00 2.700995e+00 2.511512e+00 2.383187e+00 2.310480e+00 2.303248e+00 2.375395e+00 2.526311e+00 2.716208e+00 2.915998e+00 3.137139e+00 3.360695e+00 3.557145e+00 3.742178e+00 3.943197e+00 4.111591e+00 4.182594e+00 4.179091e+00 4.145458e+00 4.064405e+00 3.882301e+00 3.582551e+00 3.199159e+00 2.766690e+00 2.308525e+00 1.887395e+00 1.580573e+00 1.413429e+00 1.376396e+00 1.423296e+00 1.485171e+00 1.509562e+00 1.452112e+00 1.291746e+00 1.066313e+00 8.743858e-01 8.059320e-01 8.535419e-01 9.344573e-01 9.713668e-01 9.441064e-01 8.998070e-01 9.202291e-01 1.028045e+00 1.144434e+00 1.189304e+00 1.168701e+00 1.176585e+00 1.303170e+00 1.527092e+00 1.755757e+00 1.935152e+00 2.077274e+00 2.200891e+00 2.272771e+00 2.230581e+00 2.094141e+00 2.030879e+00 2.193168e+00 2.518377e+00 2.799347e+00 2.885863e+00 2.749998e+00 2.459428e+00 2.155548e+00 1.954306e+00 1.833478e+00 1.694762e+00 1.509120e+00 1.354158e+00 1.332885e+00 1.428736e+00 1.500428e+00 1.436952e+00 1.278251e+00 1.147704e+00 1.057221e+00 1.078988e+00 1.223275e+00
<GCONST> 3.016261e+02
<MIXTURE> 2 5.428864e-02
<MEAN> 128
 6.823089e+00 7.933146e+00 9.082351e+00 1.006867e+01 1.082088e+01 1.120990e+01 1.151451e+01 1.164545e+01 1.167377e+01 1.169916e+01 1.169833e+01 1.177929e+01 1.186102e+01 1.187046e+01 1.184684e+01 1.190188e+01 1.204407e+01 1.215719e+01 1.226079e+01 1.237263e+01 1.252438e+01 1.269483e+01 1.289841e+01 1.311118e+01 1.327515e+01 1.337203e+01 1.339921e+01 1.345308e+01 1.352267e+01 1.354511e+01 1.349790e+01 1.341177e+01 1.333937e+01 1.327030e+01 1.318434e+01 1.309495e+01 1.300114e+01 1.287918e+01 1.273760e+01 1.257368e+01 1.240751e+01 1.225614e+01 1.208989e+01 1.187902e+01 1.163891e+01 1.139585e+01 1.116964e+01 1.096482e+01 1.081233e+01 1.076449e+01 1.080388e+01 1.082627e+01 1.078244e+01 1.069328e+01 1.060381e+01 1.053517e+01 1.049712e+01 1.049456e+01 1.050078e+01 1.053186e+01 1.056733e+01 1.057919e+01 1.057658e+01 1.061389e+01 1.072318e+01 1.087672e+01 1.106286e+01 1.128637e+01 1.153837e+01 1.180322e+01 1.208617e+01 1.239930e+01 1.271922e+01 1.299387e+01 1.320390e+01 1.333902e+01 1.339522e+01 1.338638e+01 1.334276e+01 1.331367e+01 1.331964e+01 1.336722e+01 1.345419e+01 1.360100e+01 1.382458e+01 1.409776e+01 1.433982e+01 1.449108e+01 1.455915e+01 1.457436e+01 1.459378e+01 1.467467e+01 1.483360e+01 1.504553e+01 1.525897e+01 1.544671e+01 1.563197e+01 1.578019e+01 1.585973e+01 1.586569e+01 1.583196e+01 1.581760e+01 1.587574e+01 1.592812e+01 1.603158e+01 1.613405e+01 1.620237e+01 1.623805e+01 1.626264e+01 1.627929e+01 1.625375e+01 1.607003e+01 1.580142e+01 1.547897e+01 1.512267e+01 1.473578e+01 1.434910e+01 1.400637e+01 1.371049e+01 1.349320e+01 1.332256e+01 1.316020e+01 1.297636e+01 1.272673e+01 1.231008e+01 1.159713e+01 1.163859e+01 1.201230e+01
<VARIANCE> 128
 2.337226e+00 2.863889e+00 3.680064e+00 4.530704e+00 5.414705e+00 6.292419e+00 6.934392e+00 7.304502e+00 7.327859e+00 7.004626e+00 6.558266e+00 6.177722e+00 6.055907e+00 6.225415e+00 6.618547e+00 7.034742e+00 7.226854e+00 7.116113e+00 6.771609e+00 6.361504e+00 6.016712e+00 5.766930e+00 5.492465e+00 5.165700e+00 4.837469e+00 4.511691e+00 4.210583e+00 3.931103e+00 3.676151e+00 3.482868e+00 3.328629e+00 3.190779e+00 3.026747e+00 2.897632e+00 2.828363e+00 2.759240e+00 2.694035e+00 2.645192e+00 2.628607e+00 2.662993e+00 2.713827e+00 2.739318e+00 2.765738e+00 2.795416e+00 2.824619e+00 2.860553e+00 2.906148e+00 2.967935e+00 3.021866e+00 3.049087e+00 3.077739e+00 3.124948e+00 3.179549e+00 3.232487e+00 3.276743e+00 3.319432e+00 3.380700e+00 3.473269e+00 3.593841e+00 3.729779e+00 3.870967e+00 4.006532e+00 4.154290e+00 4.307181e+00 4.400889e+00 4.394755e+00 4.313674e+00 4.178410e+00 3.972780e+00 3.686149e+00 3.329019e+00 2.965400e+00 2.656369e+00 2.427769e+00 2.287152e+00 2.217427e+00 2.195035e+00 2.211412e+00 2.254072e+00 2.323235e+00 2.431053e+00 2.557045e+00 2.656524e+00 2.715984e+00 2.754962e+00 2.796436e+00 2.852687e+00 2.925036e+00 2.986377e+00 3.007712e+00 3.002199e+00 3.018871e+00 3.084810e+00 3.164230e+00 3.214476e+00 3.234165e+00 3.244259e+00 3.274412e+00 3.353058e+00 3.500422e+00 3.755807e+00 4.184884e+00 4.791133e+00 5.469349e+00 6.091581e+00 6.589495e+00 6.938599e+00 7.132193e+00 7.208221e+00 7.252549e+00 7.339344e+00 7.487148e+00 7.684994e+00 7.913971e+00 8.119782e+00 8.217031e+00 8.128308e+00 7.848191e+00 7.442313e+00 6.993497e+00 6.562337e+00 6.175368e+00 5.839568e+00 5.555683e+00 5.348351e+00 5.355676e+00 5.120465e+00 4.950503e+00
<GCONST> 4.153668e+02
<MIXTURE> 3 7.898862e-02
<MEAN> 128
 7.193043e+00 8.757781e+00 1.039178e+01 1.194960e+01 1.341877e+01 1.458483e+01 1.552773e+01 1.611058e+01 1.639664e+01 1.646364e+01 1.632486e+01 1.621662e+01 1.626207e+01 1.647330e+01 1.680590e+01 1.719750e+01 1.755652e+01 1.776914e+01 1.785681e+01 1.784398e+01 1.777894e+01 1.769874e+01 1.767769e+01 1.773894e+01 1.784133e+01 1.792819e+01 1.792602e+01 1.787774e+01 1.781811e+01 1.776059e+01 1.769380e+01 1.758195e+01 1.740075e+01 1.716056e+01 1.687834e+01 1.657495e+01 1.625896e+01 1.591468e+01 1.555888e+01 1.519997e+01 1.485057e+01 1.450350e+01 1.413720e+01 1.373039e+01 1.328306e+01 1.282239e+01 1.239559e+01 1.205294e+01 1.183896e+01 1.177350e+01 1.180655e+01 1.182257e+01 1.175912e+01 1.162909e+01 1.147870e+01 1.133687e+01 1.121718e+01 1.112385e+01 1.102887e+01 1.094789e+01 1.086368e+01 1.073968e+01 1.056676e+01 1.039745e+01 1.030934e+01 1.032680e+01 1.043070e+01 1.057474e+01 1.071602e+01 1.084202e+01 1.098456e+01 1.118038e+01 1.140822e+01 1.162982e+01 1.185032e+01 1.206907e+01 1.228601e+01 1.251277e+01 1.275965e+01 1.304975e+01 1.337175e+01 1.369822e+01 1.400436e+01 1.428099e+01 1.451542e+01 1.468017e+01 1.473026e+01 1.464693e+01 1.445638e+01 1.418639e+01 1.388456e+01 1.361569e+01 1.343495e+01 1.336158e+01 1.336808e+01 1.342770e+01 1.353053e+01 1.359373e+01 1.355594e+01 1.340652e+01 1.317502e+01 1.290518e+01 1.264028e+01 1.232146e+01 1.205550e+01 1.184392e+01 1.170208e+01 1.165734e+01 1.169725e+01 1.175516e+01 1.174576e+01 1.153349e+01 1.119240e+01 1.076944e+01 1.031481e+01 9.858577e+00 9.431417e+00 9.070660e+00 8.797947e+00 8.662292e+00 8.611175e+00 8.562058e+00 8.455540e+00 8.265659e+00 7.923888e+00 7.197474e+00 7.419791e+00 7.939912e+00
<VARIANCE> 128
 1.266387e+00 1.374908e+00 1.499610e+00 1.507797e+00 1.344955e+00 1.065805e+00 8.424944e-01 8.736960e-01 1.220432e+00 1.673959e+00 1.964847e+00 1.922108e+00 1.551909e+00 1.137976e+00 9.574028e-01 1.061070e+00 1.333463e+00 1.598404e+00 1.744333e+00 1.767683e+00 1.713857e+00 1.621646e+00 1.534355e+00 1.449123e+00 1.328653e+00 1.181268e+00 1.085085e+00 1.092774e+00 1.182639e+00 1.298734e+00 1.369716e+00 1.374810e+00 1.357926e+00 1.344029e+00 1.348225e+00 1.356051e+00 1.360778e+00 1.369930e+00 1.403198e+00 1.466596e+00 1.563103e+00 1.702812e+00 1.846990e+00 1.965842e+00 2.085900e+00 2.252233e+00 2.489412e+00 2.801016e+00 3.148975e+00 3.456329e+00 3.666153e+00 3.779170e+00 3.835690e+00 3.850438e+00 3.804538e+00 3.694981e+00 3.575770e+00 3.522702e+00 3.544112e+00 3.603514e+00 3.667837e+00 3.724504e+00 3.788802e+00 3.870294e+00 3.900437e+00 3.778567e+00 3.506535e+00 3.204854e+00 2.949687e+00 2.730389e+00 2.544798e+00 2.432587e+00 2.407422e+00 2.439809e+00 2.523841e+00 2.664447e+00 2.853624e+00 3.077631e+00 3.316131e+00 3.568151e+00 3.818233e+00 3.985854e+00 3.963227e+00 3.713162e+00 3.341847e+00 3.026479e+00 2.857537e+00 2.828112e+00 2.880565e+00 2.930015e+00 2.916866e+00 2.836359e+00 2.737464e+00 2.673818e+00 2.665265e+00 2.679938e+00 2.661478e+00 2.593722e+00 2.503575e+00 2.411764e+00 2.341679e+00 2.338027e+00 2.433783e+00 2.611948e+00 2.805142e+00 2.947145e+00 3.023651e+00 3.083363e+00 3.191468e+00 3.329530e+00 3.405535e+00 3.359800e+00 3.211199e+00 3.040761e+00 2.911711e+00 2.814823e+00 2.718302e+00 2.614540e+00 2.493449e+00 2.351847e+00 2.220582e+00 2.117130e+00 2.015363e+00 1.896084e+00 1.796400e+00 1.725102e+00 1.745469e+00 1.893907e+00
<GCONST> 3.388356e+02
<MIXTURE> 4 4.612458e-02
<MEAN> 128
 7.017707e+00 8.524102e+00 9.988043e+00 1.114951e+01 1.192095e+01 1.216551e+01 1.216856e+01 1.197174e+01 1.175679e+01 1.168550e+01 1.180216e+01 1.210552e+01 1.236103e+01 1.243069e+01 1.235664e+01 1.226154e+01 1.223517e+01 1.225278e+01 1.231817e+01 1.235768e+01 1.234667e+01 1.227831e+01 1.223758e+01 1.225581e+01 1.227637e+01 1.222529e+01 1.206228e+01 1.188953e+01 1.172254e+01 1.150526e+01 1.120200e+01 1.086343e+01 1.060574e+01 1.049200e+01 1.049314e+01 1.056440e+01 1.063662e+01 1.064845e+01 1.059644e+01 1.050635e+01 1.042768e+01 1.037853e+01 1.031423e+01 1.018196e+01 9.990335e+00 9.772815e+00 9.561960e+00 9.363113e+00 9.199713e+00 9.133798e+00 9.151031e+00 9.134531e+00 9.016232e+00 8.809716e+00 8.568453e+00 8.327435e+00 8.103010e+00 7.913300e+00 7.747260e+00 7.637810e+00 7.561341e+00 7.484188e+00 7.414536e+00 7.407999e+00 7.497134e+00 7.640557e+00 7.793551e+00 7.924349e+00 7.999607e+00 7.989875e+00 7.916800e+00 7.850907e+00 7.832805e+00 7.839082e+00 7.862332e+00 7.876969e+00 7.839679e+00 7.741584e+00 7.612411e+00 7.515323e+00 7.496667e+00 7.572418e+00 7.711033e+00 7.865173e+00 7.976562e+00 8.002279e+00 7.925436e+00 7.772538e+00 7.599171e+00 7.428850e+00 7.285810e+00 7.194776e+00 7.155752e+00 7.146716e+00 7.129601e+00 7.092156e+00 7.078390e+00 7.082678e+00 7.095894e+00 7.101948e+00 7.081987e+00 7.026278e+00 6.947301e+00 6.787961e+00 6.671447e+00 6.596731e+00 6.546592e+00 6.514916e+00 6.511137e+00 6.548292e+00 6.614375e+00 6.606578e+00 6.577457e+00 6.505880e+00 6.369360e+00 6.157238e+00 5.883624e+00 5.561419e+00 5.194342e+00 4.855690e+00 4.567369e+00 4.331168e+00 4.135350e+00 3.934718e+00 3.605314e+00 2.938567e+00 3.105496e+00 3.577824e+00
<VARIANCE> 128
 2.419126e+00 3.394143e+00 4.303062e+00 4.864763e+00 5.062381e+00 4.976427e+00 4.661480e+00 4.316346e+00 4.111420e+00 4.071201e+00 4.115067e+00 4.173170e+00 4.161700e+00 4.086859e+00 3.997308e+00 3.909043e+00 3.885659e+00 4.011853e+00 4.189703e+00 4.246571e+00 4.064822e+00 3.681017e+00 3.278375e+00 3.033670e+00 2.883756e+00 2.701838e+00 2.469391e+00 2.291593e+00 2.258178e+00 2.274544e+00 2.233974e+00 2.202004e+00 2.316462e+00 2.454721e+00 2.386980e+00 2.190934e+00 2.012205e+00 1.853560e+00 1.731004e+00 1.659193e+00 1.656936e+00 1.708073e+00 1.785009e+00 1.889775e+00 2.022566e+00 2.147109e+00 2.232037e+00 2.284448e+00 2.303695e+00 2.290555e+00 2.343637e+00 2.480097e+00 2.650667e+00 2.784646e+00 2.798739e+00 2.680917e+00 2.558424e+00 2.483509e+00 2.473982e+00 2.506734e+00 2.580199e+00 2.646574e+00 2.685055e+00 2.719202e+00 2.733036e+00 2.703215e+00 2.654335e+00 2.615421e+00 2.590652e+00 2.564735e+00 2.487290e+00 2.357971e+00 2.211016e+00 2.056780e+00 1.902228e+00 1.787497e+00 1.726449e+00 1.702203e+00 1.696894e+00 1.707362e+00 1.757525e+00 1.822115e+00 1.875944e+00 1.945154e+00 2.051961e+00 2.206916e+00 2.396041e+00 2.598486e+00 2.791011e+00 2.942952e+00 3.043448e+00 3.106703e+00 3.132518e+00 3.089983e+00 2.990964e+00 2.878978e+00 2.787020e+00 2.721380e+00 2.689742e+00 2.683569e+00 2.673388e+00 2.631620e+00 2.555163e+00 2.475654e+00 2.442389e+00 2.462107e+00 2.501207e+00 2.519842e+00 2.495683e+00 2.427666e+00 2.302970e+00 2.142609e+00 2.000080e+00 1.902213e+00 1.821789e+00 1.729053e+00 1.628492e+00 1.538977e+00 1.462522e+00 1.411647e+00 1.416982e+00 1.475690e+00 1.540742e+00 1.558044e+00 1.518510e+00 1.454163e+00 1.439945e+00 1.465989e+00
<GCONST> 3.508128e+02
<MIXTURE> 5 9.685957e-02
<MEAN> 128
 7.476688e+00 9.171242e+00 1.088661e+01 1.247132e+01 1.389828e+01 1.493655e+01 1.566402e+01 1.597027e+01 1.597571e+01 1.582797e+01 1.561983e+01 1.561835e+01 1.588253e+01 1.631841e+01 1.679096e+01 1.719090e+01 1.742734e+01 1.741822e+01 1.724346e+01 1.699691e+01 1.677331e+01 1.660143e+01 1.650850e+01 1.647948e+01 1.648632e+01 1.652576e+01 1.656330e+01 1.664077e+01 1.675472e+01 1.687654e+01 1.696983e+01 1.702702e+01 1.709977e+01 1.725946e+01 1.751342e+01 1.782478e+01 1.815154e+01 1.843519e+01 1.866448e+01 1.882429e+01 1.889947e+01 1.887712e+01 1.875047e+01 1.851912e+01 1.819865e+01 1.781318e+01 1.739098e+01 1.695744e+01 1.655157e+01 1.623675e+01 1.605534e+01 1.595557e+01 1.587257e+01 1.578914e+01 1.571824e+01 1.566074e+01 1.562034e+01 1.560214e+01 1.557589e+01 1.555077e+01 1.551039e+01 1.543273e+01 1.533137e+01 1.525852e+01 1.523575e+01 1.522744e+01 1.521665e+01 1.519238e+01 1.513351e+01 1.502572e+01 1.487903e+01 1.472792e+01 1.458627e+01 1.443152e+01 1.426119e+01 1.407619e+01 1.387825e+01 1.369747e+01 1.359961e+01 1.366852e+01 1.391146e+01 1.426493e+01 1.464382e+01 1.497757e+01 1.520956e+01 1.530566e+01 1.524975e+01 1.506380e+01 1.481414e+01 1.455484e+01 1.433191e+01 1.417375e+01 1.407427e+01 1.399708e+01 1.388642e+01 1.371612e+01 1.351362e+01 1.325968e+01 1.295019e+01 1.260136e+01 1.224212e+01 1.190215e+01 1.161523e+01 1.133491e+01 1.119042e+01 1.118072e+01 1.127469e+01 1.143883e+01 1.163572e+01 1.180857e+01 1.188441e+01 1.173594e+01 1.143615e+01 1.101537e+01 1.050243e+01 9.915875e+00 9.286386e+00 8.668373e+00 8.133704e+00 7.816327e+00 7.745852e+00 7.854916e+00 8.003932e+00 8.023232e+00 7.754861e+00 7.124594e+00 7.197364e+00 7.550437e+00
<VARIANCE> 128
 1.106990e+00 1.193036e+00 1.247447e+00 1.164238e+00 9.299073e-01 6.450462e-01 5.130696e-01 6.916311e-01 1.103658e+00 1.409461e+00 1.344874e+00 1.037874e+00 7.926220e-01 7.240186e-01 7.633905e-01 8.360939e-01 9.443243e-01 1.126522e+00 1.319012e+00 1.374791e+00 1.230257e+00 1.003440e+00 8.557816e-01 8.192078e-01 8.084894e-01 7.582323e-01 7.358611e-01 8.209661e-01 9.854667e-01 1.157367e+00 1.341317e+00 1.555372e+00 1.738437e+00 1.785191e+00 1.715706e+00 1.591166e+00 1.419152e+00 1.251926e+00 1.157470e+00 1.173947e+00 1.299964e+00 1.487211e+00 1.683251e+00 1.868276e+00 2.051964e+00 2.240802e+00 2.400193e+00 2.484067e+00 2.489706e+00 2.497639e+00 2.572341e+00 2.676924e+00 2.784377e+00 2.938486e+00 3.160786e+00 3.412471e+00 3.645758e+00 3.825289e+00 3.917104e+00 3.899810e+00 3.788552e+00 3.609260e+00 3.368695e+00 3.072912e+00 2.757644e+00 2.487966e+00 2.303045e+00 2.223446e+00 2.230385e+00 2.276110e+00 2.359065e+00 2.506214e+00 2.680835e+00 2.805341e+00 2.843016e+00 2.797685e+00 2.693770e+00 2.577333e+00 2.515986e+00 2.541826e+00 2.579590e+00 2.480850e+00 2.173595e+00 1.733037e+00 1.322775e+00 1.066195e+00 9.585707e-01 9.233884e-01 9.028322e-01 8.853834e-01 9.019337e-01 9.937829e-01 1.133726e+00 1.225634e+00 1.206928e+00 1.109102e+00 1.030863e+00 1.034499e+00 1.102132e+00 1.181367e+00 1.239730e+00 1.274961e+00 1.296213e+00 1.322184e+00 1.389821e+00 1.539518e+00 1.804655e+00 2.174690e+00 2.556021e+00 2.817004e+00 2.887124e+00 2.780293e+00 2.548490e+00 2.271222e+00 2.026290e+00 1.832262e+00 1.657965e+00 1.484973e+00 1.339626e+00 1.312315e+00 1.477813e+00 1.729225e+00 1.861042e+00 1.804769e+00 1.651493e+00 1.458635e+00 1.429550e+00 1.563823e+00
<GCONST> 2.956076e+02
<MIXTURE> 6 7.099588e-02
<MEAN> 128
 7.652721e+00 9.396782e+00 1.110764e+01 1.262903e+01 1.393458e+01 1.480832e+01 1.535889e+01 1.551594e+01 1.544628e+01 1.536319e+01 1.535848e+01 1.558531e+01 1.599291e+01 1.642419e+01 1.675650e+01 1.695161e+01 1.700624e+01 1.692484e+01 1.682254e+01 1.675164e+01 1.672331e+01 1.669612e+01 1.668029e+01 1.668244e+01 1.668834e+01 1.667717e+01 1.660034e+01 1.650934e+01 1.642208e+01 1.633269e+01 1.622074e+01 1.607213e+01 1.592146e+01 1.581920e+01 1.575243e+01 1.567259e+01 1.554145e+01 1.532847e+01 1.505279e+01 1.473496e+01 1.440980e+01 1.409982e+01 1.379199e+01 1.346564e+01 1.313118e+01 1.282861e+01 1.260886e+01 1.249634e+01 1.249970e+01 1.261835e+01 1.279378e+01 1.290445e+01 1.288828e+01 1.275371e+01 1.253988e+01 1.228004e+01 1.200924e+01 1.175888e+01 1.151809e+01 1.130972e+01 1.112403e+01 1.093709e+01 1.075208e+01 1.062003e+01 1.058084e+01 1.061201e+01 1.068304e+01 1.075440e+01 1.077762e+01 1.072342e+01 1.060655e+01 1.049325e+01 1.043519e+01 1.042162e+01 1.043880e+01 1.045263e+01 1.041667e+01 1.032087e+01 1.020014e+01 1.012155e+01 1.012894e+01 1.022992e+01 1.037700e+01 1.051811e+01 1.061443e+01 1.064159e+01 1.057517e+01 1.041199e+01 1.018967e+01 9.942064e+00 9.708553e+00 9.521224e+00 9.381834e+00 9.268425e+00 9.139511e+00 8.986756e+00 8.871431e+00 8.798833e+00 8.748774e+00 8.690032e+00 8.598910e+00 8.469203e+00 8.325547e+00 8.124446e+00 7.992685e+00 7.923388e+00 7.892072e+00 7.894109e+00 7.951199e+00 8.082920e+00 8.264025e+00 8.361385e+00 8.406152e+00 8.367227e+00 8.205962e+00 7.897451e+00 7.465453e+00 6.968205e+00 6.464875e+00 6.066823e+00 5.803845e+00 5.653702e+00 5.559649e+00 5.444770e+00 5.180207e+00 4.572167e+00 4.749603e+00 5.188636e+00
<VARIANCE> 128
 1.272667e+00 1.439349e+00 1.481570e+00 1.318493e+00 9.984384e-01 7.332910e-01 8.024041e-01 1.285644e+00 1.912908e+00 2.134252e+00 1.818783e+00 1.384332e+00 1.045737e+00 8.864925e-01 9.974217e-01 1.384000e+00 1.896760e+00 2.240633e+00 2.252630e+00 2.053087e+00 1.853941e+00 1.802738e+00 1.870771e+00 1.869575e+00 1.687770e+00 1.425867e+00 1.260109e+00 1.262204e+00 1.372309e+00 1.474970e+00 1.517627e+00 1.515360e+00 1.467223e+00 1.357988e+00 1.248846e+00 1.201977e+00 1.218544e+00 1.287236e+00 1.403294e+00 1.556799e+00 1.739002e+00 1.921740e+00 2.086302e+00 2.219863e+00 2.327902e+00 2.411300e+00 2.431036e+00 2.384895e+00 2.317883e+00 2.257940e+00 2.214947e+00 2.208385e+00 2.253473e+00 2.330812e+00 2.409683e+00 2.494590e+00 2.612934e+00 2.764704e+00 2.916022e+00 3.029452e+00 3.076038e+00 3.019021e+00 2.876585e+00 2.710317e+00 2.563101e+00 2.442320e+00 2.332346e+00 2.239606e+00 2.173748e+00 2.106782e+00 2.029901e+00 1.980660e+00 1.980507e+00 2.021092e+00 2.101651e+00 2.203654e+00 2.277243e+00 2.270146e+00 2.155038e+00 1.969401e+00 1.830827e+00 1.772850e+00 1.718090e+00 1.624383e+00 1.504512e+00 1.389128e+00 1.295318e+00 1.236880e+00 1.225847e+00 1.259376e+00 1.350332e+00 1.519112e+00 1.734740e+00 1.907668e+00 1.969638e+00 1.905560e+00 1.736384e+00 1.522227e+00 1.351908e+00 1.272125e+00 1.250964e+00 1.214859e+00 1.120472e+00 1.017717e+00 9.871077e-01 1.033158e+00 1.118093e+00 1.234695e+00 1.411767e+00 1.644459e+00 1.867013e+00 2.058311e+00 2.239180e+00 2.383744e+00 2.433289e+00 2.343644e+00 2.126845e+00 1.836937e+00 1.533765e+00 1.286283e+00 1.170716e+00 1.185040e+00 1.251752e+00 1.295866e+00 1.268549e+00 1.131042e+00 1.187360e+00 1.347028e+00
<GCONST> 3.020062e+02
<MIXTURE> 7 7.686518e-02
<MEAN> 128
 5.582697e+00 6.417602e+00 7.330582e+00 8.109747e+00 8.630733e+00 8.759552e+00 8.807023e+00 8.705690e+00 8.525724e+00 8.392992e+00 8.295013e+00 8.334663e+00 8.379994e+00 8.326123e+00 8.225737e+00 8.200836e+00 8.241998e+00 8.267969e+00 8.286600e+00 8.307120e+00 8.371775e+00 8.497709e+00 8.715496e+00 8.977047e+00 9.196351e+00 9.346482e+00 9.440334e+00 9.587468e+00 9.766880e+00 9.906271e+00 9.985675e+00 1.003253e+01 1.008269e+01 1.012801e+01 1.014817e+01 1.015345e+01 1.014979e+01 1.011032e+01 1.004353e+01 9.955750e+00 9.857938e+00 9.751715e+00 9.621294e+00 9.452976e+00 9.259703e+00 9.066385e+00 8.890985e+00 8.745298e+00 8.654184e+00 8.646057e+00 8.702529e+00 8.743936e+00 8.729990e+00 8.670199e+00 8.591818e+00 8.512380e+00 8.448378e+00 8.408893e+00 8.363286e+00 8.325951e+00 8.297750e+00 8.282274e+00 8.312962e+00 8.444036e+00 8.688679e+00 9.005527e+00 9.372934e+00 9.780961e+00 1.020409e+01 1.059821e+01 1.092145e+01 1.115795e+01 1.129899e+01 1.133313e+01 1.128577e+01 1.118405e+01 1.104708e+01 1.090267e+01 1.078345e+01 1.071943e+01 1.070166e+01 1.072550e+01 1.079855e+01 1.094665e+01 1.117695e+01 1.145367e+01 1.171222e+01 1.193042e+01 1.215593e+01 1.243766e+01 1.280738e+01 1.325854e+01 1.374797e+01 1.423609e+01 1.468642e+01 1.508366e+01 1.545936e+01 1.579424e+01 1.607906e+01 1.633333e+01 1.660267e+01 1.693087e+01 1.733231e+01 1.768278e+01 1.801542e+01 1.828577e+01 1.848191e+01 1.861864e+01 1.872042e+01 1.879348e+01 1.880964e+01 1.866144e+01 1.842815e+01 1.813868e+01 1.780874e+01 1.743699e+01 1.704363e+01 1.666507e+01 1.631348e+01 1.603148e+01 1.578710e+01 1.554095e+01 1.526534e+01 1.492119e+01 1.442852e+01 1.370643e+01 1.365120e+01 1.395438e+01
<VARIANCE> 128
 2.530115e+00 3.597109e+00 5.070637e+00 6.245671e+00 6.675065e+00 6.386019e+00 5.845919e+00 5.369442e+00 4.877749e+00 4.467063e+00 4.309620e+00 4.295515e+00 4.133881e+00 3.815577e+00 3.551268e+00 3.530320e+00 3.595025e+00 3.559096e+00 3.399554e+00 3.125699e+00 2.851388e+00 2.696039e+00 2.650438e+00 2.572159e+00 2.355121e+00 2.022927e+00 1.714990e+00 1.580134e+00 1.523430e+00 1.409166e+00 1.245351e+00 1.119423e+00 1.064931e+00 1.033328e+00 9.897816e-01 9.547900e-01 9.352920e-01 9.102640e-01 8.804520e-01 8.609869e-01 8.557086e-01 8.580868e-01 8.657351e-01 8.661535e-01 8.546405e-01 8.396010e-01 8.265565e-01 8.100906e-01 7.925366e-01 8.008968e-01 8.477972e-01 8.905036e-01 8.972237e-01 8.874839e-01 8.918858e-01 9.143821e-01 9.467700e-01 9.894507e-01 1.047463e+00 1.121246e+00 1.183615e+00 1.203175e+00 1.196939e+00 1.222754e+00 1.305834e+00 1.452769e+00 1.678616e+00 1.928879e+00 2.060815e+00 1.980131e+00 1.743368e+00 1.509989e+00 1.391965e+00 1.385911e+00 1.424991e+00 1.438630e+00 1.385878e+00 1.269791e+00 1.123912e+00 9.822016e-01 8.731837e-01 7.994406e-01 7.560793e-01 7.637389e-01 8.305030e-01 9.279792e-01 1.011033e+00 1.061786e+00 1.111052e+00 1.219042e+00 1.424000e+00 1.693394e+00 1.952177e+00 2.173323e+00 2.377853e+00 2.584844e+00 2.796480e+00 3.020610e+00 3.290236e+00 3.649475e+00 4.121243e+00 4.668720e+00 5.160290e+00 5.461939e+00 5.569540e+00 5.572083e+00 5.545115e+00 5.529685e+00 5.540224e+00 5.582395e+00 5.653691e+00 5.728870e+00 5.787821e+00 5.845265e+00 5.913678e+00 5.975981e+00 6.025061e+00 6.072166e+00 6.108332e+00 6.121031e+00 6.116139e+00 6.098378e+00 6.043328e+00 5.928953e+00 5.787936e+00 5.770277e+00 5.572415e+00 5.420609e+00
<GCONST> 3.325371e+02
<MIXTURE> 8 4.634151e-02
<MEAN> 128
 4.918552e+00 5.589502e+00 6.315915e+00 6.959158e+00 7.442495e+00 7.615784e+00 7.748272e+00 7.793303e+00 7.832019e+00 7.935858e+00 8.034821e+00 8.202752e+00 8.354694e+00 8.387428e+00 8.339882e+00 8.365652e+00 8.483587e+00 8.579627e+00 8.643798e+00 8.668701e+00 8.677816e+00 8.687243e+00 8.776403e+00 8.899292e+00 8.955458e+00 8.895797e+00 8.699335e+00 8.501934e+00 8.339940e+00 8.140238e+00 7.861882e+00 7.541012e+00 7.266323e+00 7.045672e+00 6.872698e+00 6.779925e+00 6.755784e+00 6.737234e+00 6.726849e+00 6.721737e+00 6.719280e+00 6.738194e+00 6.749387e+00 6.732496e+00 6.703573e+00 6.673048e+00 6.629598e+00 6.546590e+00 6.431107e+00 6.334302e+00 6.281899e+00 6.218900e+00 6.112929e+00 5.993802e+00 5.907673e+00 5.866835e+00 5.852469e+00 5.836392e+00 5.768778e+00 5.652963e+00 5.482021e+00 5.259668e+00 5.012714e+00 4.817897e+00 4.755575e+00 4.828032e+00 4.982574e+00 5.154307e+00 5.294834e+00 5.361664e+00 5.350137e+00 5.316138e+00 5.310564e+00 5.335764e+00 5.391241e+00 5.447400e+00 5.459295e+00 5.415635e+00 5.345670e+00 5.305981e+00 5.314054e+00 5.360681e+00 5.423635e+00 5.497322e+00 5.568069e+00 5.610397e+00 5.600801e+00 5.546764e+00 5.486897e+00 5.436402e+00 5.407910e+00 5.413190e+00 5.452798e+00 5.515139e+00 5.560919e+00 5.569746e+00 5.587323e+00 5.616645e+00 5.655920e+00 5.697034e+00 5.731421e+00 5.754648e+00 5.769495e+00 5.690584e+00 5.618365e+00 5.559164e+00 5.512734e+00 5.477860e+00 5.449008e+00 5.413584e+00 5.354720e+00 5.190316e+00 5.006649e+00 4.813735e+00 4.610100e+00 4.393763e+00 4.175202e+00 3.965565e+00 3.760333e+00 3.597252e+00 3.444652e+00 3.276110e+00 3.086566e+00 2.861241e+00 2.507221e+00 1.807628e+00 1.997226e+00 2.500633e+00
<VARIANCE> 128
 3.221664e+00 3.702150e+00 4.555689e+00 5.289642e+00 5.440470e+00 4.992280e+00 4.439878e+00 4.043586e+00 3.765919e+00 3.666478e+00 3.765568e+00 3.872275e+00 3.809116e+00 3.440120e+00 2.909056e+00 2.707606e+00 2.859921e+00 3.042864e+00 3.104899e+00 2.972807e+00 2.717552e+00 2.495948e+00 2.415000e+00 2.394099e+00 2.324500e+00 2.139429e+00 1.884529e+00 1.772028e+00 1.790640e+00 1.740979e+00 1.547550e+00 1.330521e+00 1.253385e+00 1.258609e+00 1.232899e+00 1.191056e+00 1.165462e+00 1.160243e+00 1.162698e+00 1.187885e+00 1.246034e+00 1.319765e+00 1.424656e+00 1.564543e+00 1.764150e+00 2.024260e+00 2.281814e+00 2.465144e+00 2.526269e+00 2.520122e+00 2.548657e+00 2.603261e+00 2.622398e+00 2.601597e+00 2.615484e+00 2.679048e+00 2.727612e+00 2.687715e+00 2.509904e+00 2.226357e+00 1.914999e+00 1.592128e+00 1.295473e+00 1.081787e+00 9.981928e-01 1.040928e+00 1.175344e+00 1.351215e+00 1.495846e+00 1.551345e+00 1.502852e+00 1.394222e+00 1.298651e+00 1.242950e+00 1.215713e+00 1.187990e+00 1.124603e+00 1.023664e+00 9.045110e-01 8.016416e-01 7.547495e-01 7.545103e-01 7.626885e-01 7.544324e-01 7.118934e-01 6.412569e-01 5.695649e-01 5.215092e-01 5.030103e-01 5.007426e-01 5.044976e-01 5.101511e-01 5.142285e-01 5.128682e-01 5.019260e-01 4.812587e-01 4.552605e-01 4.303292e-01 4.093756e-01 3.954677e-01 3.924157e-01 3.954657e-01 3.974173e-01 3.970148e-01 3.939101e-01 3.899148e-01 3.928158e-01 4.118121e-01 4.450875e-01 4.798349e-01 4.957596e-01 4.835385e-01 4.543152e-01 4.246371e-01 4.001085e-01 3.780650e-01 3.623850e-01 3.592965e-01 3.652806e-01 3.740751e-01 3.835407e-01 3.885044e-01 3.834951e-01 3.718803e-01 3.628609e-01 3.875771e-01 3.871310e-01 3.817743e-01
<GCONST> 2.533331e+02
<MIXTURE> 9 8.068208e-02
<MEAN> 128
 7.730025e+00 9.357335e+00 1.093382e+01 1.229214e+01 1.340424e+01 1.409138e+01 1.451114e+01 1.462010e+01 1.460760e+01 1.468950e+01 1.488697e+01 1.523345e+01 1.560998e+01 1.588531e+01 1.601060e+01 1.601765e+01 1.596190e+01 1.587747e+01 1.585396e+01 1.587097e+01 1.588718e+01 1.587721e+01 1.591138e+01 1.601842e+01 1.615652e+01 1.626991e+01 1.628742e+01 1.626603e+01 1.624700e+01 1.622541e+01 1.616626e+01 1.604639e+01 1.589350e+01 1.575287e+01 1.561974e+01 1.546737e+01 1.527618e+01 1.502725e+01 1.474238e+01 1.442657e+01 1.409678e+01 1.377096e+01 1.343299e+01 1.305675e+01 1.264715e+01 1.223124e+01 1.183734e+01 1.148576e+01 1.122173e+01 1.110590e+01 1.110922e+01 1.109787e+01 1.099987e+01 1.083133e+01 1.064488e+01 1.047377e+01 1.032822e+01 1.021307e+01 1.010356e+01 1.002377e+01 9.960445e+00 9.876258e+00 9.768583e+00 9.696112e+00 9.709285e+00 9.791223e+00 9.919873e+00 1.007537e+01 1.022631e+01 1.035152e+01 1.047744e+01 1.064374e+01 1.083376e+01 1.101295e+01 1.118595e+01 1.135114e+01 1.150205e+01 1.164232e+01 1.178394e+01 1.195694e+01 1.216687e+01 1.240091e+01 1.262718e+01 1.282000e+01 1.295294e+01 1.299840e+01 1.292558e+01 1.273558e+01 1.247800e+01 1.219550e+01 1.193599e+01 1.174769e+01 1.165732e+01 1.165617e+01 1.170352e+01 1.176537e+01 1.183058e+01 1.182857e+01 1.171957e+01 1.151050e+01 1.123793e+01 1.094650e+01 1.068120e+01 1.038825e+01 1.017812e+01 1.005116e+01 1.001119e+01 1.005765e+01 1.015774e+01 1.025479e+01 1.028893e+01 1.014113e+01 9.884635e+00 9.554634e+00 9.189671e+00 8.810699e+00 8.438367e+00 8.090503e+00 7.767648e+00 7.521906e+00 7.335646e+00 7.176566e+00 7.017025e+00 6.825172e+00 6.499701e+00 5.785945e+00 6.009571e+00 6.521847e+00
<VARIANCE> 128
 1.771482e+00 2.265575e+00 2.590301e+00 2.597281e+00 2.287920e+00 1.835214e+00 1.515027e+00 1.478990e+00 1.574025e+00 1.500424e+00 1.285950e+00 1.196180e+00 1.237714e+00 1.313948e+00 1.435061e+00 1.669199e+00 1.933963e+00 2.039310e+00 1.931147e+00 1.725516e+00 1.554247e+00 1.496474e+00 1.512774e+00 1.543262e+00 1.550287e+00 1.528263e+00 1.539713e+00 1.629300e+00 1.778936e+00 1.927582e+00 2.041094e+00 2.130369e+00 2.172521e+00 2.143064e+00 2.116035e+00 2.146673e+00 2.223879e+00 2.323265e+00 2.459007e+00 2.646923e+00 2.839891e+00 3.014515e+00 3.180153e+00 3.344131e+00 3.515508e+00 3.729961e+00 3.999857e+00 4.314135e+00 4.592850e+00 4.750045e+00 4.817337e+00 4.859940e+00 4.882495e+00 4.845692e+00 4.709847e+00 4.485912e+00 4.288009e+00 4.190197e+00 4.206090e+00 4.292056e+00 4.401566e+00 4.535749e+00 4.719794e+00 4.932873e+00 5.092751e+00 5.108966e+00 4.978895e+00 4.755131e+00 4.485437e+00 4.188337e+00 3.850960e+00 3.505525e+00 3.237643e+00 3.065493e+00 2.990946e+00 3.022606e+00 3.147962e+00 3.336785e+00 3.518788e+00 3.632864e+00 3.662187e+00 3.582191e+00 3.363556e+00 3.032147e+00 2.683893e+00 2.408566e+00 2.216260e+00 2.066963e+00 1.924960e+00 1.775213e+00 1.626413e+00 1.521322e+00 1.483379e+00 1.487005e+00 1.497630e+00 1.501595e+00 1.512844e+00 1.540197e+00 1.559223e+00 1.544174e+00 1.514333e+00 1.515949e+00 1.581214e+00 1.727584e+00 1.942285e+00 2.173239e+00 2.377944e+00 2.582950e+00 2.816388e+00 3.015919e+00 3.079181e+00 2.988953e+00 2.816358e+00 2.644805e+00 2.524564e+00 2.452353e+00 2.408736e+00 2.381854e+00 2.335825e+00 2.246803e+00 2.136770e+00 2.039888e+00 1.963239e+00 1.877585e+00 1.785113e+00 1.737005e+00 1.715274e+00 1.812549e+00
<GCONST> 3.498914e+02
<MIXTURE> 10 8.866259e-02
<MEAN> 128
 7.791504e+00 9.494845e+00 1.114425e+01 1.258272e+01 1.377733e+01 1.452239e+01 1.494980e+01 1.501718e+01 1.491857e+01 1.488743e+01 1.501012e+01 1.538531e+01 1.588640e+01 1.633468e+01 1.662308e+01 1.672596e+01 1.665167e+01 1.642480e+01 1.620543e+01 1.608270e+01 1.605374e+01 1.604192e+01 1.604408e+01 1.609022e+01 1.620558e+01 1.637748e+01 1.651342e+01 1.660959e+01 1.667195e+01 1.672671e+01 1.678701e+01 1.684599e+01 1.691916e+01 1.702966e+01 1.715249e+01 1.724355e+01 1.728103e+01 1.724577e+01 1.715530e+01 1.701422e+01 1.682912e+01 1.659671e+01 1.630679e+01 1.595237e+01 1.554978e+01 1.513052e+01 1.472106e+01 1.433912e+01 1.401746e+01 1.380711e+01 1.371833e+01 1.366887e+01 1.359099e+01 1.347553e+01 1.334926e+01 1.323245e+01 1.314297e+01 1.309672e+01 1.307300e+01 1.308274e+01 1.310386e+01 1.310801e+01 1.310757e+01 1.315276e+01 1.325933e+01 1.338163e+01 1.349505e+01 1.358969e+01 1.364778e+01 1.365971e+01 1.364602e+01 1.364423e+01 1.365786e+01 1.365733e+01 1.363510e+01 1.358210e+01 1.349145e+01 1.338548e+01 1.331724e+01 1.336112e+01 1.353181e+01 1.378279e+01 1.403497e+01 1.422448e+01 1.431245e+01 1.428738e+01 1.414555e+01 1.390542e+01 1.362139e+01 1.333380e+01 1.307885e+01 1.288201e+01 1.274265e+01 1.263584e+01 1.251559e+01 1.235810e+01 1.218861e+01 1.198341e+01 1.173098e+01 1.143855e+01 1.112565e+01 1.081193e+01 1.052404e+01 1.020445e+01 9.966067e+00 9.809342e+00 9.733769e+00 9.745061e+00 9.828197e+00 9.933214e+00 9.990896e+00 9.875994e+00 9.662938e+00 9.381585e+00 9.051723e+00 8.675777e+00 8.265094e+00 7.846289e+00 7.455989e+00 7.200765e+00 7.109476e+00 7.142491e+00 7.204597e+00 7.176776e+00 6.916041e+00 6.236131e+00 6.431971e+00 6.905107e+00
<VARIANCE> 128
 1.158762e+00 1.404005e+00 1.574223e+00 1.552023e+00 1.344158e+00 1.079273e+00 9.382946e-01 1.016145e+00 1.184641e+00 1.150344e+00 9.424729e-01 8.131980e-01 7.959461e-01 8.148889e-01 8.651338e-01 1.021955e+00 1.300838e+00 1.543985e+00 1.544314e+00 1.318100e+00 1.079444e+00 9.992377e-01 1.082270e+00 1.194492e+00 1.219409e+00 1.189078e+00 1.250926e+00 1.507542e+00 1.876941e+00 2.177540e+00 2.356068e+00 2.468531e+00 2.485013e+00 2.329073e+00 2.059966e+00 1.792958e+00 1.571537e+00 1.431630e+00 1.401396e+00 1.469645e+00 1.593557e+00 1.738279e+00 1.869323e+00 1.963627e+00 2.013684e+00 2.021566e+00 1.992920e+00 1.944012e+00 1.895568e+00 1.873776e+00 1.893344e+00 1.942412e+00 2.033579e+00 2.178740e+00 2.338261e+00 2.469593e+00 2.560945e+00 2.622252e+00 2.672461e+00 2.721644e+00 2.780051e+00 2.875631e+00 3.014795e+00 3.144533e+00 3.172873e+00 3.072653e+00 2.863674e+00 2.589883e+00 2.315950e+00 2.083240e+00 1.939750e+00 1.952334e+00 2.118151e+00 2.366922e+00 2.645929e+00 2.904374e+00 3.094591e+00 3.176574e+00 3.114452e+00 2.908211e+00 2.630462e+00 2.325409e+00 1.993553e+00 1.673041e+00 1.426399e+00 1.277705e+00 1.190392e+00 1.113272e+00 1.026309e+00 9.412964e-01 8.992209e-01 9.516793e-01 1.090884e+00 1.247543e+00 1.379967e+00 1.518161e+00 1.700403e+00 1.898431e+00 2.046325e+00 2.111118e+00 2.115075e+00 2.090301e+00 2.026330e+00 1.926525e+00 1.854399e+00 1.887281e+00 2.099567e+00 2.533830e+00 3.118932e+00 3.660794e+00 3.967816e+00 3.970459e+00 3.715401e+00 3.321568e+00 2.921458e+00 2.588970e+00 2.344584e+00 2.174742e+00 2.031690e+00 1.891701e+00 1.778874e+00 1.698731e+00 1.613919e+00 1.502781e+00 1.396980e+00 1.313822e+00 1.306544e+00 1.427919e+00
<GCONST> 3.104722e+02
<MIXTURE> 11 6.305828e-02
<MEAN> 128
 7.023857e+00 8.569723e+00 1.020425e+01 1.178984e+01 1.332154e+01 1.458493e+01 1.565153e+01 1.636736e+01 1.676956e+01 1.689663e+01 1.674457e+01 1.656770e+01 1.650968e+01 1.661420e+01 1.686912e+01 1.723047e+01 1.761586e+01 1.790182e+01 1.807413e+01 1.812209e+01 1.808300e+01 1.799525e+01 1.793840e+01 1.794678e+01 1.801088e+01 1.810947e+01 1.819268e+01 1.829925e+01 1.843336e+01 1.857507e+01 1.868379e+01 1.871531e+01 1.866187e+01 1.854645e+01 1.837478e+01 1.814608e+01 1.786539e+01 1.752794e+01 1.716988e+01 1.681803e+01 1.649294e+01 1.618184e+01 1.584971e+01 1.546458e+01 1.502163e+01 1.454413e+01 1.407980e+01 1.368329e+01 1.340294e+01 1.325525e+01 1.320508e+01 1.316351e+01 1.306993e+01 1.291509e+01 1.272886e+01 1.254274e+01 1.238463e+01 1.227217e+01 1.218286e+01 1.212752e+01 1.208400e+01 1.201680e+01 1.192821e+01 1.187771e+01 1.192712e+01 1.207400e+01 1.228940e+01 1.253888e+01 1.279124e+01 1.303887e+01 1.331073e+01 1.363149e+01 1.396906e+01 1.427865e+01 1.455404e+01 1.478359e+01 1.496301e+01 1.510299e+01 1.522334e+01 1.537632e+01 1.558839e+01 1.585270e+01 1.613179e+01 1.639147e+01 1.659864e+01 1.671030e+01 1.667623e+01 1.648550e+01 1.618407e+01 1.582038e+01 1.545654e+01 1.516272e+01 1.498460e+01 1.491956e+01 1.491568e+01 1.492392e+01 1.492706e+01 1.485824e+01 1.468691e+01 1.442790e+01 1.411964e+01 1.379207e+01 1.345326e+01 1.300911e+01 1.255467e+01 1.211738e+01 1.176990e+01 1.159686e+01 1.159591e+01 1.165726e+01 1.164410e+01 1.139724e+01 1.099414e+01 1.050238e+01 1.000061e+01 9.538863e+00 9.150072e+00 8.867062e+00 8.712169e+00 8.729396e+00 8.845104e+00 8.946971e+00 8.955841e+00 8.848547e+00 8.559991e+00 7.816991e+00 8.118878e+00 8.694812e+00
<VARIANCE> 128
 1.149226e+00 1.236440e+00 1.403243e+00 1.514103e+00 1.469768e+00 1.248838e+00 9.659399e-01 8.426502e-01 1.064152e+00 1.576798e+00 2.039742e+00 2.066949e+00 1.626933e+00 1.093492e+00 8.575584e-01 9.651030e-01 1.183826e+00 1.314250e+00 1.381217e+00 1.503614e+00 1.648056e+00 1.680094e+00 1.562701e+00 1.371506e+00 1.196193e+00 1.115011e+00 1.152084e+00 1.282345e+00 1.433421e+00 1.531169e+00 1.541352e+00 1.492078e+00 1.392398e+00 1.225440e+00 1.067236e+00 1.011237e+00 1.069055e+00 1.199538e+00 1.350286e+00 1.479792e+00 1.572724e+00 1.641820e+00 1.682405e+00 1.681759e+00 1.653202e+00 1.622066e+00 1.594806e+00 1.559833e+00 1.505558e+00 1.458281e+00 1.425585e+00 1.373489e+00 1.296126e+00 1.218478e+00 1.158444e+00 1.125729e+00 1.131509e+00 1.189635e+00 1.305659e+00 1.480343e+00 1.694371e+00 1.940624e+00 2.240621e+00 2.613024e+00 3.000548e+00 3.291718e+00 3.450938e+00 3.504565e+00 3.469661e+00 3.351248e+00 3.175497e+00 2.961080e+00 2.714700e+00 2.442280e+00 2.163090e+00 1.910762e+00 1.703251e+00 1.554379e+00 1.463641e+00 1.406216e+00 1.363952e+00 1.306196e+00 1.199820e+00 1.049061e+00 9.035307e-01 8.376474e-01 8.738621e-01 9.700438e-01 1.059863e+00 1.085094e+00 1.025265e+00 9.202326e-01 8.482614e-01 8.377067e-01 8.539316e-01 8.584195e-01 8.622104e-01 9.092322e-01 9.965593e-01 1.076643e+00 1.120653e+00 1.152903e+00 1.210566e+00 1.293057e+00 1.368483e+00 1.401448e+00 1.423582e+00 1.567984e+00 1.894092e+00 2.262787e+00 2.500458e+00 2.540823e+00 2.413795e+00 2.216387e+00 2.052593e+00 1.938157e+00 1.839753e+00 1.749319e+00 1.698267e+00 1.717538e+00 1.763632e+00 1.743667e+00 1.617602e+00 1.440199e+00 1.325588e+00 1.295792e+00 1.296036e+00 1.406323e+00
<GCONST> 2.838553e+02
<MIXTURE> 12 6.750284e-02
<MEAN> 128
 6.430242e+00 7.327907e+00 8.278333e+00 9.081999e+00 9.649712e+00 9.869436e+00 1.002782e+01 1.007837e+01 1.011316e+01 1.020518e+01 1.029478e+01 1.044695e+01 1.055487e+01 1.054198e+01 1.045807e+01 1.043654e+01 1.049774e+01 1.055913e+01 1.062597e+01 1.069566e+01 1.079141e+01 1.091020e+01 1.107971e+01 1.125843e+01 1.139063e+01 1.146320e+01 1.148082e+01 1.154253e+01 1.162910e+01 1.167936e+01 1.168073e+01 1.166487e+01 1.167642e+01 1.169228e+01 1.169453e+01 1.169128e+01 1.167167e+01 1.161285e+01 1.153297e+01 1.143765e+01 1.133262e+01 1.122202e+01 1.108655e+01 1.091088e+01 1.071168e+01 1.051058e+01 1.032191e+01 1.015358e+01 1.002867e+01 9.982095e+00 1.000212e+01 1.001107e+01 9.971396e+00 9.898781e+00 9.825063e+00 9.769192e+00 9.751053e+00 9.786607e+00 9.847512e+00 9.938642e+00 1.003875e+01 1.012702e+01 1.020910e+01 1.031679e+01 1.045737e+01 1.059872e+01 1.073601e+01 1.087701e+01 1.101369e+01 1.112934e+01 1.122809e+01 1.134008e+01 1.146360e+01 1.155833e+01 1.161617e+01 1.163364e+01 1.160583e+01 1.154660e+01 1.148417e+01 1.145841e+01 1.147969e+01 1.154964e+01 1.165872e+01 1.181377e+01 1.201970e+01 1.224724e+01 1.243004e+01 1.252838e+01 1.255911e+01 1.254889e+01 1.254368e+01 1.258824e+01 1.269295e+01 1.283349e+01 1.296044e+01 1.304984e+01 1.313816e+01 1.321089e+01 1.324793e+01 1.323542e+01 1.318024e+01 1.311550e+01 1.309539e+01 1.306824e+01 1.311407e+01 1.318286e+01 1.323351e+01 1.325632e+01 1.326587e+01 1.326970e+01 1.323943e+01 1.306197e+01 1.281139e+01 1.251702e+01 1.219430e+01 1.183980e+01 1.147894e+01 1.115258e+01 1.086277e+01 1.064575e+01 1.047732e+01 1.032736e+01 1.016796e+01 9.948977e+00 9.562606e+00 8.850290e+00 8.927953e+00 9.348779e+00
<VARIANCE> 128
 2.663658e+00 3.291776e+00 4.140047e+00 4.849740e+00 5.216189e+00 5.221658e+00 5.073730e+00 4.946917e+00 4.827894e+00 4.782514e+00 4.848715e+00 4.927401e+00 4.944011e+00 4.836886e+00 4.635581e+00 4.448982e+00 4.322650e+00 4.189611e+00 4.006597e+00 3.767200e+00 3.474980e+00 3.198678e+00 2.975834e+00 2.810497e+00 2.635456e+00 2.447011e+00 2.283666e+00 2.195414e+00 2.148688e+00 2.093588e+00 2.026683e+00 1.997632e+00 1.965034e+00 1.929394e+00 1.877018e+00 1.800745e+00 1.731868e+00 1.668478e+00 1.612656e+00 1.565066e+00 1.535229e+00 1.526926e+00 1.538511e+00 1.558110e+00 1.574568e+00 1.580478e+00 1.578576e+00 1.572713e+00 1.549517e+00 1.528963e+00 1.543865e+00 1.578642e+00 1.603334e+00 1.624773e+00 1.667203e+00 1.742215e+00 1.856827e+00 2.023247e+00 2.261559e+00 2.533648e+00 2.769271e+00 2.916045e+00 2.975011e+00 2.966763e+00 2.890654e+00 2.752988e+00 2.586665e+00 2.425725e+00 2.268185e+00 2.109143e+00 1.985350e+00 1.931304e+00 1.934433e+00 1.966011e+00 2.018165e+00 2.073686e+00 2.116067e+00 2.139830e+00 2.149340e+00 2.158623e+00 2.192014e+00 2.243664e+00 2.286425e+00 2.315543e+00 2.348261e+00 2.391215e+00 2.431523e+00 2.467088e+00 2.500671e+00 2.529277e+00 2.559691e+00 2.608999e+00 2.675440e+00 2.748224e+00 2.852804e+00 3.021134e+00 3.250004e+00 3.493389e+00 3.703847e+00 3.856517e+00 3.963783e+00 4.091029e+00 4.307604e+00 4.615444e+00 4.938024e+00 5.206823e+00 5.404330e+00 5.525306e+00 5.578529e+00 5.615835e+00 5.678221e+00 5.761185e+00 5.852162e+00 5.946072e+00 6.022273e+00 6.047021e+00 6.019029e+00 5.968652e+00 5.906580e+00 5.824075e+00 5.720462e+00 5.603643e+00 5.482231e+00 5.361535e+00 5.264629e+00 5.268835e+00 5.173738e+00 5.116016e+00
<GCONST> 3.746315e+02
<MIXTURE> 13 5.564273e-02
<MEAN> 128
 8.085744e+00 9.845344e+00 1.148448e+01 1.282670e+01 1.383218e+01 1.432133e+01 1.449032e+01 1.435250e+01 1.414283e+01 1.413162e+01 1.440701e+01 1.492262e+01 1.541293e+01 1.568052e+01 1.569000e+01 1.554556e+01 1.540188e+01 1.534551e+01 1.542733e+01 1.554554e+01 1.558463e+01 1.549772e+01 1.538189e+01 1.532354e+01 1.530975e+01 1.528335e+01 1.516679e+01 1.501545e+01 1.485854e+01 1.469342e+01 1.449891e+01 1.428096e+01 1.408689e+01 1.395352e+01 1.384541e+01 1.372383e+01 1.356873e+01 1.334471e+01 1.306003e+01 1.273782e+01 1.243007e+01 1.216022e+01 1.188062e+01 1.155239e+01 1.118972e+01 1.084771e+01 1.059136e+01 1.043329e+01 1.037653e+01 1.045724e+01 1.060434e+01 1.066352e+01 1.057036e+01 1.034522e+01 1.004476e+01 9.717518e+00 9.393362e+00 9.099868e+00 8.832183e+00 8.634670e+00 8.489756e+00 8.346941e+00 8.201463e+00 8.113848e+00 8.131055e+00 8.227700e+00 8.368979e+00 8.514787e+00 8.611347e+00 8.629615e+00 8.599105e+00 8.590986e+00 8.643241e+00 8.736024e+00 8.856921e+00 8.969645e+00 9.024269e+00 9.006873e+00 8.945984e+00 8.911219e+00 8.955271e+00 9.077928e+00 9.213698e+00 9.299784e+00 9.294534e+00 9.183825e+00 8.968314e+00 8.674620e+00 8.359604e+00 8.057505e+00 7.797591e+00 7.607029e+00 7.491019e+00 7.433516e+00 7.396881e+00 7.363563e+00 7.370843e+00 7.402132e+00 7.432243e+00 7.435959e+00 7.399262e+00 7.325269e+00 7.238265e+00 7.085975e+00 6.990683e+00 6.951481e+00 6.949240e+00 6.974634e+00 7.037309e+00 7.154982e+00 7.320477e+00 7.414270e+00 7.458945e+00 7.413948e+00 7.252408e+00 6.973217e+00 6.609715e+00 6.191977e+00 5.729001e+00 5.296440e+00 4.923829e+00 4.631697e+00 4.416244e+00 4.226022e+00 3.935521e+00 3.347771e+00 3.508114e+00 3.939426e+00
<VARIANCE> 128
 1.596323e+00 2.025359e+00 2.230465e+00 2.110986e+00 1.728115e+00 1.324537e+00 1.078662e+00 1.065939e+00 1.139584e+00 1.108783e+00 1.013375e+00 1.000209e+00 1.058635e+00 1.162393e+00 1.333087e+00 1.514343e+00 1.553690e+00 1.429534e+00 1.279138e+00 1.211055e+00 1.274217e+00 1.414582e+00 1.483511e+00 1.415795e+00 1.298085e+00 1.212883e+00 1.231469e+00 1.325971e+00 1.431439e+00 1.477341e+00 1.468793e+00 1.485483e+00 1.541853e+00 1.517496e+00 1.405383e+00 1.309592e+00 1.297763e+00 1.362878e+00 1.466016e+00 1.559410e+00 1.667264e+00 1.800045e+00 1.961429e+00 2.117074e+00 2.268911e+00 2.435310e+00 2.621774e+00 2.856185e+00 3.148853e+00 3.412992e+00 3.635438e+00 3.830955e+00 4.013945e+00 4.138771e+00 4.078661e+00 3.799597e+00 3.482742e+00 3.224067e+00 3.071794e+00 2.963647e+00 2.885342e+00 2.823047e+00 2.758686e+00 2.700277e+00 2.678278e+00 2.697038e+00 2.711200e+00 2.671723e+00 2.588542e+00 2.449916e+00 2.258516e+00 2.103761e+00 2.056829e+00 2.089983e+00 2.191014e+00 2.362077e+00 2.576730e+00 2.795616e+00 2.978324e+00 3.105929e+00 3.197377e+00 3.238596e+00 3.196802e+00 3.082039e+00 2.928528e+00 2.787244e+00 2.674146e+00 2.584965e+00 2.507148e+00 2.425488e+00 2.352036e+00 2.327196e+00 2.361951e+00 2.417483e+00 2.486521e+00 2.592293e+00 2.710854e+00 2.762326e+00 2.701483e+00 2.555140e+00 2.380322e+00 2.209065e+00 2.053118e+00 1.948027e+00 1.916903e+00 1.944727e+00 2.004964e+00 2.076504e+00 2.150498e+00 2.203038e+00 2.196075e+00 2.150663e+00 2.127008e+00 2.143027e+00 2.153372e+00 2.105412e+00 2.004741e+00 1.878692e+00 1.727131e+00 1.568851e+00 1.463906e+00 1.448376e+00 1.485776e+00 1.492648e+00 1.418103e+00 1.264120e+00 1.278298e+00 1.373968e+00
<GCONST> 3.248520e+02
<MIXTURE> 14 3.808381e-02
<MEAN> 128
